%YAML:1.0
my_nn: !!opencv-ml-ann-mlp
   layer_sizes: !!opencv-matrix
      rows: 1
      cols: 4
      dt: i
      data: [ 16, 30, 30, 10 ]
   activation_function: SIGMOID_SYM
   f_param1: 1.
   f_param2: 1.
   min_val: -9.4999999999999996e-001
   max_val: 9.4999999999999996e-001
   min_val1: -9.7999999999999998e-001
   max_val1: 9.7999999999999998e-001
   training_params:
      train_method: RPROP
      dw0: 1.0000000000000001e-001
      dw_plus: 1.2000000000000000e+000
      dw_minus: 5.0000000000000000e-001
      dw_min: 1.1920928955078125e-007
      dw_max: 50.
      term_criteria: { epsilon:9.9999997764825821e-003, iterations:1000 }
   input_scale: [ 1.0987657683770768e-001, -1.8019758601384059e-001,
       8.8923358311123885e-002, -5.6377409169252546e-001,
       8.3068398435617918e-002, -1.4952311718411226e+000,
       7.3780668328530682e-002, -8.6766065954352078e-001,
       9.2534855653956707e-002, -2.6650038428339529e-001,
       9.6557488826539917e-002, -2.5877407005512698e-001,
       7.3405375116884705e-002, -6.6945702106598848e-001,
       6.6860157642525300e-002, -1.0015651614850289e+000,
       9.2528517519901723e-002, -2.5167756765413268e-001,
       9.4395254608543755e-002, -3.0017690965516913e-001,
       7.5398059245154331e-002, -8.9572894383243351e-001,
       7.0954899448718148e-002, -9.3092828076718204e-001,
       1.1087564772044810e-001, -1.8405357521594384e-001,
       8.3035287181997680e-002, -7.9879946269081759e-001,
       7.8261829425072052e-002, -1.2662764000976658e+000,
       7.8241513027326029e-002, -6.0558931083150347e-001 ]
   output_scale: [ 5.2631578947368418e-001, 4.9999999999999994e-001,
       5.2631578947368418e-001, 4.9999999999999994e-001,
       5.2631578947368418e-001, 4.9999999999999994e-001,
       5.2631578947368418e-001, 4.9999999999999994e-001,
       5.2631578947368418e-001, 4.9999999999999994e-001,
       5.2631578947368418e-001, 4.9999999999999994e-001,
       5.2631578947368418e-001, 4.9999999999999994e-001,
       5.2631578947368418e-001, 4.9999999999999994e-001,
       5.2631578947368418e-001, 4.9999999999999994e-001,
       5.2631578947368418e-001, 4.9999999999999994e-001 ]
   inv_output_scale: [ 1.8999999999999999e+000, -9.4999999999999996e-001,
       1.8999999999999999e+000, -9.4999999999999996e-001,
       1.8999999999999999e+000, -9.4999999999999996e-001,
       1.8999999999999999e+000, -9.4999999999999996e-001,
       1.8999999999999999e+000, -9.4999999999999996e-001,
       1.8999999999999999e+000, -9.4999999999999996e-001,
       1.8999999999999999e+000, -9.4999999999999996e-001,
       1.8999999999999999e+000, -9.4999999999999996e-001,
       1.8999999999999999e+000, -9.4999999999999996e-001,
       1.8999999999999999e+000, -9.4999999999999996e-001 ]
   weights:
      - [ -2.4616533144448413e-001, 5.8105905937177726e-001,
          5.1788629621854776e-001, -4.9812359885418861e-001,
          9.9221327240237613e-003, -5.0237986167571178e-002,
          5.5253243185915135e-001, -1.8854350989769289e-001,
          -1.1522182330576169e-001, -4.1191202931769963e-002,
          2.2140940544190002e-001, -1.9322081204870301e-001,
          -2.4342204959270847e-001, -7.2905595100203717e-003,
          -7.2813421355534036e-001, 2.2343534617231520e-003,
          -8.7647925167351454e-002, -5.3387027420948130e-001,
          -1.6095885081521363e-001, -4.0246255298681632e-001,
          -1.1931172093199682e+000, -8.9228225469520500e-002,
          1.8532031055368325e-001, 1.1523133616298864e-001,
          -1.6898646375290532e-001, -5.2053842029897046e-001,
          4.0011787176705488e-001, 3.3818504591126508e-001,
          3.4191710782205100e+000, 6.4727736680455350e-001,
          -5.5112970963660191e-001, 1.9254863392786434e-001,
          -2.7296450969534664e-001, 6.2288369226177198e-002,
          2.7749777566610585e-002, -4.6740380304661028e-001,
          1.4956599417053665e-001, -1.3478457131656130e-001,
          1.9705086836254679e-001, -1.8299350600991483e-003,
          -2.3938528887608803e+000, -2.7946136149486472e-001,
          2.3565938302029554e-001, -1.1728136472016648e-001,
          1.2334030248028940e-001, -2.7845308802705054e-001,
          1.0103755723720582e-001, -3.7327441157606633e-001,
          -4.4976126811420249e-002, -7.1042874256833741e-002,
          5.5812093477825966e-002, 2.6411112148266153e-001,
          1.2089362028708338e-001, 3.1053409404622595e-001,
          -1.2410520534830688e-001, 2.8444143048645680e-003,
          4.2033975414512031e-001, 1.3181706037849084e-001,
          5.3836122140298714e-003, 3.3295948045129564e-001,
          4.6793549632329889e-001, 1.1671399321371802e-001,
          -6.4144159479889218e-002, -9.1102810663207512e-001,
          1.0382211395264193e-002, -3.0203157071342213e-001,
          -2.2929937515398927e-001, 1.2297600662080954e-001,
          -7.0317538161131829e-002, -8.5691002815467238e-002,
          5.1938832044238037e-001, -1.4543542584762892e-001,
          -3.5933135672258637e-001, -3.7956101848262792e-002,
          -9.4700419908857636e-002, 1.3743130902815337e-001,
          -4.6003203778396937e-002, 6.4710983439741701e-002,
          -1.7253452261323848e-001, -1.3594131714767438e-001,
          2.2882766058213749e-002, -2.1187639760097041e-001,
          2.4909493624678117e-001, 2.9728671204924673e-001,
          -9.0941056635118991e-002, -8.4539807454676579e-003,
          1.7029669795794558e-001, -1.4880796949927999e-001,
          -1.4739194225472887e+000, -4.3659089087740849e-001,
          -9.9420203992788253e-002, 6.6698563441812492e-002,
          2.9471286366532201e-001, -4.6276863866747245e-002,
          5.2396812328321517e-002, 2.1916593254919869e-001,
          -7.3571153984667306e-002, -4.0754913572499704e-002,
          3.6464678751216018e-001, 1.6118107879714380e-001,
          1.4487297008012270e-001, 1.7247912536574697e-001,
          -1.6855676992139160e-001, 1.7390879359575942e-001,
          5.0302979212974677e-002, 6.4476092871449370e-002,
          -1.3933763102681035e-001, 2.8048010046317462e-001,
          1.4183131664583140e-001, 1.4108633908658075e-001,
          9.8314416667072957e-001, 1.9195279281217517e-001,
          2.0352983567364794e-001, 6.7601029503554316e-002,
          -5.7270488792135182e-003, -1.9259988274773046e-001,
          -1.6760698249106254e-002, 9.3794065374998056e-002,
          1.3941358970484805e-001, -4.0862521316487557e-002,
          5.1889445057688048e-002, 1.1808696901131459e+000,
          8.2467786668907173e-001, -9.0504793704906689e-002,
          8.2592299342026207e-002, -1.4901386662652266e-001,
          -5.6683474912289700e-002, 8.2962546359512113e-001,
          7.1691018021634620e-002, -5.9821114666749955e-002,
          -3.3687794761551558e-002, 2.4794292659018086e-001,
          1.4785529924697546e-001, 1.1080089531527298e-001,
          -4.0513113194554952e-002, 9.0196225188255374e-002,
          3.3658225215479687e-001, -1.7716023572242601e-002,
          8.2168958129091640e-002, -2.8515061480804765e-002,
          5.6548996277055530e-001, 3.5529006180131756e-001,
          -7.5790534198151371e-001, -6.6752328810076094e-003,
          3.5446922870056224e-001, 9.8810467637624411e-002,
          -3.2114602779058277e-001, 1.8112664194846689e-001,
          1.8624807197137345e+000, 1.0147493663030610e-001,
          2.8062265178192253e-001, 3.3361885146061449e-001,
          2.9962758751953783e-001, 2.3798185736446995e-001,
          2.7462424566655225e-001, -1.4329568520230374e-001,
          1.7831909994451978e-001, -5.6476509038541478e-001,
          9.3410102293169894e-001, 3.8558981534673065e-001,
          -1.4505736760088908e-001, -3.7084049477816801e-002,
          -2.0720154347102174e-001, 1.8228027735651892e-001,
          -3.9747397402466694e-001, 3.4514627775776477e-002,
          4.2083827321997419e-001, -6.9187667194243324e-002,
          -1.6213039592546188e-002, 1.7624011406021536e-001,
          -4.8928220059799477e-004, 6.3323789641834483e-001,
          2.8696220723306221e-001, 3.0153894458267311e-001,
          -1.8292786113717047e-001, -4.6011139661019851e-001,
          1.3836246022446988e-001, 3.2061136993257849e-001,
          1.1484899846455753e-001, -4.8416092132529488e-002,
          -4.1816850369433572e-001, 3.4810583327595529e-001,
          1.5847993538699683e+000, 2.8237749477466656e-001,
          6.2559235533718838e-002, -8.2454111155726345e-002,
          1.8719364868516494e-002, 2.0875794750604582e-001,
          -5.9633601723161245e-001, 9.5008219671655694e-002,
          9.3869306111280443e-002, -4.2034363986926626e-001,
          -1.1044045397167389e-001, 2.9379149222726202e-002,
          -3.1646625356584562e-001, -3.8434925956471278e-001,
          8.7036201145738276e-002, 2.6999901239130042e-001,
          6.4456642074026060e-001, -1.8381366844494280e-002,
          7.7790219229498095e-002, -2.4865235873877159e-001,
          3.0672375347185393e-001, 2.7804312702994421e-001,
          -2.3728871835160978e-001, 1.9097167460688849e-001,
          2.9346978517689742e-001, 2.7777660710801722e-002,
          -7.8949348395441954e-001, 3.1703861065691075e-001,
          8.4006281362080992e-002, -2.2018378181235884e-001,
          3.0087055600195560e+000, -8.2581241998762267e-001,
          -1.3902251092032625e-001, -2.5211935821747525e-003,
          7.3922184613023453e-002, -1.4930550413217811e-001,
          -3.8759616684722012e-002, 1.4107752623673078e-001,
          4.0142528356566086e-002, 9.5278501705631735e-002,
          3.4991982381268744e-001, -6.0430327060410460e-001,
          -1.0670336523967813e-001, 3.6593894925277715e-001,
          -2.7264127745621114e-001, 3.0882407254292632e-001,
          -1.0448873964403960e-001, -7.1815092159517924e-001,
          3.5010157008284283e-002, -1.4429171388407305e-001,
          1.4962660393627833e-001, 1.8040429816890305e-001,
          2.7729758975225470e-002, -1.7822372539158224e-001,
          1.4136699757412660e-001, -1.9982365808426154e-002,
          -1.1035349900097202e+000, 1.9001907390780174e-002,
          6.8114040559782679e-002, 4.7222888067136776e-001,
          8.2376264438520985e-001, -4.2359320096601422e-001,
          -3.0338131985860950e-001, 3.2819468838325268e-002,
          3.2840037728340932e-002, 4.0453696980165356e-002,
          2.3051012814616306e-001, -6.0181575895861039e-001,
          1.7905807849808483e-001, 2.5850811239588029e-001,
          -1.8599092802066734e-002, 2.6430815725676610e-001,
          7.5726789312795834e-002, 3.0730606771012270e-001,
          4.8576098217888797e-001, 4.5414235947783564e-002,
          -1.0947340927332194e-001, 4.0638272811228608e-002,
          4.5208825663344193e-001, 4.6613467905948996e-001,
          -1.3405830898330429e-001, -6.4568870556437757e-002,
          -3.1921613120703941e-002, 1.1254563486780350e-001,
          2.6908358041486036e-001, 2.9405095113141733e-001,
          -2.7839487743426594e-002, -1.1354933888819405e-001,
          -7.4618249808047696e-002, 9.2359534938822951e-001,
          -2.9492474883675779e-001, -1.2848301310376659e-001,
          1.3807006664837463e-002, -9.1040688966023409e-002,
          3.1542562707462396e-001, 2.9635971336001410e-001,
          1.8184402439848013e-001, 1.2823089947992139e+000,
          3.9012452195157821e-001, -2.4253197973172583e-001,
          8.9472796395719367e-002, 1.0075700874488025e-001,
          -9.3452606369593239e-001, 2.8632093443053674e-001,
          -8.4970168616401698e-001, -7.8183007943194383e-002,
          -1.5174034103484205e-001, 4.3068895737448647e-004,
          -2.1428952380588101e-001, 5.5704685392660616e-002,
          -6.7292570051365033e-002, -1.3819932267259685e-001,
          6.6894366482111540e-003, -2.6607060658663667e-001,
          2.3522025896535403e-001, 8.9461982154734374e-002,
          4.0688894364289208e-001, 9.0778862786739370e-002,
          2.1723557466665311e-001, 5.2523965532213113e-001,
          9.0837334713164908e-002, -3.3458723651240169e-001,
          -5.3330671914354344e-001, -1.5739275260833716e-001,
          -8.4902111610472675e-002, 1.5998134092662389e-001,
          -6.2458049724429154e-001, 1.1719722770769021e+000,
          3.6929642899884768e-003, -2.3334675294734170e-001,
          7.1208978203580603e-002, 4.7699133630436923e-002,
          -2.7170803840369018e-001, 9.4237746905614012e-002,
          -1.7168383270917631e-002, 9.6101631258000211e-002,
          -2.1701638683974825e-001, -1.1639568236559911e-001,
          3.8407178910770050e-002, 1.3586427347716692e-001,
          9.1885251148954294e-002, -2.9146501620714216e-001,
          -1.3730057952697307e-002, -4.0477347027729760e-001,
          3.2507984684170949e-001, -1.7070645413299176e-001,
          -1.3138967492214337e-002, 5.4094611773647501e-002,
          2.2582318296337490e-002, -1.6781918981262453e-001,
          5.3722227906024794e-002, -2.7913245221836935e-001,
          3.4667919778813949e-001, 1.8721750447188853e-003,
          1.7688707078032659e-001, 1.1202341845744643e-001,
          5.4750193488577525e-001, 1.2653609421659234e-001,
          1.8598814681007231e-001, -2.0430758321674586e-001,
          -5.1192752916972839e-001, 4.6945853591438441e-001,
          -6.8617184559299282e-001, 2.0335561092249843e-001,
          -1.6951617471471413e-002, 1.0406390043007845e-001,
          2.1695424219580345e-001, 1.0055232500244873e-001,
          -6.4834602449185008e-001, 5.9007030677825680e-003,
          2.7262233716805429e-001, 1.1579283685357673e-001,
          8.3091085462836486e-002, -3.6547269163371721e-001,
          2.6693019489450309e-002, 8.9401786042189513e-002,
          -3.1373818822177397e+000, 1.5475295790681012e-001,
          5.1185412354334836e-001, 9.1480292671997321e-001,
          -2.0393268133786957e-001, -1.3471354368805819e+000,
          -9.3857216397459295e-002, -1.2791258494363852e-001,
          8.7109772235272304e-002, 2.5121159067181494e-002,
          8.9662119920762784e-002, -4.6844818114460597e-002,
          4.0539936425702026e+000, -1.9296522427926058e-001,
          -2.4342665859493298e-001, -4.9559604969464911e-002,
          -3.5311228198356606e-003, 3.9612497543726831e-002,
          8.0691328621404532e-002, -7.3403224641826244e-003,
          -1.1279616001591899e-001, 4.6331584697654450e-002,
          -7.8341973283841751e-003, 2.2946420021869776e-001,
          9.6300988451542369e-001, -1.5106246925827521e-001,
          -2.8174992005300203e-001, -1.9584899626482061e-001,
          3.9148838905507111e-001, 4.0177994832695567e-002,
          -2.5004346895452595e-001, -1.0723377436957175e+000,
          -3.6037542959390170e-002, 1.9250232323913135e+001,
          2.6800400762749105e-001, -2.9062405720066425e-001,
          -3.0682258846808053e-001, -2.9147086806280587e-002,
          1.9333310151777497e-001, 2.1608215282354670e-001,
          -1.5686168739730000e-001, 9.9950307721026044e-001,
          5.5493955658816330e-001, -4.1167297385325441e-001,
          6.9016830986332489e-002, 8.0413945159650571e-002,
          3.7606564745363258e-001, -4.8280691238340286e-002,
          -3.9574792386083207e-001, 2.1548076886381548e-001,
          -2.3701183474452280e-002, -1.3764207350748156e-001,
          -1.0664773676405796e-001, -2.0363465190243846e-001,
          2.7694807243974245e-001, 2.1679392446876911e-001,
          -1.0756786336770530e-001, -2.7231073392614980e-001,
          2.7494084765539761e-001, 1.6643884722244293e-001,
          -1.3174111399305499e-001, 8.7557791171466726e-002,
          -5.4701597906721001e-002, -8.8790566012372463e-001,
          -8.6895039193060857e+000, -1.8980158637212994e+000,
          7.6829387762975529e-002, -5.4448796517819165e-001,
          -3.7992848274725205e-001, 4.9348733051188187e-001,
          -9.2753399335028519e-002, 1.3515129652717772e-001,
          -9.9581873488378575e-002, -5.8489463618399196e-001,
          7.1992051932380230e-001, 7.3751597564433849e-002,
          4.3510345991503580e-001, 3.2215094094379276e-001,
          4.1652168415848811e-001, 5.9834661060465810e-001,
          1.5105750219748371e-001, -2.4518934940612774e-001,
          1.1218928944710951e-001, 6.8762693074586559e-002,
          7.5351329216404320e-002, -1.1145361073134233e-001,
          6.6462769119438422e-002, -5.0596811533876784e-001,
          -8.0338891493767717e-002, 3.0100456987670704e-001,
          1.8631293170914718e+000, 3.5675200147410790e-001,
          -1.2576928116865679e-001, 6.4789734017722880e-002,
          9.9760530975887018e-001, 9.1162520155200280e-002,
          1.0442450446967642e+000, -2.3768382804733996e-002,
          -8.3915757843670766e-002, -5.3297160788363895e-001,
          -9.8326785928038674e-001, -4.1871482267782817e-001,
          3.3838377303394884e-001, 7.3569559824887248e-002,
          -1.7398687995690870e-001, 3.0125629316503311e-001,
          1.7699215803626017e-001, -8.7676737304158980e-001,
          2.5493637503358074e-001, 1.1931707196731015e-001,
          7.5905698932550683e-002, -2.1927314168050974e-001,
          -3.3819602960541886e-002, -6.9615404172275575e-002,
          6.9454193666118469e-001, 3.1531597636921421e-001,
          -4.0698913761344141e-001, -4.8162681543851477e-001,
          2.2230953364230133e-001, 2.0045200713390804e-001,
          -7.7240628864161032e-001, 1.5937343921718472e-001,
          -9.6557273594092718e-002, -8.8139290752971411e-001,
          6.5580262057595276e-002, 2.8794618894230511e-001,
          3.3288156070896795e-002, -4.3470317631161420e-001,
          -3.9457924598041583e-001, 1.2091072754324053e-001,
          -3.7821352076070242e-001, 9.1786134707627587e-002,
          8.8680976644658141e-002, 3.8871627917149459e-001,
          -9.5179612535235741e-002, 3.6871596242381305e-001,
          5.8831377033204138e-002, -1.9281279485237363e-001,
          -6.1271204376196160e-002, 7.3365678865264583e-001,
          -3.1590325823396981e-001, 1.0887943827191954e-001,
          3.6619585607940636e-001, 5.6419418869199001e-001,
          -2.8635323380444583e-001, 1.3818401161697827e-001,
          -5.6364796613112522e-001, 3.7641683992244362e-001,
          -4.3980102454350040e-001, -5.0809870062607732e-001,
          -6.4146048236261438e-002, -3.2402389740099447e-001 ]
      - [ 1.0110848971482429e-001, -2.4474713595779488e-001,
          1.2495026135325658e-001, 9.5363269496190506e-002,
          -7.0451033297066187e-002, -3.5429580620071788e-001,
          -1.7247035564403226e-001, -2.3937227947598068e+000,
          -2.2771759253975635e-001, 4.0856649746255194e+000,
          -1.2196608695957645e-001, -3.1619799954001726e+000,
          -3.4699207041416358e-001, -9.3847677185675375e-003,
          3.9955736665986792e+000, -7.4359490204292795e+000,
          -2.1453534436498396e-002, 3.8302926736424499e-002,
          4.1285288535947835e+000, 1.9158269627684860e-001,
          -5.9956106255317582e-002, 2.4137409073770419e-001,
          1.8414586171120370e-001, 5.5212611804493150e-001,
          -3.9246447297637083e-001, -3.4000400719812168e-001,
          5.6793839740573865e-002, -9.6725334183108858e-001,
          -1.8321718654751767e-002, -1.6402940870991847e+000,
          4.3479394797165949e-001, -3.2019457973077245e-002,
          2.7134781412993247e-001, -8.1629718675735055e-002,
          1.3241590961239549e-001, -1.2474895490862395e-001,
          -4.0203901372204399e-002, -1.0257314813710573e-001,
          -4.8146513294785795e-002, 7.9977301741358281e-002,
          4.7728959976891816e-001, 3.3950704004859061e-001,
          2.4679325917123460e-001, -8.8144528459797575e-002,
          6.2355039805674209e-002, 3.0482861853751841e-001,
          -1.2567804327695326e-001, 5.1770300756348919e-001,
          -7.9522746871949335e-001, 3.6498078037840265e-001,
          -2.4403962240043556e-001, -1.4906243136944219e-001,
          3.4218305281193323e-001, 9.8588471615474280e-002,
          -1.5570868163033158e-001, -8.3284985457538291e-002,
          -8.4715214495222527e-002, -2.2834524960854346e-002,
          3.2883105533792985e-002, -1.3100846835388316e-001,
          -1.2087695901369704e-001, 8.4849230188025815e-002,
          7.3215773649705190e-002, 1.0990789219708487e-001,
          -1.1068190974303926e-001, 3.4457037431153709e-001,
          -9.1712832965863564e-002, 1.0984680347982018e-001,
          -1.2476818774295481e-001, 7.6741993603629610e-001,
          -1.2957652851684187e-001, 3.9945556570447827e-001,
          -3.6263783652702808e-001, 1.7668655869135663e-001,
          -4.5261765032803131e-001, -3.5035624593010894e-001,
          8.7900123370428324e-002, 8.0709896225730354e-002,
          1.9995704036619513e+000, -2.4827171935196898e-001,
          -1.1778996677185426e-001, 5.3476936655891172e-001,
          1.7989632214461609e-001, -1.5005403092039293e-001,
          2.7505363692050696e-002, -4.8157648936129815e-001,
          8.4203421114701638e-001, 6.3026240608433787e-002,
          1.5102140677629738e-001, 2.3487525854910467e-002,
          2.8751371173697854e-001, 4.9504612709499857e-001,
          1.7063202930666185e-001, -1.8476850494843419e-001,
          -6.1179814097362777e-002, -8.0410297290151572e-003,
          1.6534464129543433e-001, 1.6081207498005587e-001,
          -9.8017868841282010e-002, 1.5265924169360137e-001,
          -3.2736462435809639e-002, -2.5446943035091779e-001,
          -1.6352290201303915e-001, 6.2163404472548825e-002,
          5.4740860938044499e-002, -1.4498200843061042e+000,
          1.5063922593740653e-001, 8.5771255744154362e-001,
          -2.1897215646734658e+000, -9.1200399903654875e-003,
          -1.3735058333362413e+000, -1.5223356927628184e-001,
          8.5777567024992715e-002, 2.4002331838731264e-001,
          -1.1107446618395647e+000, -1.9736637123867856e-001,
          2.3427752468146781e-001, 1.0808045802307040e-001,
          3.1292821037780631e-002, 2.5523466912147179e+000,
          7.0361877823829452e-002, -5.5091426778740724e-002,
          -5.4967586849367339e-002, -3.8189382965985785e-002,
          3.9931462442024646e-001, -5.0004198570290259e-002,
          -2.2511929521061031e-003, 5.5777953453557932e-002,
          -3.7094625856952203e-002, 1.5937844327581258e-001,
          -2.5424879376924181e-001, -3.0594873006584061e-001,
          3.6595949891282981e-001, 1.7501877301343158e-001,
          3.7293664382153074e-001, -1.0575446933019461e-001,
          1.2247265492382653e-001, 1.2496793454281692e-001,
          -4.2863145486534104e-001, -9.7781185542394414e-002,
          -1.7038268704004258e+000, 3.2948360566253110e-003,
          -9.0836166765744880e-002, -3.0855052520470407e-002,
          6.2115861201430610e-002, -1.4601093845082969e-001,
          -1.8246109044139447e-001, 1.0377031898906046e-001,
          1.2009268624244548e-001, -2.1187414697680127e-002,
          2.0660820519380724e-001, 2.6874486782791068e-001,
          3.2802427379189164e-001, -2.3592669797687319e-002,
          2.9685060729402934e-001, 1.0257775723010794e+000,
          -4.4259305800818949e-001, -3.2163499035845167e-001,
          -1.7375138331089263e-001, 1.7447514684107818e-001,
          1.4056290201108618e-001, 1.6066120122027010e-002,
          3.4269759239979075e-002, -6.0237608427819209e-002,
          3.8015344097774223e-001, 3.8649954413929966e-001,
          -5.0357967378492763e-001, -7.1137949829158012e-002,
          2.9872719700410250e-002, 8.4170124876867106e-002,
          2.7488239368287520e-001, -8.6469921548795764e-002,
          1.6664041257095447e-001, 1.7612819439187813e-001,
          -4.6458783422598821e-002, 6.3444915939482191e-002,
          7.7749971223556702e-002, -4.2956334539054197e-001,
          -1.3916028303588804e-001, -6.3186384881100122e-002,
          1.2204887097016451e-001, 6.7417711174121625e-002,
          1.9378234039295181e-001, -9.6457980470456867e-002,
          1.6523330728979682e-001, 1.0890541060988781e-001,
          -3.1489673236254394e-002, -1.0225459082907828e-001,
          -2.6210351708120444e-001, 2.2558959179081081e-001,
          -1.5031929848905010e-002, 7.3240653911976150e-002,
          6.0879110700836583e-002, 9.8305069491357866e-002,
          3.0126184808133383e-001, 1.3105423685191925e-002,
          -1.0712266839130433e-001, -7.2361590732078693e-002,
          -1.1771463269178779e+000, 2.2501750161476874e-001,
          1.3919415988450351e-001, 1.4445625480915386e-001,
          -1.4109890018351373e-001, 1.2440490718401691e-002,
          -8.4170040686433342e-002, 1.0292426460044282e-001,
          6.5221109086220475e-002, -1.5646264115787392e-001,
          -1.5324896824371945e-001, -1.0588605251521159e-001,
          -5.8412366558297002e-001, 9.8078602096391375e-003,
          -1.3178681107351478e+000, 9.5005999908417946e-002,
          8.0579594563364665e-001, -1.0481802219613158e-001,
          2.0033978041839078e-002, 5.0991277278782099e-001,
          -4.3749108507143454e-002, -9.4565804083166241e-002,
          4.1304234062983034e-003, 2.2058901798405129e-002,
          -4.4509406241991249e-004, 4.5607229356233965e-002,
          -1.7871681904454817e+000, 5.1853561566070266e-002,
          -5.7148432167402438e-002, -5.5667005277390880e-001,
          1.1906220380433183e-001, -6.7782390986863561e-002,
          3.4361650637078739e-001, 9.6504470937120810e-003,
          8.7436690377069401e-002, 5.0901066268717161e-002,
          -2.8230723913313094e-001, -1.0653488241033854e-001,
          -2.9686041327600071e-001, 1.4804129449757400e-001,
          1.1142213389532959e-001, 7.3438515343921582e-002,
          1.3984684305838427e-001, 1.8190419132983818e-001,
          2.0467636258296862e-001, -1.9642127906725773e-001,
          1.6174012195174925e-001, -2.8442787923504187e-001,
          -3.7108207100848417e-001, -1.2418483560192181e-001,
          -5.5753608973194158e-001, 5.7736902377766769e-002,
          -7.7152039435705042e-003, -3.6749005635811965e-001,
          1.8894075560167822e-001, 1.5532357428647048e-001,
          5.4990157993189879e+000, 2.2000594701887224e-001,
          -4.9401606470669590e-001, 1.3681952101838632e-001,
          -6.9294085543906303e-001, 9.3695782357295088e-002,
          -2.0833823397582596e-001, -1.2738217869841478e-001,
          3.3458838638780491e-001, 3.3506873950669612e-002,
          -3.4980783268217755e-002, 7.9771751396442797e-002,
          -5.9486986866600455e-001, -1.3380454715345313e-001,
          1.2616947546055010e-001, -7.8152998580934524e-002,
          -6.5114504000719900e-002, -8.2413552601861548e-002,
          -1.0869365676830399e-001, 8.1196197136786541e-001,
          8.9268372595679253e+000, -1.6322168123800695e-001,
          5.2228221592044066e-001, -1.4893645658244695e-001,
          6.0618665513006376e-002, 1.0352509082168102e-001,
          8.8013210436564460e-001, 7.3515455388013129e-002,
          1.0232644554080916e+000, -1.7282026644293075e-001,
          -1.3216829320728180e-001, 6.2459655957036830e-001,
          6.4512802305245226e-002, -1.0926389661603757e-001,
          -4.5910062465195516e+000, 1.6327860303210587e-001,
          2.4319578821187518e-001, 1.2782057011920403e-001,
          -2.0707227866538883e-001, 3.2196287508240422e-003,
          6.5804553380544709e-002, -5.1078562614026124e-001,
          1.7886368457402060e-002, 3.1149409005549666e-001,
          9.4707163192811625e-002, 7.7754384605448523e-001,
          5.7857442977647400e-001, 6.9392805444580208e-002,
          3.7073813732726246e-001, 5.3945466345730742e-001,
          -2.9562324264759271e-001, -1.4116265578798101e-001,
          8.0686840610659405e-001, -5.9464864273074132e-002,
          6.1650183722358474e+000, -3.0558800509877431e-003,
          1.2605224778426813e-001, 7.4769649313445999e-002,
          5.7878260691875028e-001, 7.6766642361735277e-002,
          4.1595129148532051e+000, 1.1224889413801606e+000,
          2.1368264386403830e-002, 2.5735018129579834e-001,
          -6.9584512788203212e-001, 2.4448650819968160e-001,
          2.7024506225018136e-001, 1.1154532178042493e+000,
          6.2804574978732153e-001, -1.0233108528197463e-001,
          8.4907167185508559e-002, -7.5387516047172332e-001,
          -1.7822571697688355e-001, 8.2536694871228902e-002,
          -1.0573593813042778e-001, -3.4616153399702720e+000,
          -2.5339353047199392e-001, 2.6384522400334420e-001,
          -6.3621793923480899e-002, -1.8342324862243434e-001,
          5.8212008323654035e-003, 1.8858739295209709e-001,
          -7.7385489813643571e-002, 1.2685566710290255e-001,
          -1.4631059662010065e-001, -1.1897530920896475e-001,
          -1.4368206407886860e-001, -1.3944540463954910e-001,
          2.0559610609404168e-002, 2.4303427177766773e-001,
          -7.3178884488991500e-002, -8.9909861066879773e-003,
          1.9621760985245228e-002, -1.0689453998941660e-001,
          -6.8711633628033744e-002, 8.9433288455183432e-002,
          -2.8954702481310146e-001, 1.9235859203761799e-001,
          1.7430113788422302e-001, -1.5205523910462558e-002,
          2.8383068475749151e-001, -1.6706210550796879e-001,
          2.0787314930362258e-001, 2.7534956125127779e-002,
          3.8607581713594727e-002, 1.3858085297396600e-001,
          -3.0647094193264657e-001, -9.0623657812515135e-002,
          -3.2708202418428900e-001, 6.6786057921993902e-001,
          1.8140653099986107e-001, 8.2716634886756540e-002,
          -5.8591369279409089e-001, 7.8942012655566807e-001,
          1.1799986438784497e-001, -4.4073441106910538e-001,
          1.5784752373474326e-001, 2.0499275037187792e-001,
          2.0247960108304347e-001, -4.2261294310319437e+000,
          -6.1562987688571835e-001, -7.6676050926383271e-002,
          -2.5271861795631684e-001, 2.8074651159304610e-002,
          -1.3723639180876845e-001, -4.0084758723868674e-001,
          2.2382916754079543e-001, -1.0841730151847305e-001,
          -2.2686504605123230e+000, 9.2078173896222332e-002,
          -1.2459448424328565e-001, 2.8653877542754391e-002,
          7.9594737718867423e-002, 2.6375659637218801e-001,
          2.1831169027169051e-001, 1.1840953322227790e+000,
          -9.8370160561468245e-002, -3.7534836956319810e-002,
          -1.6387591893496689e-001, -3.7902327884277176e-001,
          -8.3799650333380299e-002, -1.3595969553643765e+000,
          9.1673077675579719e+000, 9.2525983829915587e-002,
          -9.2753381267271770e-002, 3.3766922607399397e-001,
          1.7736242839869831e-001, -3.8357987806957378e-001,
          -5.5784221628346087e-001, 2.4419101857386030e-001,
          8.6666443754637312e-001, 1.2403531514439274e-001,
          3.0408363402570632e-001, 1.6598965127349111e-001,
          -7.5087064882217780e-001, 1.6653250130764408e-001,
          -7.3920467788467448e-001, 4.1993693789622484e-003,
          1.1898556597373366e+000, -1.0683202573361088e-001,
          -4.6910531082951973e-001, -2.5149108993799735e-001,
          -2.6121613210723421e-001, 9.0950993887132930e-002,
          2.3741555412421686e-001, -1.2140464032224980e+000,
          3.8959699949629112e-002, 3.6111717934985410e-001,
          -1.5114433922149076e-002, -3.5301004583915196e-001,
          -1.9436221619297239e-001, 4.4434537090901962e+001,
          -2.2432134364957426e-001, -3.2572422281847779e-001,
          2.5659726344946798e-001, 2.9116289687379970e-001,
          -6.2589484425883279e-001, 1.2760904790950267e-001,
          1.9273400961412340e-001, -2.5564873118215542e-001,
          -5.7441056494821785e-001, -2.1682298567466323e-002,
          -3.3681360547277508e-002, 9.5754804545909145e-001,
          7.7724926998855443e-002, -2.7279745648724398e-002,
          9.5332299560342310e-002, -1.8151566905385339e+000,
          -6.5299951997703887e-002, 8.9363444131473901e-002,
          -1.2510081911126503e-001, 2.5446525737064046e-001,
          -3.2468619644043373e-001, -2.4713324826067318e-001,
          3.2355622064826906e-001, 9.4686607609580997e-001,
          -2.7106574383866111e-001, 9.7269498595703191e-002,
          -2.7879067495838894e-001, 6.8209060605155636e-001,
          7.4789558643358331e+000, -2.7533594809927547e-001,
          -8.0046780929385539e-003, 1.0917907050435736e-001,
          -4.2685515737559815e-001, -3.9200017811717412e-002,
          4.2363333758612959e-001, 9.5827491577965884e-002,
          7.8672675785448384e-002, 1.7679592580794476e-001,
          1.5759747960223427e-001, 1.5243264579969110e-001,
          -2.8871766336122935e-002, 4.7555830679633523e-002,
          -8.9318874113123270e-001, 2.0331797875361654e-001,
          9.3694790320606525e-001, 7.9457565072186642e-001,
          2.1247284882465564e-001, -6.3280428772607866e-002,
          -5.1222313848158424e-002, 1.3620576089714984e-001,
          -2.9422977429657615e-001, -9.1664671036858866e-002,
          4.2586543244521477e-002, -4.1083204706602300e-001,
          1.5244294535758932e-001, -6.8895500050337774e-002,
          3.5245094768888174e-001, -3.3414521165334836e+000,
          2.0016303410001171e-002, -1.5105786522467152e-001,
          -1.0088191807922896e-001, 4.6561408340883126e-002,
          -2.2829357734782330e-001, 4.9378849448229334e-001,
          -3.0249504227031310e-001, -6.2355064111844001e-002,
          1.2966785252541541e-001, 2.3716328848649537e-001,
          6.3233535660038864e-002, 4.4438375088525300e-002,
          -2.1819764813104039e-001, 1.6949188885079725e+000,
          6.8438053298683099e-001, -1.2184537335945393e-001,
          -2.7640080207770162e-001, -6.8709456455780504e-001,
          2.4640332304141949e-001, -2.9633952099734873e-001,
          -3.2322663083367126e-001, 3.9937045537424602e-002,
          -3.9673117053649076e-001, 1.3922354008314536e-001,
          1.7497421824255682e-001, -1.7930867259012950e-001,
          1.0798577472725092e-001, 1.4165527740817303e-003,
          -2.9629120963112876e-001, -1.6752921672992069e-001,
          -2.0047006698548639e-001, -2.2865648005889549e-001,
          3.2320525967708619e-001, 2.0392816689251805e+000,
          -2.1972536207443893e-002, -8.2355851003272515e-002,
          -2.2214356102613322e-001, 6.2483956133953668e-002,
          -5.4257971114724498e-003, -1.6917125587834933e-001,
          -7.5846713423968115e-001, 8.0165211778653198e-002,
          7.6683767049359100e-002, -5.6843059475423979e-002,
          1.3359391660167874e-001, 2.8537142114761455e-001,
          -4.1895770314033895e-002, 1.8264770467637528e-001,
          2.7767893829076129e-001, -2.9611573382542306e-001,
          2.3048666766021221e-002, 1.0472189248491557e-002,
          -5.7075168001831278e-001, 4.3879258817396301e-002,
          7.5728138149581237e-001, -5.5110459842889714e-001,
          1.6674746949151362e+000, -2.7307073191301295e-001,
          2.4648594704713780e-001, -3.9054177815977509e+000,
          1.8502379798864255e-001, -6.1984518751054973e-001,
          1.2677690000129660e+000, -4.1750922564662113e-001,
          -2.2494098797854137e-003, 3.6491338379899801e-001,
          1.0270758763560429e-001, 9.9813499101859671e-001,
          1.0648318670602354e-001, -1.4827986772935781e-001,
          -8.6101006948849257e-001, 2.0607930024487469e+000,
          4.5511587173363127e-001, 2.2106071815651163e+000,
          7.5076475232886564e-001, 5.4372955743999973e-001,
          5.9791972829235360e-002, -1.7585933339304882e+000,
          1.7603270215342293e-001, 5.3652088790087749e-001,
          -3.6396258942365906e-001, 7.1918126050812908e-002,
          -5.0946538035886002e-002, -4.9486225296976560e-001,
          9.1270974372843941e-002, 4.4978465895213204e-001,
          1.3497236668508658e-001, 3.8259905849194775e-001,
          1.5820599543978833e-001, -3.0214016821154885e+000,
          8.1400569154374922e-002, -2.1572312505801311e-001,
          3.8655663067852070e-001, -5.4689010109280477e-002,
          -1.3657652406906634e-001, 7.9958611198684734e-002,
          6.1331418824626249e-001, -1.8837246596540594e-001,
          -5.6857462263429659e-001, 8.7611423364090779e-001,
          -3.0387701313397297e-002, 2.7134546874496023e-002,
          5.3944073038111817e-001, -1.1636493573507954e-001,
          -9.5900112114770830e-001, 1.3530505736230614e-001,
          1.8179047614799295e+000, -1.9001726025836729e-002,
          5.0305966074669317e-001, 9.0465973029017571e-002,
          -1.4419864694736578e-001, -3.5241256635072160e-002,
          9.0658420865249675e-004, -1.3670523354854527e-001,
          3.2897149147913030e-002, -6.1123172189913026e-002,
          -4.3398859925762402e-002, 1.2291087222858925e+000,
          -3.4488522658071764e-002, -9.0925665339529538e-001,
          -9.9267330449919991e-002, 6.8509213977459122e+000,
          8.0306271334411317e-002, -7.5968619656954200e-002,
          1.8758375492869203e-001, -7.4337008132608715e-003,
          -9.5927327318522271e-001, 1.1754937720173653e+000,
          1.1661509430509728e-001, 9.9304677125274476e-001,
          -7.4386189150467166e+000, 2.9835553921739275e+000,
          -1.8870009924327033e-001, 2.1024940843793911e+000,
          6.9354261985205490e-001, 1.8098311770315612e-001,
          4.9403546621387567e-001, 1.0004773354778741e-001,
          9.6406607334862637e-001, -6.1761989881822910e-001,
          -4.2826135950751569e-003, -3.3033001894178893e-001,
          -2.0702416207453331e+000, -7.6442034591801722e-001,
          2.6285296311222326e+000, 1.0766947062848457e-001,
          -2.4086007780891430e-001, 1.2980752176963319e+000,
          -7.8918479388521456e-001, -7.1717136201518483e-002,
          -4.6783675668149276e-002, -3.9337383758394429e-001,
          7.1290709728536006e-001, 3.6665320955261660e-001,
          -8.2753046106735784e-001, -2.6607496001866682e-001,
          7.2736731458863646e-001, 2.2984977287000757e-001,
          -1.7077558167485951e-001, 3.5561760931164010e+000,
          -2.7235093798863363e-001, -4.1107504283867224e-002,
          6.2615150599593650e-001, -6.4523577234068111e-002,
          -3.8827774712469143e+000, -1.0951284542849786e-002,
          4.2598809507688395e-001, 2.1494017205926625e+000,
          1.2845261951175879e-001, -3.8115112236540880e+000,
          8.1388747618386081e-001, -4.9333341247410606e-001,
          -9.0917016998924705e-001, 3.9886243529056503e-001,
          7.5084917212242941e-001, -6.8859392501507222e-001,
          1.9948346222274341e-001, -6.0905058296587011e-001,
          2.2607129612358776e-001, 5.1843646083071446e-002,
          -8.7668806139299428e-003, -3.4119818054010026e-001,
          1.6653108895614219e-001, -1.2634362695589241e-001,
          6.9162012839750755e+000, -7.3602333608978832e-002,
          -3.9091905154696283e-001, 6.5011504563404252e-002,
          -1.3935609029298088e-002, -2.8316181291583314e-001,
          1.7075369158272685e-001, -4.3119945607066015e-002,
          -1.7419892681549348e-001, 1.5902031240329100e+000,
          1.0924791922042583e-001, 5.2003828403242053e-002,
          -1.4665082951139777e-001, -2.4739895292679745e-001,
          -7.9773846621964406e-002, 2.2785240539764377e-002,
          -7.2677914541650944e-003, -5.7292608621763623e-003,
          -1.1330446428041409e-001, -1.0969329496083122e-001,
          2.0392466605605877e-001, -2.3566224176510753e-001,
          -3.2861514575473683e-001, 1.3922776501652624e-002,
          -3.6058886369970504e-003, -6.7393390853093565e-002,
          -1.8963891780418554e+000, -4.9403412982883388e-001,
          1.5706541508062338e-001, 4.7397332812600090e-001,
          2.5570271947020089e+000, -1.0856956687739199e+000,
          -3.1136027359390619e+000, 1.0536652018806643e-001,
          -4.4165388855642251e-002, 4.7426235252612740e-002,
          -5.4804872575652273e-002, -4.5065361716334096e-001,
          -4.3951310559817075e-002, 8.8454518554985262e-001,
          2.0119766571087602e-002, -3.1375871688516294e-001,
          -3.0475892456207934e+000, 1.4974544973740955e-002,
          -5.8783488801285355e-001, -5.8211520255231930e-001,
          3.5527794379943167e-001, 3.1217317832922357e-002,
          1.6898968700356347e-003, 5.2361310633042901e-001,
          7.2089297421235404e-002, -9.5880267180198601e-003,
          -2.8969251369694454e-001, 1.7708804599466754e+000,
          1.3858981652009203e-002, 1.0309314784801964e-001,
          1.9811543421262595e+001, 8.1373796439853519e-001,
          -4.0474795389205127e+000, -1.3131675094712161e+000,
          -1.8869292733996321e-001, 1.3640119309595129e+000,
          5.7864122317573774e-001, 9.2233776835526762e-002,
          1.1217565814823471e-001, -4.3608560408688740e-001,
          1.6016750284865799e-001, 3.9951466933354585e-001,
          -1.1920900230311757e+001, -6.5037167525379302e-002,
          -2.9735312145400072e-001, 6.0959782786792344e-004,
          4.2885779556896946e+000, -1.3612084376152028e-001,
          6.7994164758235576e-001, 1.5171717997964079e-001,
          -1.3103404008099111e+000, 2.8789034234342101e+000,
          7.3115815580572729e-002, -6.5828757843997476e-001,
          -1.8663222143896513e-001, -6.4215678277950300e-002,
          -4.1849350684221159e-001, 4.9237197306595459e-001,
          -3.5346185246017897e-001, -5.0104194333814100e-001,
          5.8759576464066161e-002, -2.7931005945405946e-001,
          -1.9276474713708708e-002, 4.1930057956794531e-001,
          -3.5500800068481220e-001, -1.5524287706191270e-001,
          -1.8216204473907990e-001, 5.0432315066093844e-002,
          -3.0561217371168109e-001, 1.0175958940562245e-001,
          -3.7327767714367738e-001, -3.9038461904094302e-001,
          4.3992322729131961e-001, -7.1817082720959435e-001,
          2.9190524957148400e+000, -1.0408421886137884e-001,
          -5.8140431278439909e-002, 5.5316199868047110e-002,
          1.3460487239991789e-001, -1.9535173389036234e-001,
          1.0503635409185477e-001, -3.0165237589964150e-001,
          9.1235756803305243e-002, 2.9376118019789577e-001,
          3.4374415505583006e-001, 6.1945633032042174e-002,
          2.0947076599352851e-001, 8.3498584331080775e-002,
          1.7661441739812161e-001, 2.6931333799276687e-003,
          7.2115833565165946e-002, -4.5476763916609285e-002,
          -8.6684282223773709e-002, -4.6907130006219606e-002,
          1.0465683094495440e-001, 1.4516870587400418e-001,
          -1.1173692372786488e-001, 1.9013820007059204e-001,
          8.0836010684165432e-002, -3.2168965624054768e-001,
          2.4342945206418801e-001, 1.4427919513050147e-001,
          -1.3916965605660639e-001, 1.1608251082556176e+000,
          -9.8524122918378712e-002, 1.0810594516266021e-001,
          1.2710951164032801e-004, -7.1292217739245795e-002,
          -8.2499151640916688e-002, 7.3963247761269738e-002,
          4.9351070471239822e-002, 1.5153670726392946e-003,
          1.9108533119308824e-001, -1.3731800722505372e-001,
          -8.2615775744053460e-002, 8.4267910150394917e-004,
          3.7250958727874173e-001, 1.5521127019378247e-001,
          1.2043262441804943e-001, -1.5412226637452583e-001,
          1.4740039562382917e-001, 1.5449735795255409e-001,
          -4.0350079485761237e-001, -1.3233412676184400e-001,
          -3.1971625131637782e-001, 2.3545182090590888e-001,
          1.0989313508699831e-001, 3.3778035657809480e-001,
          1.6491735991982634e-001, -3.1059976397401562e-001,
          4.5490670412468542e-001, 2.5831526834809182e-001,
          -4.8584170505368113e-001, 6.4963822353192680e-001,
          -1.7100531557895510e-001, 1.4510009274117527e-001,
          1.3680654184170324e-001, -8.6629336157693401e-002,
          3.0390087168428198e-001, 1.0396528822298248e-001,
          -1.6716711252583180e-001, 1.3307941600262760e-001,
          8.1463396366978871e-002, -9.4858577751488010e-002,
          -1.3536375025760744e-001, -1.2287742004320583e-001,
          -1.6554133691084863e-001, 1.2000063603240352e-001,
          -1.3191643094265124e-001, 8.0755794813133641e-001,
          -4.7847079011564209e-001, 1.1388684790638902e-001,
          -6.4788507464044809e-001, -4.7802835771291285e-001,
          -1.5119192165452624e-002, 3.5254055719277283e-002,
          9.7062239208803885e-002, -2.1597180209399069e+000,
          7.6085026299802627e-002, -7.7973397874648326e-002,
          -2.0083773028670385e-001, -6.2058991465579381e-002,
          -4.3283872886187534e-002, 6.1492318173943961e-001,
          -7.9969760525675793e-001, -2.4610020811922775e-001,
          2.7172488615029056e+000, 1.3819023181250174e-002,
          2.6896239817620293e-002, 1.1732969999689984e-001,
          -6.4581924348255382e-002, -1.4596527821272484e-002,
          -5.9568346020605978e-001, -1.4030914196294877e-001,
          -1.8859766063741634e-001, -9.1398468960823764e-002,
          -1.4994435211236051e-001, -1.5710663739325470e-001,
          -6.6907219740993049e-002, 1.1932911342205342e-001,
          1.2612856041219472e-001, -6.0144542751927377e-002,
          -3.6327851495198293e-002, 2.0147951380136517e-001,
          7.4656333282519333e-002, 2.4137154778520548e-001,
          -3.1695071924969448e-001, 4.1276710214432000e-001,
          -1.3395551735729178e-001, -3.3670341046343165e-002,
          -3.2152316092933710e+000, 1.9749403345080335e-002,
          -1.8355012250402375e-001, 6.4554403062244289e-002,
          -2.7329164920505927e-001, -1.3294327262613220e-001,
          -5.2526821707908188e-003, -5.9195029217691132e-002,
          -2.5085390715837202e-001, -1.7031392096256610e-002,
          2.3625278042551340e-001, -1.5236030369161657e-001,
          2.8558989334460888e-001, 1.6542323207237081e-001,
          -1.3513573677308563e-001, 6.9956268401437738e-001,
          -3.4668264759497658e-001, -4.2358177882908277e-001,
          -4.0156799472870558e-001, 1.2840779298669789e-002,
          -3.6851172774962559e-001, -4.1105117528469248e-001,
          3.7509892756831714e-001, 1.6107727727995929e+000,
          7.9012943404893080e-002, -3.6922556380996285e-001,
          -6.4933533187276604e-001, -7.9332097311834793e-001,
          -1.2700109002638596e-001, 3.5759889869001221e-001,
          -2.7034231316179957e-001, -5.5075351421617702e-001,
          5.7608231868369331e-001, -1.6122283785645100e-001,
          -1.4384049983422605e-002, -1.1252314802015777e-001,
          -9.0810840154497430e-001, 4.4122199566726400e-001,
          -3.6474903227553374e-001, -4.2596505654860961e-001,
          7.2233214670083712e-001, -9.1707686015049650e-001,
          -4.7353612730568839e-001, 8.3741919802742459e-001,
          3.9356990178669859e-001, -1.2913706530232589e-002 ]
      - [ 8.3456879778276338e-001, 2.6064368879309346e-001,
          4.3174432959555481e-001, -7.3982937094474743e-001,
          2.0235752635014976e+000, 7.3141438186463426e-001,
          -3.5751263668285760e-001, -3.9323082650681646e-001,
          2.2885862215389170e+000, -1.1887281631511060e-001,
          -2.5672640690787846e-001, -2.0481927156653628e+000,
          -2.9758987377660007e-001, 5.4875590628913451e-001,
          8.2636990387673095e-002, -1.1876089198520436e+000,
          5.8419052172368124e-001, -6.1239625472031800e-001,
          1.9102462576471864e+000, 8.6939676522427423e-001,
          8.6568295876651302e-001, -7.8053845227605623e-001,
          1.7259730031431422e-001, -8.2343132902287508e-001,
          4.8948777087989848e-001, 1.1533910193387998e+001,
          -2.5683088003012899e-001, -6.8526053994867275e-001,
          1.0868762179603033e+000, 1.0349119801084548e+000,
          5.7238715938427032e-001, -4.0738876555590942e+000,
          -2.2827591835141789e+000, 2.9524838674540599e-001,
          -6.6541857909239621e-001, 4.3057685378648602e-001,
          -3.1546306554509057e-001, 4.0855228081344359e+000,
          -1.4639400570382433e+000, -6.6369889356108236e-001,
          7.8314068433478434e-001, 8.2441226804217604e-001,
          -8.0687741554567718e-002, 2.2360866511978741e+000,
          -5.8406732733358513e-001, 2.1988139453240532e-001,
          -9.1428703009314849e-001, -6.9321731193607228e-001,
          3.2850225908298381e-001, 1.0101986968539658e+000,
          1.3004378061679009e-001, 1.2668233024518196e+000,
          -1.6849137773546425e+000, 1.0088023375316205e-001,
          4.8103197717811397e-001, -3.1029540548469942e-001,
          8.4708123630853338e-001, 3.2709649220253117e-001,
          -1.3233676174723946e-001, 1.8059411694786558e+000,
          8.6040268084706339e-001, -1.1171834202838047e+000,
          -5.7927239677429587e-001, -1.1313964757076194e+000,
          2.2154009061854368e-001, -5.4583612260239245e-001,
          -1.3857550461737993e+000, -1.0152041558471609e+000,
          5.3761406482955632e-002, -1.7153161768441281e+000,
          -9.1932552363913556e-001, 2.4732834414033666e-001,
          3.4866664501644368e-001, -2.0590102342429004e-001,
          5.0503130558845089e-001, -5.3669337195095013e-001,
          -1.0484755152614780e+000, -5.9102151321419827e-001,
          -1.0077492035162749e+000, -2.0403673274661003e+000,
          1.0095520673354865e+000, 9.0121506479602098e-002,
          -2.2042149295879659e-001, -8.2442061395896005e-001,
          2.0143793613064349e+000, -1.3498559720224518e-001,
          5.6763178812458348e-001, 5.2325218485703251e-001,
          -1.8380660717980164e+000, -7.0892249941057939e-001,
          -8.6738969306999369e-002, 1.6102560062884896e-001,
          7.7674220633676727e-001, 1.0527014032955577e+000,
          2.9681769461601930e-002, 8.3504162421727934e-001,
          4.4581787588658278e-001, -6.9173318888927326e-001,
          3.2405911956993112e+000, -1.9463352407769360e-001,
          1.2941089991452857e+001, 1.6288245238201396e-001,
          5.5269548555000603e-001, 1.3920050557634427e+000,
          -8.9308263853354053e-001, 3.7587694815711065e-001,
          -3.6766244136143883e-001, -4.8673292360459464e-001,
          2.0348735940330454e-001, -9.9529781541568579e-002,
          9.6270648168409190e-001, 2.8969052891150637e-001,
          6.9675801994860620e-001, -6.9468140064238315e-001,
          2.5945390299022764e+000, -7.1133709444727311e-001,
          9.4866683379596861e-001, -5.2715068017314326e-001,
          -3.6072640802769262e-001, 1.8110702453525989e+000,
          5.6284128404878722e+000, 2.2961282398972219e-001,
          -6.2418933153150591e-001, -1.8615083477920714e-002,
          1.5745578499494162e-001, -4.3891676382033373e-001,
          -7.1637006709553963e-001, 9.9038385184274758e-001,
          3.0303120238222259e-001, 5.4748575691411350e-001,
          -2.4160781521309485e+000, -9.7951572022881683e-001,
          -8.4857899925162394e-001, 1.5369772284086819e-001,
          -5.8759378670689177e-001, -2.4499587673023820e-001,
          8.4997658907683060e-001, -1.6339492146735828e+000,
          1.0689925449570614e+000, -5.2444171929143774e-002,
          -6.1498741917764865e-001, 5.4205245911478184e-001,
          -2.5632834569186964e+000, -6.2183593558356176e-001,
          -7.8579046024405963e-001, 5.2574275735478793e+000,
          -8.2080195481802093e-002, -9.2721142854930910e-002,
          5.9524971175975452e+000, -5.2799731156437624e-001,
          1.4355942281994447e+000, 9.4192704734482391e-001,
          -8.7364634532744556e-001, -2.3819414077540565e-001,
          1.3101989916645396e-001, -6.6080410922767063e-001,
          5.3698514796441355e-001, 4.5914117811319349e-001,
          7.0031613784333113e-001, 1.2192509311244892e+000,
          5.2179044214911963e-001, -4.4183225749986779e+000,
          -6.6277893745709882e-001, -6.5077554638247559e-001,
          -3.9363519181038387e-001, -1.1619059726072148e-001,
          -7.6148531939061215e-001, -8.1236518550094006e-001,
          -5.6161012901991436e-001, -8.6317122940266156e-001,
          -6.6837200980468403e-001, -2.7229675576082313e-001,
          -1.2879907079464112e+000, -2.1749484923375104e-001,
          9.6036999697235927e+000, 8.0472464437702829e-001,
          3.0706362332424575e-001, 4.5631640049265554e-001,
          1.3969427235642975e+000, -1.4830624285497374e-001,
          -8.8213154392835680e-001, 2.7006019903590013e+000,
          9.1185401719989800e-001, -1.5205906863774017e+000,
          2.1483660818791297e-002, -6.0762374149190768e-001,
          9.9403022984662437e-001, -8.8282876301240057e-002,
          -1.4141069672693776e-001, -1.9702936277581302e-002,
          1.2876889442237582e+000, -3.3388408457144469e-002,
          1.3479681203719485e+000, -6.7344683372064718e-001,
          3.1671589607256183e-002, -5.2076399071006507e-001,
          -1.0019771718984491e+000, -5.6841002938763274e-001,
          1.7904983614910548e+000, 6.8370706616779853e-001,
          1.0650191015236492e+000, 8.8003632272810339e-001,
          7.1176867165902424e-001, 1.3250101651157351e-001,
          -8.3849640291352168e-001, 4.5086570322709796e-001,
          2.7573967490865754e+000, 5.8729514854857456e-001,
          -8.9718277711201067e-001, -9.6918830058115246e-001,
          3.8120657701326460e-001, -1.0982988013509838e-001,
          -2.9269712558150868e-001, -1.3917188886788794e+000,
          -6.8458738787224300e+000, -7.0795764470939646e-002,
          2.7914485737690303e-001, 2.5153764801348549e-001,
          -5.6893214343935322e-002, -5.6381344736541306e-001,
          1.4995204626069785e+000, -1.9177218406015186e+000,
          3.0537450148037121e-001, 6.6589588356638640e-001,
          -5.0052047647123732e-001, -6.4955254983563426e-001,
          2.6215343933142057e+000, -1.3424512837056111e+000,
          4.4260424279728730e+000, 7.1091133128805295e-001,
          5.3576114860333324e-001, 5.4763779327761952e-001,
          1.3969838618713761e+000, 3.5030586014579085e-001,
          1.0849329389363309e-001, 7.1525310170191081e-001,
          -2.5932504434261699e-001, 6.8405410768677744e-001,
          1.9937005233969168e-001, -4.0011217250761809e-002,
          -1.5276710090240355e+000, -7.3131159900343556e-001,
          -9.7894987443286074e-001, -5.4715896921891636e+000,
          -1.1020320075834289e+000, 9.5380819347728935e-002,
          2.1019289473904224e-001, -5.7516813298413783e-001,
          -8.3506838181144583e-001, 9.2746128823146645e-001,
          -4.3513663078216724e-001, 1.2373658922449275e+000,
          8.6761202606285348e-001, 7.5363176349491097e+000,
          6.0534108207890991e-001, -8.6098185694723395e-001,
          3.3193367227581100e-001, 2.0519262219621681e+000,
          6.7049118554380038e-001, 6.5888848705124814e-001,
          -1.5080323740824456e-001, 8.5038248431489627e-001,
          8.9290971082558224e-001, -1.9733327310971444e-001,
          -1.4665048425053012e-001, 2.2470905121281644e+000,
          -2.8195654921694163e-003, -5.0696375019989137e-001,
          -5.3424418805045049e-001, 3.0149104965218916e+000,
          -5.5390595382306884e-001, -8.3504008886137371e-001,
          -7.6683702922940822e-001, 3.3779936886149925e-001,
          2.1723563771510143e-001, -5.1791999713068737e-001,
          -1.1385913085748589e+000, -4.8148488281668139e-001,
          -7.8869614162611790e-001, 1.2312232736616668e-002,
          -1.0303382645341084e+000, 3.7772477339317723e-001,
          -1.2416324919798183e+000, -5.8449100419720701e-001,
          5.7033471428086369e-001, -6.0398815059660063e+000,
          -3.1544149421781575e-001, -4.6450927158170963e-001,
          5.2629854453843228e-001, -2.1044295825176504e-001,
          -1.7194136873684066e-001, 1.0891744364465896e+000,
          -4.6578928506387052e-001, 5.3565155813997363e+000,
          1.3864438014681935e+000, 4.1222111546477952e-001,
          -2.9269637506491022e+000, 7.6243535797217132e-001,
          -4.7339349685014398e-001, 1.1397872043074726e+000,
          -7.2098426270586080e-001, 2.1200785828784743e-001,
          4.4635889212697810e-001, -1.2814940282851146e+000,
          -1.4508082778985503e+000, -5.6720173400741661e-002,
          -9.9634749659993371e-001, -1.1684958305417845e+000,
          -9.1842655246092386e-001, 4.0370901590134223e-001 ]
