%YAML:1.0
my_nb: !!opencv-ml-bayesian
   var_count: 16
   var_all: 16
   cls_labels: !!opencv-matrix
      rows: 1
      cols: 10
      dt: i
      data: [ 0, 1, 2, 3, 4, 5, 6, 7, 8, 9 ]
   count:
      - !!opencv-matrix
         rows: 1
         cols: 16
         dt: i
         data: [ 5, 5, 5, 5, 5, 5, 5, 5, 5, 5, 5, 5, 5, 5, 5, 5 ]
      - !!opencv-matrix
         rows: 1
         cols: 16
         dt: i
         data: [ 5, 5, 5, 5, 5, 5, 5, 5, 5, 5, 5, 5, 5, 5, 5, 5 ]
      - !!opencv-matrix
         rows: 1
         cols: 16
         dt: i
         data: [ 5, 5, 5, 5, 5, 5, 5, 5, 5, 5, 5, 5, 5, 5, 5, 5 ]
      - !!opencv-matrix
         rows: 1
         cols: 16
         dt: i
         data: [ 5, 5, 5, 5, 5, 5, 5, 5, 5, 5, 5, 5, 5, 5, 5, 5 ]
      - !!opencv-matrix
         rows: 1
         cols: 16
         dt: i
         data: [ 5, 5, 5, 5, 5, 5, 5, 5, 5, 5, 5, 5, 5, 5, 5, 5 ]
      - !!opencv-matrix
         rows: 1
         cols: 16
         dt: i
         data: [ 5, 5, 5, 5, 5, 5, 5, 5, 5, 5, 5, 5, 5, 5, 5, 5 ]
      - !!opencv-matrix
         rows: 1
         cols: 16
         dt: i
         data: [ 5, 5, 5, 5, 5, 5, 5, 5, 5, 5, 5, 5, 5, 5, 5, 5 ]
      - !!opencv-matrix
         rows: 1
         cols: 16
         dt: i
         data: [ 5, 5, 5, 5, 5, 5, 5, 5, 5, 5, 5, 5, 5, 5, 5, 5 ]
      - !!opencv-matrix
         rows: 1
         cols: 16
         dt: i
         data: [ 5, 5, 5, 5, 5, 5, 5, 5, 5, 5, 5, 5, 5, 5, 5, 5 ]
      - !!opencv-matrix
         rows: 1
         cols: 16
         dt: i
         data: [ 5, 5, 5, 5, 5, 5, 5, 5, 5, 5, 5, 5, 5, 5, 5, 5 ]
   sum:
      - !!opencv-matrix
         rows: 1
         cols: 16
         dt: d
         data: [ 0., 18., 122., 20., 0., 0., 80., 42., 0., 27., 99., 31.,
             6., 103., 69., 0. ]
      - !!opencv-matrix
         rows: 1
         cols: 16
         dt: d
         data: [ 0., 20., 101., 47., 0., 0., 54., 62., 0., 2., 51., 55.,
             0., 41., 85., 29. ]
      - !!opencv-matrix
         rows: 1
         cols: 16
         dt: d
         data: [ 0., 21., 96., 40., 0., 0., 44., 83., 0., 6., 50., 76.,
             0., 41., 63., 33. ]
      - !!opencv-matrix
         rows: 1
         cols: 16
         dt: d
         data: [ 0., 32., 58., 77., 23., 10., 38., 56., 8., 16., 68.,
             58., 0., 34., 82., 7. ]
      - !!opencv-matrix
         rows: 1
         cols: 16
         dt: d
         data: [ 0., 50., 76., 45., 0., 6., 87., 28., 0., 0., 72., 29.,
             0., 40., 96., 42. ]
      - !!opencv-matrix
         rows: 1
         cols: 16
         dt: d
         data: [ 12., 48., 69., 49., 0., 22., 30., 80., 0., 31., 31.,
             76., 6., 28., 34., 83. ]
      - !!opencv-matrix
         rows: 1
         cols: 16
         dt: d
         data: [ 6., 18., 82., 60., 30., 0., 19., 71., 33., 0., 64., 44.,
             6., 34., 86., 24. ]
      - !!opencv-matrix
         rows: 1
         cols: 16
         dt: d
         data: [ 0., 11., 124., 23., 0., 0., 34., 73., 0., 0., 68., 57.,
             0., 53., 123., 3. ]
      - !!opencv-matrix
         rows: 1
         cols: 16
         dt: d
         data: [ 64., 78., 115., 143., 91., 96., 64., 146., 95., 77.,
             67., 154., 65., 91., 118., 117. ]
      - !!opencv-matrix
         rows: 1
         cols: 16
         dt: d
         data: [ 0., 21., 57., 84., 0., 0., 6., 108., 0., 0., 24., 76.,
             0., 16., 53., 49. ]
   productsum:
      - !!opencv-matrix
         rows: 16
         cols: 16
         dt: d
         data: [ 0., 0., 0., 0., 0., 0., 0., 0., 0., 0., 0., 0., 0., 0.,
             0., 0., 0., 212., 380., 0., 0., 0., 448., 0., 0., 368.,
             236., 0., 84., 474., 24., 0., 0., 380., 3022., 480., 0., 0.,
             1880., 1054., 0., 545., 2479., 762., 120., 2503., 1746., 0.,
             0., 0., 480., 208., 0., 0., 256., 400., 0., 0., 408., 308.,
             0., 308., 444., 0., 0., 0., 0., 0., 0., 0., 0., 0., 0., 0.,
             0., 0., 0., 0., 0., 0., 0., 0., 0., 0., 0., 0., 0., 0., 0.,
             0., 0., 0., 0., 0., 0., 0., 0., 448., 1880., 256., 0., 0.,
             1920., 464., 0., 832., 1384., 368., 192., 1488., 1024., 0.,
             0., 0., 1054., 400., 0., 0., 464., 932., 0., 0., 866., 656.,
             0., 748., 868., 0., 0., 0., 0., 0., 0., 0., 0., 0., 0., 0.,
             0., 0., 0., 0., 0., 0., 0., 368., 545., 0., 0., 0., 832.,
             0., 0., 677., 284., 0., 156., 681., 6., 0., 0., 236., 2479.,
             408., 0., 0., 1384., 866., 0., 284., 2093., 636., 60.,
             2012., 1502., 0., 0., 0., 762., 308., 0., 0., 368., 656.,
             0., 0., 636., 481., 0., 517., 663., 0., 0., 84., 120., 0.,
             0., 0., 192., 0., 0., 156., 60., 0., 36., 150., 0., 0., 0.,
             474., 2503., 308., 0., 0., 1488., 748., 0., 681., 2012.,
             517., 150., 2387., 1137., 0., 0., 24., 1746., 444., 0., 0.,
             1024., 868., 0., 6., 1502., 663., 0., 1137., 1385., 0., 0.,
             0., 0., 0., 0., 0., 0., 0., 0., 0., 0., 0., 0., 0., 0., 0. ]
      - !!opencv-matrix
         rows: 16
         cols: 16
         dt: d
         data: [ 0., 0., 0., 0., 0., 0., 0., 0., 0., 0., 0., 0., 0., 0.,
             0., 0., 0., 150., 460., 40., 0., 0., 285., 230., 0., 10.,
             240., 240., 0., 180., 380., 110., 0., 460., 2289., 567., 0.,
             0., 1438., 1175., 0., 44., 1351., 1131., 0., 937., 2038.,
             364., 0., 40., 567., 1161., 0., 0., 12., 689., 0., 0., 33.,
             437., 0., 55., 414., 620., 0., 0., 0., 0., 0., 0., 0., 0.,
             0., 0., 0., 0., 0., 0., 0., 0., 0., 0., 0., 0., 0., 0., 0.,
             0., 0., 0., 0., 0., 0., 0., 0., 0., 0., 285., 1438., 12.,
             0., 0., 1394., 69., 0., 38., 1289., 72., 0., 749., 1099.,
             33., 0., 230., 1175., 689., 0., 0., 69., 1554., 0., 0., 93.,
             1513., 0., 155., 1413., 397., 0., 0., 0., 0., 0., 0., 0.,
             0., 0., 0., 0., 0., 0., 0., 0., 0., 0., 10., 44., 0., 0.,
             0., 38., 0., 0., 4., 38., 0., 0., 62., 8., 0., 0., 240.,
             1351., 33., 0., 0., 1289., 93., 0., 38., 1211., 93., 0.,
             749., 1036., 0., 0., 240., 1131., 437., 0., 0., 72., 1513.,
             0., 0., 93., 1537., 0., 155., 1434., 264., 0., 0., 0., 0.,
             0., 0., 0., 0., 0., 0., 0., 0., 0., 0., 0., 0., 0., 180.,
             937., 55., 0., 0., 749., 155., 0., 62., 749., 155., 0.,
             1011., 424., 0., 0., 380., 2038., 414., 0., 0., 1099.,
             1413., 0., 8., 1036., 1434., 0., 424., 2257., 231., 0.,
             110., 364., 620., 0., 0., 33., 397., 0., 0., 0., 264., 0.,
             0., 231., 445. ]
      - !!opencv-matrix
         rows: 16
         cols: 16
         dt: d
         data: [ 0., 0., 0., 0., 0., 0., 0., 0., 0., 0., 0., 0., 0., 0.,
             0., 0., 0., 221., 446., 132., 0., 0., 120., 591., 0., 0.,
             30., 574., 0., 0., 270., 355., 0., 446., 2342., 276., 0.,
             0., 1348., 1252., 0., 192., 1095., 1284., 0., 1172., 1328.,
             616., 0., 132., 276., 928., 0., 0., 0., 1128., 0., 0., 392.,
             876., 0., 0., 196., 300., 0., 0., 0., 0., 0., 0., 0., 0.,
             0., 0., 0., 0., 0., 0., 0., 0., 0., 0., 0., 0., 0., 0., 0.,
             0., 0., 0., 0., 0., 0., 0., 0., 0., 0., 120., 1348., 0., 0.,
             0., 1168., 300., 0., 192., 900., 372., 0., 992., 452., 96.,
             0., 591., 1252., 1128., 0., 0., 300., 2315., 0., 0., 453.,
             2086., 0., 0., 864., 975., 0., 0., 0., 0., 0., 0., 0., 0.,
             0., 0., 0., 0., 0., 0., 0., 0., 0., 0., 192., 0., 0., 0.,
             192., 0., 0., 36., 162., 0., 0., 186., 24., 0., 0., 30.,
             1095., 392., 0., 0., 900., 453., 0., 162., 970., 387., 0.,
             897., 437., 24., 0., 574., 1284., 876., 0., 0., 372., 2086.,
             0., 0., 387., 1978., 0., 0., 984., 848., 0., 0., 0., 0., 0.,
             0., 0., 0., 0., 0., 0., 0., 0., 0., 0., 0., 0., 0., 1172.,
             0., 0., 0., 992., 0., 0., 186., 897., 0., 0., 1061., 374.,
             0., 0., 270., 1328., 196., 0., 0., 452., 864., 0., 24.,
             437., 984., 0., 374., 1419., 216., 0., 355., 616., 300., 0.,
             0., 96., 975., 0., 0., 24., 848., 0., 0., 216., 689. ]
      - !!opencv-matrix
         rows: 16
         cols: 16
         dt: d
         data: [ 0., 0., 0., 0., 0., 0., 0., 0., 0., 0., 0., 0., 0., 0.,
             0., 0., 0., 456., 426., 544., 368., 158., 134., 384., 128.,
             222., 152., 480., 0., 216., 522., 64., 0., 426., 1514.,
             170., 115., 65., 1156., 120., 40., 85., 1194., 150., 0.,
             610., 1285., 20., 0., 544., 170., 2093., 782., 306., 24.,
             1584., 272., 490., 715., 1582., 0., 190., 883., 193., 0.,
             368., 115., 782., 529., 207., 0., 552., 184., 299., 23.,
             690., 0., 0., 276., 92., 0., 158., 65., 306., 207., 82., 5.,
             216., 72., 118., 14., 270., 0., 14., 128., 36., 0., 134.,
             1156., 24., 0., 5., 1050., 32., 0., 7., 1107., 6., 0., 390.,
             900., 0., 0., 384., 120., 1584., 552., 216., 32., 1600.,
             192., 376., 856., 912., 0., 0., 288., 96., 0., 128., 40.,
             272., 184., 72., 0., 192., 64., 104., 8., 240., 0., 0., 96.,
             32., 0., 222., 85., 490., 299., 118., 7., 376., 104., 174.,
             70., 402., 0., 14., 176., 52., 0., 152., 1194., 715., 23.,
             14., 1107., 856., 8., 70., 1800., 252., 0., 430., 1012.,
             13., 0., 480., 150., 1582., 690., 270., 6., 912., 240.,
             402., 252., 1420., 0., 220., 910., 186., 0., 0., 0., 0., 0.,
             0., 0., 0., 0., 0., 0., 0., 0., 0., 0., 0., 0., 216., 610.,
             190., 0., 14., 390., 0., 0., 14., 430., 220., 0., 396.,
             780., 30., 0., 522., 1285., 883., 276., 128., 900., 288.,
             96., 176., 1012., 910., 0., 780., 1794., 123., 0., 64., 20.,
             193., 92., 36., 0., 96., 32., 52., 13., 186., 0., 30., 123.,
             25. ]
      - !!opencv-matrix
         rows: 16
         cols: 16
         dt: d
         data: [ 0., 0., 0., 0., 0., 0., 0., 0., 0., 0., 0., 0., 0., 0.,
             0., 0., 0., 1182., 568., 0., 0., 186., 1416., 0., 0., 0.,
             1063., 0., 0., 576., 1169., 0., 0., 568., 1638., 456., 0.,
             24., 1629., 448., 0., 0., 1457., 299., 0., 764., 1346.,
             540., 0., 0., 456., 1017., 0., 0., 0., 588., 0., 0., 0.,
             654., 0., 48., 705., 918., 0., 0., 0., 0., 0., 0., 0., 0.,
             0., 0., 0., 0., 0., 0., 0., 0., 0., 186., 24., 0., 0., 36.,
             162., 0., 0., 0., 102., 0., 0., 60., 150., 0., 0., 1416.,
             1629., 0., 0., 162., 2531., 0., 0., 0., 2112., 0., 0.,
             1110., 1906., 0., 0., 0., 448., 588., 0., 0., 0., 784., 0.,
             0., 0., 392., 0., 0., 140., 840., 0., 0., 0., 0., 0., 0.,
             0., 0., 0., 0., 0., 0., 0., 0., 0., 0., 0., 0., 0., 0., 0.,
             0., 0., 0., 0., 0., 0., 0., 0., 0., 0., 0., 0., 1063.,
             1457., 0., 0., 102., 2112., 0., 0., 0., 1806., 0., 0., 940.,
             1554., 0., 0., 0., 299., 654., 0., 0., 0., 392., 0., 0., 0.,
             421., 0., 30., 445., 600., 0., 0., 0., 0., 0., 0., 0., 0.,
             0., 0., 0., 0., 0., 0., 0., 0., 0., 576., 764., 48., 0.,
             60., 1110., 0., 0., 0., 940., 30., 0., 496., 874., 24., 0.,
             1169., 1346., 705., 0., 150., 1906., 140., 0., 0., 1554.,
             445., 0., 874., 2116., 450., 0., 0., 540., 918., 0., 0., 0.,
             840., 0., 0., 0., 600., 0., 24., 450., 1044. ]
      - !!opencv-matrix
         rows: 16
         cols: 16
         dt: d
         data: [ 144., 0., 96., 360., 0., 0., 0., 228., 0., 0., 0., 228.,
             0., 0., 0., 420., 0., 1214., 345., 85., 0., 726., 393.,
             455., 0., 1023., 99., 370., 198., 924., 15., 325., 96.,
             345., 1339., 609., 0., 0., 347., 1491., 0., 0., 476., 1365.,
             0., 0., 584., 1310., 360., 85., 609., 1055., 0., 0., 89.,
             1001., 0., 0., 140., 963., 0., 0., 188., 1386., 0., 0., 0.,
             0., 0., 0., 0., 0., 0., 0., 0., 0., 0., 0., 0., 0., 0.,
             726., 0., 0., 0., 484., 242., 0., 0., 682., 66., 0., 132.,
             616., 0., 0., 0., 393., 347., 89., 0., 242., 386., 90., 0.,
             341., 481., 184., 66., 308., 496., 127., 228., 455., 1491.,
             1001., 0., 0., 90., 2222., 0., 0., 0., 1887., 0., 0., 93.,
             2008., 0., 0., 0., 0., 0., 0., 0., 0., 0., 0., 0., 0., 0.,
             0., 0., 0., 0., 1023., 0., 0., 0., 682., 341., 0., 0., 961.,
             93., 0., 186., 868., 0., 0., 0., 99., 476., 140., 0., 66.,
             481., 0., 0., 93., 793., 196., 18., 84., 868., 112., 228.,
             370., 1365., 963., 0., 0., 184., 1887., 0., 0., 196., 1662.,
             0., 0., 295., 1795., 0., 198., 0., 0., 0., 132., 66., 0.,
             0., 186., 18., 0., 36., 168., 0., 0., 0., 924., 0., 0., 0.,
             616., 308., 0., 0., 868., 84., 0., 168., 784., 0., 0., 0.,
             15., 584., 188., 0., 0., 496., 93., 0., 0., 868., 295., 0.,
             0., 970., 193., 420., 325., 1310., 1386., 0., 0., 127.,
             2008., 0., 0., 112., 1795., 0., 0., 193., 2211. ]
      - !!opencv-matrix
         rows: 16
         cols: 16
         dt: d
         data: [ 36., 108., 96., 0., 180., 0., 84., 72., 198., 0., 168.,
             24., 36., 84., 126., 0., 108., 324., 288., 0., 540., 0.,
             252., 216., 594., 0., 504., 72., 108., 252., 378., 0., 96.,
             288., 1890., 480., 480., 0., 305., 570., 528., 0., 1084.,
             588., 96., 775., 1859., 312., 0., 0., 480., 1424., 0., 0.,
             80., 1484., 0., 0., 428., 848., 0., 72., 584., 528., 180.,
             540., 480., 0., 900., 0., 420., 360., 990., 0., 840., 120.,
             180., 420., 630., 0., 0., 0., 0., 0., 0., 0., 0., 0., 0.,
             0., 0., 0., 0., 0., 0., 0., 84., 252., 305., 80., 420., 0.,
             209., 235., 462., 0., 442., 88., 84., 223., 369., 9., 72.,
             216., 570., 1484., 360., 0., 235., 1723., 396., 0., 737.,
             944., 72., 195., 759., 576., 198., 594., 528., 0., 990., 0.,
             462., 396., 1089., 0., 924., 132., 198., 462., 693., 0., 0.,
             0., 0., 0., 0., 0., 0., 0., 0., 0., 0., 0., 0., 0., 0., 0.,
             168., 504., 1084., 428., 840., 0., 442., 737., 924., 0.,
             1242., 228., 168., 629., 1148., 24., 24., 72., 588., 848.,
             120., 0., 88., 944., 132., 0., 228., 880., 24., 128., 732.,
             612., 36., 108., 96., 0., 180., 0., 84., 72., 198., 0.,
             168., 24., 36., 84., 126., 0., 84., 252., 775., 72., 420.,
             0., 223., 195., 462., 0., 629., 128., 84., 398., 783., 27.,
             126., 378., 1859., 584., 630., 0., 369., 759., 693., 0.,
             1148., 732., 126., 783., 1898., 411., 0., 0., 312., 528.,
             0., 0., 9., 576., 0., 0., 24., 612., 0., 27., 411., 450. ]
      - !!opencv-matrix
         rows: 16
         cols: 16
         dt: d
         data: [ 0., 0., 0., 0., 0., 0., 0., 0., 0., 0., 0., 0., 0., 0.,
             0., 0., 0., 57., 318., 6., 0., 0., 98., 82., 0., 0., 168.,
             64., 0., 162., 238., 6., 0., 318., 3262., 410., 0., 0.,
             1033., 1752., 0., 0., 1799., 1361., 0., 1277., 3071., 90.,
             0., 6., 410., 409., 0., 0., 9., 733., 0., 0., 249., 593.,
             0., 247., 575., 9., 0., 0., 0., 0., 0., 0., 0., 0., 0., 0.,
             0., 0., 0., 0., 0., 0., 0., 0., 0., 0., 0., 0., 0., 0., 0.,
             0., 0., 0., 0., 0., 0., 0., 0., 98., 1033., 9., 0., 0.,
             670., 343., 0., 0., 893., 118., 0., 197., 958., 9., 0., 82.,
             1752., 733., 0., 0., 343., 2085., 0., 0., 797., 1771., 0.,
             651., 1885., 93., 0., 0., 0., 0., 0., 0., 0., 0., 0., 0.,
             0., 0., 0., 0., 0., 0., 0., 0., 0., 0., 0., 0., 0., 0., 0.,
             0., 0., 0., 0., 0., 0., 0., 0., 168., 1799., 249., 0., 0.,
             893., 797., 0., 0., 1422., 425., 0., 580., 1787., 9., 0.,
             64., 1361., 593., 0., 0., 118., 1771., 0., 0., 425., 1587.,
             0., 556., 1431., 93., 0., 0., 0., 0., 0., 0., 0., 0., 0.,
             0., 0., 0., 0., 0., 0., 0., 0., 162., 1277., 247., 0., 0.,
             197., 651., 0., 0., 580., 556., 0., 727., 1186., 27., 0.,
             238., 3071., 575., 0., 0., 958., 1885., 0., 0., 1787.,
             1431., 0., 1186., 3111., 75., 0., 6., 90., 9., 0., 0., 9.,
             93., 0., 0., 9., 93., 0., 27., 75., 9. ]
      - !!opencv-matrix
         rows: 16
         cols: 16
         dt: d
         data: [ 4096., 4096., 4096., 4096., 4096., 4096., 4096., 4096.,
             4096., 4096., 4096., 4096., 4096., 4096., 4096., 4096.,
             4096., 4292., 4418., 4208., 4474., 4544., 4096., 4432.,
             4530., 4278., 4096., 4096., 4110., 4320., 4096., 4558.,
             4096., 4418., 4915., 4934., 4717., 4832., 4096., 5302.,
             4809., 4395., 4111., 4949., 4119., 4519., 4578., 5063.,
             4096., 4208., 4934., 5843., 4312., 4352., 4096., 5626.,
             4344., 4200., 4171., 6222., 4104., 4499., 5382., 4826.,
             4096., 4474., 4717., 4312., 4825., 4960., 4096., 4744.,
             4933., 4447., 4096., 4096., 4123., 4528., 4096., 4987.,
             4096., 4544., 4832., 4352., 4960., 5120., 4096., 4864.,
             5088., 4512., 4096., 4096., 4128., 4608., 4096., 5152.,
             4096., 4096., 4096., 4096., 4096., 4096., 4096., 4096.,
             4096., 4096., 4096., 4096., 4096., 4096., 4096., 4096.,
             4096., 4432., 5302., 5626., 4744., 4864., 4096., 6244.,
             4840., 4408., 4102., 5888., 4120., 4502., 5036., 5370.,
             4096., 4530., 4809., 4344., 4933., 5088., 4096., 4840.,
             5057., 4499., 4096., 4096., 4127., 4592., 4096., 5119.,
             4096., 4278., 4395., 4200., 4447., 4512., 4096., 4408.,
             4499., 4265., 4096., 4096., 4109., 4304., 4096., 4525.,
             4096., 4096., 4111., 4171., 4096., 4096., 4096., 4102.,
             4096., 4096., 4105., 4180., 4096., 4129., 4162., 4105.,
             4096., 4096., 4949., 6222., 4096., 4096., 4096., 5888.,
             4096., 4096., 4180., 6802., 4096., 4404., 5704., 4707.,
             4096., 4110., 4119., 4104., 4123., 4128., 4096., 4120.,
             4127., 4109., 4096., 4096., 4097., 4112., 4096., 4129.,
             4096., 4320., 4519., 4499., 4528., 4608., 4096., 4502.,
             4592., 4304., 4129., 4404., 4112., 4473., 4338., 4657.,
             4096., 4096., 4578., 5382., 4096., 4096., 4096., 5036.,
             4096., 4096., 4162., 5704., 4096., 4338., 5124., 4414.,
             4096., 4558., 5063., 4826., 4987., 5152., 4096., 5370.,
             5119., 4525., 4105., 4707., 4129., 4657., 4414., 5351. ]
      - !!opencv-matrix
         rows: 16
         cols: 16
         dt: d
         data: [ 0., 0., 0., 0., 0., 0., 0., 0., 0., 0., 0., 0., 0., 0.,
             0., 0., 0., 225., 225., 231., 0., 0., 27., 252., 0., 0., 0.,
             198., 0., 0., 45., 429., 0., 225., 1235., 475., 0., 0.,
             116., 1554., 0., 0., 203., 661., 0., 115., 700., 717., 0.,
             231., 475., 1962., 0., 0., 65., 1796., 0., 0., 584., 1517.,
             0., 392., 951., 492., 0., 0., 0., 0., 0., 0., 0., 0., 0.,
             0., 0., 0., 0., 0., 0., 0., 0., 0., 0., 0., 0., 0., 0., 0.,
             0., 0., 0., 0., 0., 0., 0., 0., 0., 27., 116., 65., 0., 0.,
             14., 171., 0., 0., 41., 39., 0., 5., 40., 79., 0., 252.,
             1554., 1796., 0., 0., 171., 2946., 0., 0., 717., 1525., 0.,
             389., 1317., 872., 0., 0., 0., 0., 0., 0., 0., 0., 0., 0.,
             0., 0., 0., 0., 0., 0., 0., 0., 0., 0., 0., 0., 0., 0., 0.,
             0., 0., 0., 0., 0., 0., 0., 0., 0., 203., 584., 0., 0., 41.,
             717., 0., 0., 410., 195., 0., 38., 94., 13., 0., 198., 661.,
             1517., 0., 0., 39., 1525., 0., 0., 195., 1770., 0., 455.,
             1325., 495., 0., 0., 0., 0., 0., 0., 0., 0., 0., 0., 0., 0.,
             0., 0., 0., 0., 0., 0., 115., 392., 0., 0., 5., 389., 0.,
             0., 38., 455., 0., 146., 378., 53., 0., 45., 700., 951., 0.,
             0., 40., 1317., 0., 0., 94., 1325., 0., 378., 1179., 294.,
             0., 429., 717., 492., 0., 0., 79., 872., 0., 0., 13., 495.,
             0., 53., 294., 939. ]
   avg:
      - !!opencv-matrix
         rows: 1
         cols: 16
         dt: d
         data: [ 0., 3.6000000000000001e+000, 2.4399999999999999e+001,
             4., 0., 0., 16., 8.4000000000000004e+000, 0.,
             5.4000000000000004e+000, 1.9800000000000001e+001,
             6.2000000000000002e+000, 1.2000000000000000e+000,
             2.0600000000000001e+001, 1.3800000000000001e+001, 0. ]
      - !!opencv-matrix
         rows: 1
         cols: 16
         dt: d
         data: [ 0., 4., 2.0199999999999999e+001,
             9.4000000000000004e+000, 0., 0., 1.0800000000000001e+001,
             1.2400000000000000e+001, 0., 4.0000000000000002e-001,
             1.0199999999999999e+001, 11., 0., 8.1999999999999993e+000,
             17., 5.7999999999999998e+000 ]
      - !!opencv-matrix
         rows: 1
         cols: 16
         dt: d
         data: [ 0., 4.2000000000000002e+000, 1.9199999999999999e+001,
             8., 0., 0., 8.8000000000000007e+000,
             1.6600000000000001e+001, 0., 1.2000000000000000e+000, 10.,
             1.5199999999999999e+001, 0., 8.1999999999999993e+000,
             1.2600000000000000e+001, 6.5999999999999996e+000 ]
      - !!opencv-matrix
         rows: 1
         cols: 16
         dt: d
         data: [ 0., 6.4000000000000004e+000, 1.1600000000000000e+001,
             1.5400000000000000e+001, 4.5999999999999996e+000, 2.,
             7.5999999999999996e+000, 1.1199999999999999e+001,
             1.6000000000000001e+000, 3.2000000000000002e+000,
             1.3600000000000000e+001, 1.1600000000000000e+001, 0.,
             6.7999999999999998e+000, 1.6399999999999999e+001,
             1.3999999999999999e+000 ]
      - !!opencv-matrix
         rows: 1
         cols: 16
         dt: d
         data: [ 0., 10., 1.5199999999999999e+001, 9., 0.,
             1.2000000000000000e+000, 1.7399999999999999e+001,
             5.5999999999999996e+000, 0., 0., 1.4400000000000000e+001,
             5.7999999999999998e+000, 0., 8., 1.9199999999999999e+001,
             8.4000000000000004e+000 ]
      - !!opencv-matrix
         rows: 1
         cols: 16
         dt: d
         data: [ 2.3999999999999999e+000, 9.5999999999999996e+000,
             1.3800000000000001e+001, 9.8000000000000007e+000, 0.,
             4.4000000000000004e+000, 6., 16., 0.,
             6.2000000000000002e+000, 6.2000000000000002e+000,
             1.5199999999999999e+001, 1.2000000000000000e+000,
             5.5999999999999996e+000, 6.7999999999999998e+000,
             1.6600000000000001e+001 ]
      - !!opencv-matrix
         rows: 1
         cols: 16
         dt: d
         data: [ 1.2000000000000000e+000, 3.6000000000000001e+000,
             1.6399999999999999e+001, 12., 6., 0.,
             3.7999999999999998e+000, 1.4199999999999999e+001,
             6.5999999999999996e+000, 0., 1.2800000000000001e+001,
             8.8000000000000007e+000, 1.2000000000000000e+000,
             6.7999999999999998e+000, 1.7199999999999999e+001,
             4.7999999999999998e+000 ]
      - !!opencv-matrix
         rows: 1
         cols: 16
         dt: d
         data: [ 0., 2.2000000000000002e+000, 2.4800000000000001e+001,
             4.5999999999999996e+000, 0., 0., 6.7999999999999998e+000,
             1.4600000000000000e+001, 0., 0., 1.3600000000000000e+001,
             1.1400000000000000e+001, 0., 1.0600000000000000e+001,
             2.4600000000000001e+001, 5.9999999999999998e-001 ]
      - !!opencv-matrix
         rows: 1
         cols: 16
         dt: d
         data: [ 1.2800000000000001e+001, 1.5600000000000000e+001, 23.,
             2.8600000000000001e+001, 1.8199999999999999e+001,
             1.9199999999999999e+001, 1.2800000000000001e+001,
             2.9199999999999999e+001, 19., 1.5400000000000000e+001,
             1.3400000000000000e+001, 3.0800000000000001e+001, 13.,
             1.8199999999999999e+001, 2.3600000000000001e+001,
             2.3399999999999999e+001 ]
      - !!opencv-matrix
         rows: 1
         cols: 16
         dt: d
         data: [ 0., 4.2000000000000002e+000, 1.1400000000000000e+001,
             1.6800000000000001e+001, 0., 0., 1.2000000000000000e+000,
             2.1600000000000001e+001, 0., 0., 4.7999999999999998e+000,
             1.5199999999999999e+001, 0., 3.2000000000000002e+000,
             1.0600000000000000e+001, 9.8000000000000007e+000 ]
   inv_eigen_values:
      - !!opencv-matrix
         rows: 1
         cols: 16
         dt: d
         data: [ 2.1662717399781942e-003, 5.0339625982236602e-003,
             7.7580191184877150e-003, 6.3988320020195291e-002, 8388608.,
             8388608., 8388608., 8388608., 8388608., 8388608., 8388608.,
             8388608., 8388608., 8388608., 8388608., 8388608. ]
      - !!opencv-matrix
         rows: 1
         cols: 16
         dt: d
         data: [ 1.2707509210163313e-003, 1.9895705294856844e-003,
             5.9322391697613644e-003, 2.0932643655889191e-002, 8388608.,
             8388608., 8388608., 8388608., 8388608., 8388608., 8388608.,
             8388608., 8388608., 8388608., 8388608., 8388608. ]
      - !!opencv-matrix
         rows: 1
         cols: 16
         dt: d
         data: [ 1.1376824200117601e-003, 3.5036305684005031e-003,
             4.0783846263667909e-003, 8.6575031305509420e-003, 8388608.,
             8388608., 8388608., 8388608., 8388608., 8388608., 8388608.,
             8388608., 8388608., 8388608., 8388608., 8388608. ]
      - !!opencv-matrix
         rows: 1
         cols: 16
         dt: d
         data: [ 1.0271180399799742e-003, 2.6486217597904015e-003,
             5.0190804477178042e-003, 9.0328091743348254e-003, 8388608.,
             8388608., 8388608., 8388608., 8388608., 8388608., 8388608.,
             8388608., 8388608., 8388608., 8388608., 8388608. ]
      - !!opencv-matrix
         rows: 1
         cols: 16
         dt: d
         data: [ 9.8110598259412230e-004, 4.1334886702436239e-003,
             7.2903117842795110e-003, 2.1517466341228153e-001, 8388608.,
             8388608., 8388608., 8388608., 8388608., 8388608., 8388608.,
             8388608., 8388608., 8388608., 8388608., 8388608. ]
      - !!opencv-matrix
         rows: 1
         cols: 16
         dt: d
         data: [ 9.2758905712309308e-004, 1.7703349407470945e-003,
             4.6174513458385504e-003, 1.2655266427675563e-001, 8388608.,
             8388608., 8388608., 8388608., 8388608., 8388608., 8388608.,
             8388608., 8388608., 8388608., 8388608., 8388608. ]
      - !!opencv-matrix
         rows: 1
         cols: 16
         dt: d
         data: [ 1.2308960722785768e-003, 2.2252900973261636e-003,
             5.1921408424611655e-003, 1.4694357543677214e-001, 8388608.,
             8388608., 8388608., 8388608., 8388608., 8388608., 8388608.,
             8388608., 8388608., 8388608., 8388608., 8388608. ]
      - !!opencv-matrix
         rows: 1
         cols: 16
         dt: d
         data: [ 1.7517461964362371e-003, 4.3121174765538102e-003,
             1.2425562009849291e-002, 2.8606441640927349e-002, 8388608.,
             8388608., 8388608., 8388608., 8388608., 8388608., 8388608.,
             8388608., 8388608., 8388608., 8388608., 8388608. ]
      - !!opencv-matrix
         rows: 1
         cols: 16
         dt: d
         data: [ 9.8515191784183167e-005, 1.1588412819832138e-003,
             6.5704634746216583e-003, 1.1970189051453717e-001, 8388608.,
             8388608., 8388608., 8388608., 8388608., 8388608., 8388608.,
             8388608., 8388608., 8388608., 8388608., 8388608. ]
      - !!opencv-matrix
         rows: 1
         cols: 16
         dt: d
         data: [ 2.3867030897688725e-003, 3.4065224601504940e-003,
             4.1140138709163908e-003, 2.6535148536969779e-002, 8388608.,
             8388608., 8388608., 8388608., 8388608., 8388608., 8388608.,
             8388608., 8388608., 8388608., 8388608., 8388608. ]
   cov_rotate_mats:
      - !!opencv-matrix
         rows: 16
         cols: 16
         dt: d
         data: [ 0., 2.6189305598548485e-001, -8.3613358480713579e-002,
             -1.9875576933525732e-001, 0., 0., 3.6075942510261094e-001,
             -4.3034467648548691e-001, 0., 4.7746706676150175e-001,
             -1.8650549412484493e-001, -3.1314179237978007e-001,
             1.0986501407070150e-001, 1.6683043201610714e-001,
             -4.1091784897653422e-001, 0., 0., 2.8739837364952857e-002,
             -8.4624636110216436e-002, 1.8945042074810661e-001, 0., 0.,
             6.6779640074389823e-001, 2.7772640676421223e-001, 0.,
             2.4784069281820803e-001, -2.1343769956233508e-001,
             2.4664487862646495e-001, 6.4174862260525253e-002,
             -4.2757867850633646e-001, 2.7978732084573099e-001, 0., 0.,
             1.8943102458483943e-001, -1.1927320278859634e-001,
             1.5786785790360908e-001, 0., 0., -2.7133066123585409e-001,
             5.6173572147164563e-001, 0., 3.4446664700593455e-001,
             -2.4512613979363407e-001, 3.3477861361435934e-001,
             7.9229037562593238e-002, 3.5425315510345046e-001,
             -3.3646222257665420e-001, 0., 0., -1.4938264114945776e-001,
             5.5515026961933089e-001, -4.6792741603750210e-001, 0., 0.,
             3.4339061659337350e-001, 4.6043550372648129e-001, 0.,
             -6.4378493073472307e-002, 1.4922365365432136e-001,
             -1.6060281239521074e-001, -7.2087554096283597e-003,
             2.4755383143811713e-001, -8.4134126162765596e-002, 0., 0.,
             1.9213501190902849e-001, -5.1570370833138834e-001,
             -3.1486609698283063e-001, 0., 0., 5.6215940276349761e-002,
             2.7850680557675794e-001, 0., -2.2120148587731298e-001,
             3.7823423418466945e-001, -5.9542051365083344e-002,
             -4.4706404869314861e-002, -3.8493800103620712e-001,
             -4.1419134982106909e-001, 0., 0., 5.4241030460340856e-001,
             3.4626126210249975e-001, -7.6180476687995990e-002, 0., 0.,
             9.8681490794876675e-002, -2.5509833001170878e-001, 0.,
             -3.5117602728628255e-001, 1.4936021185200352e-002,
             5.7231383129697522e-001, 1.7448055978394569e-001,
             -3.0872012159659446e-002, -1.5096418435509976e-001, 0., 0.,
             1.4043929487206355e-002, -2.3272702347035695e-001,
             8.7912625069624883e-002, 0., 0., 2.1713084575861791e-001,
             -9.6143130954314135e-002, 0., 2.2051384397836732e-001,
             7.0347876185972769e-001, 2.4983144385736708e-001,
             5.6443109136208314e-002, 4.5692746183639527e-001,
             2.5224979895358218e-001, 0., 0., -2.7459673376866528e-001,
             4.0939807370158876e-001, 3.5461055694269250e-001, 0., 0.,
             -8.7480841427657260e-002, -8.1451991001300003e-002, 0.,
             3.2749082350443159e-001, 3.8637299538627756e-001,
             9.8637400739236353e-002, -3.0684439514885430e-002,
             -3.7946417099062885e-001, -4.5360293180370864e-001, 0., 0.,
             -3.9406397058455883e-001, -1.6663292821779485e-001,
             3.7165733264601852e-001, 0., 0., 3.2291923348396323e-001,
             -2.4409721384635388e-002, 0., -4.6811211029911753e-001,
             -1.0977721965912544e-001, -2.5744577147774898e-002,
             3.8897452917774111e-001, 2.5420057775938304e-001,
             -3.5522292783496956e-001, 0., 0., -1.2489896675163119e-001,
             -7.1552867504727655e-002, 5.4211446985136295e-002, 0., 0.,
             2.2549105332093045e-001, -1.0721518889077429e-001, 0.,
             -1.2205982355865061e-001, -1.2672448198127401e-001,
             2.3164195464645226e-001, -8.7030698735742762e-001,
             1.7455271375901810e-001, -2.0367044527500067e-001, 0., 0.,
             5.4293203821580771e-001, 1.5141791917349767e-001,
             5.4885052637533482e-001, 0., 0., 9.7689017893595853e-002,
             1.9878020554181125e-001, 0., -1.6012334987484056e-001,
             1.4746088622965237e-001, -4.9566550746015159e-001,
             -1.7937986180468224e-001, 7.4653810642313467e-002,
             3.4423528352921992e-002, 0., -4.4721359549995787e-001,
             -4.1342498645301581e-032, -2.1360290966739152e-031,
             1.9293166034474072e-031, -4.4721359549995787e-001,
             -4.4721359549995787e-001, -1.7915082746297352e-031,
             -1.3780832881767194e-032, 4.4721359549995787e-001,
             6.8904164408835972e-033, -6.2013747967952377e-032,
             1.3780832881767195e-031, 2.0671249322650790e-032,
             -9.6465830172370359e-032, 1.3522442265234060e-031,
             4.4721359549995787e-001, -3.6514837167011077e-001,
             2.5317006593173424e-032, 2.8692607472263212e-032,
             -5.5697414504981536e-032, -3.6514837167011077e-001,
             -3.6514837167011077e-001, -1.4768253846017830e-033,
             3.7975509889760136e-032, -5.4772255750516619e-001,
             -7.1731518680658030e-033, 3.6287709450215243e-032, 0.,
             -2.5317006593173424e-032, -9.7048525273831452e-033,
             6.3292516482933554e-034, -5.4772255750516619e-001,
             4.0824829046386307e-001, 4.0256389496281698e-032,
             6.5416632931457736e-032, -8.0512778992563374e-032,
             4.0824829046386307e-001, -8.1649658092772615e-001,
             5.0320486870351609e-033, -7.0448681618493003e-032,
             2.0959357603902603e-017, -1.2076916848884518e-031,
             1.1573711980180990e-031, -1.4089736323698598e-031,
             6.0384584244422588e-032, 2.5160243435176043e-032,
             -9.4350912881910232e-032, 2.0959357603902603e-017,
             -5.0000000000000000e-001, 6.1629758220391558e-032,
             -1.2248914446302824e-031, 1.0785207688568547e-032,
             5.0000000000000000e-001, 2.2218483576801794e-017,
             -5.2770480476210284e-032, -1.2325951644078307e-032,
             5.0000000000000011e-001, -1.2711137632955746e-032,
             2.5807461254788949e-032, 3.0814879110196013e-033,
             4.1600086798764300e-032, -4.8148248609680985e-033,
             -1.0448169948300757e-031, -5.0000000000000000e-001,
             5.4908484767356734e-002, 8.1168704361313682e-002,
             -4.4642787398722539e-001, 2.9761858265815033e-001,
             5.4908484767356734e-002, 5.4908484767356734e-002,
             -6.1552934140662896e-001, 6.7640586967761415e-002,
             -5.4908484767356727e-002, -2.0292176090328420e-002,
             -1.0146088045164214e-001, 5.1406846095498682e-001,
             1.3528117393552291e-002, -1.7586552611617973e-001,
             3.0438264135492697e-002, -5.4908484767356727e-002 ]
      - !!opencv-matrix
         rows: 16
         cols: 16
         dt: d
         data: [ 0., 3.3705189099279290e-002, 1.7253848076457695e-001,
             -2.7341079712094851e-001, 0., 0., 4.8225161831875990e-001,
             -4.3497544318088760e-001, 0., 1.8189087843341976e-002,
             4.4619224550783276e-001, -4.0141856306390250e-001, 0.,
             2.9291179973723624e-001, -3.0197130736554733e-002,
             -1.5907952284702859e-001, 0., 6.2468438876427501e-002,
             2.7676867913400977e-001, -4.2623278309492224e-001, 0., 0.,
             1.4254460997984236e-001, 2.9312354223856923e-001, 0.,
             -8.9416762612212000e-003, 1.3752657329139326e-001,
             4.3785676448753802e-001, 0., -5.4865173502002582e-002,
             5.9307297720291485e-001, -2.5714631723254344e-001, 0.,
             3.4764473322779724e-002, -3.5358862598431344e-002,
             -2.9677357720047221e-001, 0., 0., -2.3543146386318414e-001,
             1.4594762421762844e-001, 0., 5.4431136687466679e-002,
             -1.5013272856415158e-001, 2.4132898836408920e-001, 0.,
             7.5761674282835911e-001, -3.7168780457506195e-001,
             -1.9199146954673604e-001, 0., -5.4980559876823998e-001,
             -3.5821193098772484e-002, 5.5685632696916387e-001, 0., 0.,
             -5.1890130602208318e-002, 1.1503899780022879e-001, 0.,
             7.8714643317717107e-004, 2.3882942155014431e-001,
             -1.8469261639993299e-002, 0., 2.4695253021038191e-001,
             2.1481231125408926e-001, -4.5376647415498933e-001, 0.,
             1.1426847831961105e-001, -5.9910449447905678e-001,
             3.6206207701821452e-002, 0., 0., 6.0556461818684515e-001,
             1.1964669624045650e-001, 0., 2.4913984894023453e-002,
             -4.2402767507939382e-001, -1.8534377321704931e-002, 0.,
             6.5874736393033637e-002, 1.1243629946939693e-001,
             -2.1894449069996921e-001, 0., -2.5830975100051556e-001,
             -6.6408030333291923e-001, -3.6372188185870502e-001, 0., 0.,
             -3.1953828098191017e-001, -3.4477949162251836e-001, 0.,
             -5.6162112658902634e-002, 2.8401770697964562e-001,
             1.4774415631595597e-001, 0., -1.0074336110506692e-001,
             1.4980043829162229e-001, 2.7644754352435432e-002, 0.,
             -3.9568454828754795e-001, -3.6556514310511795e-002,
             1.1823425160232968e-002, 0., 0., 4.2475136924379464e-001,
             2.5172356057745149e-001, 0., -2.2814919701329198e-003,
             2.6205130799064169e-001, 3.2788575479555443e-001, 0.,
             1.1577743074450061e-001, -1.8631455962211049e-001,
             6.1145433147628581e-001, 0., 6.1125232627305104e-001,
             -1.6872296250296717e-001, 4.2407802138092970e-001, 0., 0.,
             -5.9354698950204780e-002, -1.2423765181452048e-001, 0.,
             2.9850259791272545e-002, 3.1502185905955482e-001,
             2.2630586803356012e-001, 0., 3.2653825412402415e-001,
             2.8926428163799878e-001, 2.3970356959483388e-001, 0.,
             2.1999890966630636e-001, -2.4463288810746864e-001,
             -1.1430949464906739e-001, 0., 0., -1.0072597339910749e-001,
             6.8024555313767221e-001, 0., -7.8101163861197823e-002,
             4.4214682528975036e-001, -4.0836525296779702e-001, 0.,
             -9.7601188675320971e-002, -1.4803079719731113e-001,
             -7.7549592279367460e-002, 0., -1.8139008290817552e-001,
             9.0614651601438629e-003, -1.3695061171838391e-001, 0., 0.,
             -1.6153155180624360e-001, 1.2412640538554155e-001, 0.,
             1.8857371163596115e-001, -2.5986280176565435e-001,
             -4.8684843773728886e-001, 0., 3.3613574820269276e-001,
             5.2856628255378835e-001, 4.1746924775053268e-001, 0.,
             -1.3715909406538853e-002, 3.7896469200738282e-002,
             1.9127482158608116e-004, 0., 0., 2.4002589909400984e-003,
             -1.4523114852726128e-002, 0., -9.7483068580908250e-001,
             -1.0498530960022089e-001, -6.2329308023375309e-002, 0.,
             1.3852878867494187e-001, 9.1060196517091407e-002,
             7.3993947116985731e-002, -4.4721359549995804e-001,
             4.3495753783077710e-032, 6.2875050023062841e-032,
             -1.8844346916693865e-032, -4.4721359549995804e-001,
             -4.4721359549995804e-001, 6.2148326414063396e-032,
             2.1532551377761244e-032, 4.4721359549995804e-001, 0.,
             3.1006873983976194e-032, 5.3400727416847892e-032,
             4.4721359549995804e-001, -1.9809947267540346e-031,
             1.2402749593590477e-031, 1.2058228771546298e-032,
             -3.6514837167011077e-001, 8.7554647801391417e-032,
             -1.6034104175676503e-032, -1.0401070208695415e-031,
             -3.6514837167011077e-001, -3.6514837167011077e-001,
             -1.4430693758108852e-031, -5.6963264834640202e-033,
             -5.4772255750516619e-001, 4.0507210549077474e-032,
             -7.9326620658610061e-032, 1.5190203955904053e-032,
             -5.4772255750516619e-001, 1.5190203955904055e-031,
             -1.6202884219630990e-031, -1.4683863824040585e-031,
             3.0860669992418382e-001, 4.1604841909575805e-032,
             6.9064037569895848e-032, 1.7642728234452076e-031,
             3.0860669992418382e-001, -6.1721339984836765e-001,
             1.6327300146889163e-031, -3.8172442452035813e-032,
             -4.6291004988627560e-001, -1.9970324116596395e-032,
             1.9138227278404879e-032, -1.5518606032271779e-031,
             4.6291004988627565e-001, -3.6113002777511805e-031,
             2.2549824314990093e-031, 4.5765326100533412e-032,
             -7.5592894601845451e-001, -1.3830728833177250e-032,
             -4.6587718174912739e-032, -4.1168028792504023e-032,
             5.6694670951384074e-001, 1.8898223650461354e-001,
             -4.4221935611342892e-032, 5.0955316753810839e-033,
             -1.8898223650461363e-001, -4.6587718174912766e-032,
             8.7351971577961768e-033, 2.7661457666354435e-032,
             1.8898223650461365e-001, -8.1528506806097441e-032,
             1.5432181645439860e-031, 5.8234647718640995e-032,
             9.5567423237131044e-017, 1.8026704279464530e-031,
             2.2186712959340961e-031, 1.4417993046168947e-031,
             -5.0000000000000000e-001, 4.9999999999999994e-001,
             2.9062282860803393e-031, -1.5561513950648874e-031,
             -5.0000000000000011e-001, -9.5763790918496886e-049,
             1.1709654061874398e-031, -2.4651903288156628e-031,
             5.0000000000000011e-001, -7.7653495357693367e-031,
             8.6281661508548101e-032, 2.5268200870360548e-031 ]
      - !!opencv-matrix
         rows: 16
         cols: 16
         dt: d
         data: [ 0., 1.1799227206798542e-001, -2.5206228644794199e-001,
             2.5679511439133479e-001, 0., 0., -3.6820309913010091e-001,
             4.8016795447419625e-001, 0., -7.6440964382201201e-002,
             -2.7697862674340651e-001, 4.1062421020554957e-001, 0.,
             -4.3636051247101576e-001, -2.4672608044949713e-002,
             2.1970901858522804e-001, 0., 1.7876672515479880e-001,
             3.6378339573659702e-001, -5.5111749537494736e-001, 0., 0.,
             4.7067633768599574e-003, -6.9765417732701077e-002, 0.,
             -4.3863658949171949e-002, -3.5341351188185122e-001,
             1.7574861772939943e-001, 0., -1.4512278183765903e-001,
             5.7918084767444378e-001, 1.1340394354018017e-001, 0.,
             -2.1052490118322076e-001, -3.5598586077823774e-001,
             1.0415333767493788e-001, 0., 0., -4.9667556724867901e-001,
             -3.2093408133075724e-001, 0., -7.7938479825839832e-002,
             -1.0018551664678943e-001, -3.2617427029093249e-001, 0.,
             -1.6818217849480049e-001, 4.1707695368874498e-001,
             -3.7905208356216502e-001, 0., -9.1837302041351307e-002,
             8.9747647008952946e-003, 2.0143291838541169e-001, 0., 0.,
             3.6680451688586885e-001, 2.0800060065310280e-001, 0.,
             1.4817560969125768e-002, 3.2174240702524837e-001,
             4.4224736240427337e-001, 0., -8.7606764266105128e-002,
             3.8777614830939450e-001, -5.6190264901963283e-001, 0.,
             2.0583737521888054e-001, -1.2557437132427007e-001,
             -3.1579698671682497e-004, 0., 0., -3.1835425264798867e-001,
             -4.3632164348251440e-001, 0., 6.6225571767661237e-002,
             -4.1040286480229393e-002, 6.2576142262263490e-001, 0.,
             4.8370670641130958e-001, -1.0723947781508170e-001,
             -8.3761404053852226e-002, 0., -1.8827068290710411e-001,
             -1.0269645860534231e-001, -5.7882310505102652e-001, 0., 0.,
             -3.2588432441862447e-001, 5.4494243167327217e-001, 0.,
             1.0373407196929255e-001, 1.0311546704191647e-001,
             -3.3997362796579077e-002, 0., 2.8354127727605688e-001,
             -1.4875489235131553e-001, -3.0122334212578117e-001, 0.,
             -2.0772704101573614e-001, 6.1324246804257365e-001,
             3.3017748330677960e-001, 0., 0., -4.6560474752376696e-001,
             1.2240367183761605e-001, 0., 1.1463665519669064e-001,
             3.2451850538977578e-001, -1.3030267334623771e-002, 0.,
             1.6624337503775621e-001, 2.2285057390446697e-001,
             2.0993497227878610e-001, 0., 3.2308633354960725e-001,
             -4.4492664454898889e-001, -1.4562305028579162e-001, 0., 0.,
             -6.6699792897596697e-003, 4.6228598363157486e-002, 0.,
             4.2662540037211559e-002, 5.9026881004329002e-001,
             -6.4963967362992786e-002, 0., 6.7155549649411173e-002,
             3.6283211584818165e-001, 4.2854774262792794e-001, 0.,
             -8.1449088310833043e-002, 1.2883213597757068e-001,
             -3.0033984250148182e-001, 0., 0., -1.5827197548383135e-001,
             -3.1886450760500279e-001, 0., 2.5156828531875619e-001,
             4.0059126159799874e-001, 1.7703040798338746e-001, 0.,
             -6.3350730655244125e-001, -3.1632764494892152e-001,
             -5.7838572884544283e-002, 0., -7.7213530584462031e-001,
             -1.6896868267271364e-001, -1.3969097765468219e-001, 0., 0.,
             1.2238292302052435e-001, -1.1029427182687437e-001, 0.,
             -3.5610929559016025e-001, 3.0181058665524584e-002,
             2.6341829898323182e-001, 0., 4.9195210687751491e-002,
             5.1473231529362479e-002, 3.5555180915767370e-001, 0.,
             2.7053353868200125e-001, 1.7840992487161977e-001,
             -6.2653946406993413e-002, 0., 0., -1.3697540205449024e-001,
             -3.2579671215040057e-003, 0., -8.7506006649425960e-001,
             2.3957363678763605e-001, -2.5991305733897428e-002, 0.,
             -4.7983887817516273e-002, -1.4821188514924150e-001,
             -1.5560430346700382e-001, -4.4721359549995787e-001,
             -1.6536999458120632e-031, -1.3780832881767195e-031,
             8.2684997290603161e-032, -4.4721359549995787e-001,
             -4.4721359549995787e-001, -2.4116457543092590e-032,
             5.9214516288843414e-033, 4.4721359549995787e-001, 0.,
             6.8904164408835975e-032, 6.2013747967952377e-032,
             4.4721359549995787e-001, -4.1342498645301581e-032,
             1.8948645212429892e-031, -3.1006873983976188e-031,
             -3.6514837167011077e-001, -6.0760815823616179e-032,
             -1.2257650692194796e-031, -7.3841269230090663e-034,
             -3.6514837167011077e-001, -3.6514837167011077e-001,
             -3.0000652812910508e-031, -9.7938576286872705e-032,
             -5.4772255750516619e-001, -8.4390021977244748e-033,
             -5.4853514285209097e-032, -2.2468843351441415e-031,
             -5.4772255750516619e-001, -1.7088979450392051e-032,
             6.2026666153274853e-032, -2.7004807032718263e-032,
             3.0860669992418377e-001, 1.5976259293277118e-031,
             1.1982194469957837e-031, -3.4282389733490480e-031,
             3.0860669992418377e-001, -6.1721339984836754e-001,
             -1.2647871940511047e-031, -7.6136860694523751e-032,
             -4.6291004988627571e-001, -2.6627098822128528e-032,
             -3.3283873527660661e-031, -2.3298711469362461e-031,
             4.6291004988627571e-001, -6.6567747055321333e-033,
             -1.5976259293277118e-031, 4.1937680644852432e-031,
             -7.5592894601845451e-001, -2.3293859087456380e-031,
             -1.2229276020914597e-031, -1.6596874599812679e-031,
             5.6694670951384085e-001, 1.8898223650461368e-001,
             -6.8134537830809915e-031, -7.6332884329949846e-031,
             -1.8898223650461365e-001, -4.6587718174912766e-032,
             -5.2411182946776900e-032, -7.3594036054432502e-031,
             1.8898223650461368e-001, 1.0336649970058770e-031,
             5.9399340673013774e-031, -2.7370284427761240e-031,
             2.6003610948339122e-017, 3.4666738998970237e-031,
             -1.6717071917281220e-031, 8.4740917553039363e-033,
             -5.0000000000000022e-001, 5.0000000000000000e-001,
             5.9857902671555308e-031, 8.5776104898146534e-031,
             -5.0000000000000000e-001, 6.7792734042430724e-032,
             -2.2803010541544864e-031, 4.6973431343604700e-031,
             5.0000000000000000e-001, -4.1985272787641753e-032,
             -1.4298103907130842e-030, 4.7840099818578921e-031 ]
      - !!opencv-matrix
         rows: 16
         cols: 16
         dt: d
         data: [ 0., 6.7172693547047413e-002, -4.0703433961873542e-001,
             4.6427359148887204e-001, 2.2367157394724546e-001,
             8.2768433605155123e-002, -3.6931236842951792e-001,
             3.6433910387286828e-001, 7.7798808329476665e-002,
             1.2985175520017087e-001, -2.6262153908749691e-001,
             3.5731182207141610e-001, 0., -1.5718900062525726e-001,
             -2.0494590258633646e-001, 4.4492295784517390e-002, 0.,
             -1.8491187484111740e-001, -2.2263726538452308e-002,
             1.0186739371246679e-001, -9.9657871087764541e-002,
             -4.8032330388574816e-002, 1.4925661711369842e-001,
             5.2887579839355803e-001, -3.4663607334874641e-002,
             -2.5809970281125767e-002, 6.0920948713728595e-001,
             -2.7238757771190786e-001, 0., -1.9058439825320192e-001,
             -3.9291982458270414e-001, -5.2931104785271903e-002, 0.,
             2.9468016448050899e-001, 4.7263006843423649e-001,
             1.1407906610358080e-001, 5.1549206263296543e-001,
             1.9500672028939400e-001, 4.3324508604980339e-001,
             1.2371224964826673e-001, 1.7930158700277057e-001,
             2.5877048183077661e-001, 9.3802131288159660e-002,
             2.0415235574672203e-001, 0., -1.2152208430834087e-001,
             6.5760646064147804e-002, 3.6391589005886328e-002, 0.,
             5.0466905816601026e-001, 1.9717577609540282e-001,
             -3.0694316875199013e-001, 5.9941041456587574e-002,
             5.8786353330436830e-002, -3.2510242264847983e-001,
             2.1893882775453638e-001, 2.0849057897943491e-002,
             7.8985360658202802e-002, -2.9712357217859842e-001,
             -4.8631359343070563e-001, 0., 6.6390938514601816e-002,
             -3.3271651479533704e-001, -7.0551061371624965e-002, 0.,
             -3.2701122074899537e-002, -3.6648664165519246e-001,
             -6.8511013464162995e-001, 3.2634420462648756e-001,
             4.1916804552050858e-002, -1.5465619865858440e-001,
             7.8407802568271373e-002, 1.3118771086721862e-001,
             1.9209335384717363e-001, 3.2841339378829432e-001,
             2.5195185497569367e-001, 0., 1.5622957484553038e-001,
             4.2196734421918659e-002, 7.2697928842898621e-002, 0.,
             5.9075457476788995e-002, -2.6010475908191033e-001,
             2.1204852015505749e-002, 6.4378478845110193e-002,
             6.3514539606047846e-002, 2.9323808884477415e-001,
             -5.7046738569101163e-001, 1.6359418269662467e-002,
             1.4489104775539818e-001, -1.3135958188244801e-002,
             1.0861242994049412e-002, 0., -5.5649004347814487e-002,
             -6.9470892835631304e-001, -3.9201857175910335e-002, 0.,
             -5.5107377540790120e-002, -2.7745459993735866e-001,
             2.2394965382018051e-001, 4.3227937753643186e-001,
             4.2100157179345080e-003, -1.3385513352445580e-001,
             -2.5838537613568718e-001, 5.2370905573019468e-002,
             1.4863161545885004e-001, 1.4551484656750618e-001,
             -6.1650084658918369e-001, 0., -2.3629464775635728e-001,
             3.3859144202354130e-001, 4.1279924535601011e-002, 0.,
             3.3985958219513057e-001, 1.0225574243099543e-001,
             2.9794667628266452e-001, 1.4690981841977163e-001,
             1.0372894124240879e-001, -3.2232684292514974e-001,
             -2.0838464843215737e-001, -1.9721971362894561e-001,
             -3.2960515684816172e-001, 4.7796036332501490e-001,
             1.0216236889996314e-001, 0., 4.6043942594641085e-001,
             -6.3038718240572472e-002, 5.6650541862981706e-002, 0.,
             5.2707539203240406e-001, -1.4151529427282664e-001,
             1.0508137248429081e-001, -4.9120104239462881e-001,
             -2.8063831972276010e-001, -1.0504264926447088e-002,
             -7.7396630562496960e-002, 2.8562297071284604e-001,
             4.0088658631243040e-001, 2.5847750820416987e-001,
             7.0746980408233531e-002, 0., -1.0839414000621701e-001,
             1.7950403195954642e-001, 8.3118398452555892e-002, 0.,
             -3.2695934643878310e-001, 3.8379614212355101e-001,
             6.3356582135704692e-002, 1.0604100187439623e-001,
             -4.6537264779475612e-001, -3.1000875334707417e-001,
             -1.0210180452020505e-001, -2.2817980224894457e-001,
             5.2520447435481810e-001, 2.8436062167210643e-002,
             5.3310667356364368e-002, 0., 1.1394853313197786e-001,
             -1.6464188921889558e-001, 1.8918200423038242e-001, 0.,
             -1.3787373791800903e-001, 2.5531674847604424e-001,
             -8.4349319746964663e-002, -1.2564184850903545e-001,
             2.8618279052564838e-001, -3.0466910069757225e-001,
             -1.6801347999848576e-001, 3.8054354398819606e-001,
             -2.0265350274900876e-001, 8.6369471288666969e-002,
             3.9106403468036108e-002, 0., -3.8230897154855076e-001,
             -1.2231773217409403e-001, 5.7789144636888878e-001, 0.,
             3.0226972909197058e-001, -1.0030941090549621e-001,
             -1.6038006893541884e-001, 1.0324118446371480e-001,
             -2.5779317705412086e-001, 1.1156594415323913e-001,
             2.0535236482510110e-002, -6.3222221913281218e-001,
             -2.0499268422068831e-001, -1.7877271290882672e-002,
             1.0433113161624996e-001, 0., -4.4625022006027082e-001,
             3.4351090673291798e-002, 3.6001912889840265e-001, 0.,
             3.9716017506826365e-002, 7.6853992616870315e-002,
             -3.2490032392346234e-002, 2.5988961650833109e-001,
             -6.6075426957001282e-001, -5.9567210622982696e-002,
             -6.0776314615208618e-002, 4.2834604037728019e-001,
             -4.3814828908565900e-001, -6.0348176709524573e-003,
             8.6942926678293717e-002, 0., -1.5284716822121491e-001,
             -9.1102268774145415e-002, -2.5567175005384329e-001, 0.,
             1.7710325858186341e-003, 1.8353325343851343e-001,
             -9.5631504664921277e-002, -7.1490349442602671e-002,
             2.2914320482007289e-001, -3.3344384815319894e-001,
             -1.8379740907292069e-001, -1.9849611354525823e-001,
             9.5042978893088464e-002, 1.7242084447544759e-001,
             1.9500127104082476e-001, 0., -4.8068127799375882e-001,
             4.2396284578223808e-002, -6.3682258408700254e-001,
             -7.0710678118654746e-001, -4.5981613100146653e-031,
             3.0505173972368359e-032, 1.9719416032138118e-031,
             -4.3497109673100244e-031, -1.6342057485197336e-031,
             1.1766281389342082e-031, -2.6365186076118370e-031,
             -1.3182593038059185e-031, -2.7345709525230210e-031,
             2.3968350978289425e-032, 9.5873403913157702e-032,
             7.0710678118654746e-001, 1.3073645988157869e-032,
             4.3442636148149586e-031, 4.7936701956578851e-032,
             -7.0710678118654746e-001, 2.8905014176942789e-032,
             1.7431527984210492e-032, 1.3945222387368394e-031,
             1.7540475034111809e-031, -6.1010347944736717e-032,
             9.5873403913157702e-032, -6.1010347944736717e-032,
             -7.4083993932894595e-032, 1.2637857788552607e-031,
             -1.0894704990131558e-032, 6.1010347944736717e-032,
             -7.0710678118654746e-001, 6.1010347944736717e-032,
             1.3563907712713788e-031, -1.1330493189736820e-031 ]
      - !!opencv-matrix
         rows: 16
         cols: 16
         dt: d
         data: [ 0., 2.7760925396993813e-001, 1.1374464675836969e-001,
             -3.7341571780531618e-001, 0., 3.1592214016985094e-002,
             4.9092409676827614e-001, -2.9126081417840660e-001, 0., 0.,
             4.0975688579469816e-001, -2.4248672407139785e-001, 0.,
             2.0205398466363547e-001, 1.5634213629174207e-001,
             -3.8955021163404835e-001, 0., -4.0607648672586832e-001,
             6.4755733976723029e-001, -1.2151472955575267e-001, 0.,
             -1.1136853793706364e-001, 1.5225453422408977e-001,
             3.4599287595955702e-001, 0., 0., 2.7817654240646894e-001,
             -6.5134428598609240e-002, 0., 9.1753947240974090e-002,
             -3.5098984159048663e-001, 1.8020195955110116e-001, 0.,
             6.1603722615994827e-001, -1.9618159420912151e-001,
             -2.2212845379473717e-001, 0., 1.3741708116620302e-001,
             1.4851190932603270e-001, 5.4916714645618514e-001, 0., 0.,
             -3.3714198085593734e-002, -1.2166881029495519e-001, 0.,
             -4.9193053853789831e-002, -3.1326161893746030e-001,
             2.7139146438461770e-001, 0., -4.8497412310035560e-003,
             -4.1142221433618759e-001, 3.3933008089718691e-001, 0.,
             -3.5687734770356244e-001, 6.3432781018396764e-002,
             3.0474217313094795e-002, 0., 0., 7.0183550144628859e-001,
             2.1303361985176844e-001, 0., 6.4443914189642321e-002,
             -6.8569675092584825e-002, 1.9088815607734941e-001, 0.,
             -3.0398832261146219e-001, -2.0962275501796665e-001,
             5.1324522680780256e-002, 0., 3.7091363412192394e-002,
             6.4944561943935597e-001, 3.6773455876205358e-001, 0., 0.,
             -2.0447476812088589e-001, 3.4628469349117030e-001, 0.,
             -2.1761475840532310e-001, 1.6382317382543618e-001,
             -2.5829028438379331e-001, 0., -1.4936378443166970e-001,
             -2.2764505292919360e-001, 1.2464057301433591e-002, 0.,
             3.2264124454054687e-003, 3.2323503833525613e-001,
             -4.9627672891988989e-001, 0., 0., -2.1340214455795123e-001,
             -9.1854208472285620e-002, 0., -5.6288654353153868e-002,
             -7.1079505947434218e-001, 1.1205019206760546e-001, 0.,
             2.4451418447946897e-002, 5.1142024728310066e-002,
             1.6840379534608776e-001, 0., -1.9600631832001450e-001,
             3.6678340659913805e-001, -8.1690053971371690e-002, 0., 0.,
             -2.8728058841042220e-001, -1.8195656510576155e-001, 0.,
             4.5610421301686743e-001, 3.6849040855629633e-001,
             5.7389059207106408e-001, 0., -1.2193672039601221e-002,
             6.6917235727543267e-002, 5.5263351056516030e-001, 0.,
             2.1682289323575432e-001, 1.3266799362723872e-001,
             6.1955725764307204e-002, 0., 0., 1.2073064258477023e-001,
             -6.4890720759452747e-001, 0., -4.2137668464282635e-001,
             8.4470254895463795e-002, -3.4178047871055571e-002, 0.,
             -4.1463063885236434e-001, -3.3091459195776302e-001,
             -5.1270711112196499e-001, 0., 3.2847893219943347e-001,
             -5.6879227294363351e-002, -4.3403831879330897e-002, 0., 0.,
             2.1204133464889827e-001, -1.8374349253893901e-001, 0.,
             -2.1124070496178693e-001, 2.3107887269344829e-001,
             4.0736661234428961e-001, 0., -2.9745271002721108e-001,
             -3.8399594622604849e-001, -4.9775086947928648e-002, 0.,
             -1.8570958503517468e-001, -1.6722578943556848e-001,
             3.1415778887598106e-001, 0., 0., -1.1067549172709665e-001,
             -4.6804445429580549e-001, 0., 4.7608556917204242e-001,
             -1.1241107173711455e-001, -3.6032681619881807e-001, 0.,
             5.1458000061416695e-002, 1.2706066577855521e-002,
             -2.8179705941498384e-001, 0., -7.8176134693955557e-001,
             -1.1895606121778935e-002, -1.8241492818870376e-002, 0., 0.,
             -1.3906964029069069e-001, -2.0348157118887286e-001, 0.,
             -4.8660904434676494e-001, 9.2232731763584680e-002,
             1.0753270206461142e-002, -4.4721359549995787e-001,
             8.3546299345713615e-032, 1.3071604470762184e-031,
             -1.9508491548251686e-031, -4.4721359549995787e-001,
             -7.2349372629277769e-032, 3.3061886856091276e-031,
             -1.0766275688880621e-032, 4.4721359549995787e-001,
             4.4721359549995787e-001, 4.1730084570101286e-031,
             -1.1283056921946891e-031, 4.4721359549995787e-001,
             1.5804892711276750e-031, 1.8302668671097054e-033,
             -1.2147050545979560e-031, -3.6514837167011077e-001,
             2.5992126768991384e-031, 4.2638058604002916e-031,
             -6.6161777230159905e-031, -3.6514837167011077e-001,
             -2.7004807032718318e-032, 9.6183527548564719e-031,
             -5.3798639010493532e-031, -5.4772255750516619e-001,
             3.6514837167011077e-001, 8.6077822416789665e-031,
             -4.7933532483075027e-031, -5.4772255750516619e-001,
             3.9832090373259528e-031, -5.0634013186346860e-032,
             -5.5001196823669272e-031, -6.4502880989347169e-018,
             5.3493001501545964e-031, 3.6415551429514744e-031,
             -8.2799757924999866e-031, -6.4502880989347169e-018,
             -2.2660986379473654e-031, 1.4089577228487639e-030,
             -5.2185636902730175e-031, -7.0710678118654746e-001,
             6.4502880989347169e-018, 1.7605843264052608e-030,
             -4.9244066555394666e-031, 7.0710678118654746e-001,
             5.9267195146315684e-031, 1.7867316183815760e-031,
             -8.3616860799259713e-031, -8.1649658092772615e-001,
             -2.6827109562756473e-031, -2.6064439683627700e-031,
             5.4346125819980282e-031, 4.0824829046386307e-001,
             7.5480730305528161e-032, -8.9947870280754419e-031,
             4.6735152180839536e-031, -1.0225443977346928e-017,
             -4.0824829046386307e-001, -9.6866937225427830e-031,
             3.4343732289015323e-031, -1.0225443977346928e-017,
             -3.4721135940542965e-031, -9.1834888538392604e-032,
             5.5179558883770493e-031, 3.1015159904882109e-017,
             -3.4217034008459297e-031, -8.8893983528854720e-032,
             3.9622680210984720e-031, 7.0710678118654746e-001,
             3.1049909221874968e-032, -4.9519838775457374e-031,
             3.4244909132555138e-031, -3.6250802771672437e-017,
             7.0710678118654746e-001, -6.3054807428041122e-031,
             2.3590440898944252e-031, -3.6250802771672388e-017,
             -2.9865110054198146e-031, -3.8408941983177881e-031,
             5.0241400193846757e-031 ]
      - !!opencv-matrix
         rows: 16
         cols: 16
         dt: d
         data: [ -6.8321448503943713e-002, 3.3850016206278277e-001,
             -1.9991357600684587e-001, -2.2604530365687303e-001, 0.,
             2.6974527765119632e-001, 1.6409320140457551e-001,
             -3.8796148105495587e-001, 0., 3.8009561850850404e-001,
             1.0927121806960283e-001, -3.1998981175038077e-001,
             7.3566893904871755e-002, 3.4331217155606802e-001,
             6.4985707207263529e-002, -3.9138199159585563e-001,
             4.8239841984713649e-002, 3.1561697335989741e-001,
             -1.4208127035447207e-001, 7.1920691399221762e-002, 0.,
             1.7855246417640130e-001, -1.9628300136841412e-001,
             2.6902179597828718e-001, 0., 2.5159665406674719e-001,
             -4.9238489766053745e-001, 1.0500593762137110e-001,
             4.8696126593563968e-002, 2.2724859076996526e-001,
             -5.6285772898356201e-001, 2.0573375072728292e-001,
             -3.1374922546138218e-001, 1.9342733136274279e-001,
             4.3421229316818133e-001, -6.2763854718077083e-001, 0.,
             -3.2091884532774242e-002, 2.0628577497713366e-002,
             3.8112608245773405e-001, 0., -4.5220382750727289e-002,
             -4.1883054254823339e-002, 2.0766023864598038e-001,
             -8.7523321453020636e-003, -4.0844216678076264e-002,
             -1.2800443040946220e-002, -2.9348553440719211e-001,
             -3.7891057808060458e-001, -2.2546087582703578e-001,
             -4.1784552935938901e-001, 2.1918019236972489e-001, 0.,
             1.2622175972517258e-001, -2.7936969800172667e-001,
             3.3694694062193736e-001, 0., 1.7785793415819229e-001,
             -6.4978735772103693e-003, 3.0723691250367896e-001,
             3.4424116288684234e-002, 1.6064587601385849e-001,
             3.8273770010624508e-001, -2.7549277797960170e-001,
             2.0524793955711551e-002, -6.1009176959472800e-001,
             1.1098532760004405e-001, -1.9572246599262000e-001, 0.,
             3.8593793639366258e-001, -1.1018495312585783e-001,
             3.0470936770772852e-002, 0., -3.2483400407718455e-001,
             -1.7832231651942920e-001, -3.3135732492669068e-001,
             1.0456792700927080e-001, 3.6811458778235717e-001,
             -1.3292518348310056e-001, -5.9151375139060977e-002,
             -1.0258941302210953e-001, 3.3010594457293635e-001,
             2.3236271761008465e-001, 7.1154408829870369e-002, 0.,
             -1.2066006213358252e-001, -1.0328622313375493e-001,
             1.7449486609316400e-002, 0., -1.9976096379479594e-001,
             -8.2255652161267276e-002, -8.4599641830357841e-002,
             8.1159641515179167e-004, 5.6674327140068237e-001,
             4.8577696007835575e-001, 4.3001550265064731e-001,
             -1.0346865779197145e-002, 1.5594790258804583e-001,
             7.4411929167903651e-002, -5.3802421168965747e-002, 0.,
             6.4987708254595689e-001, -1.7422915534599276e-001,
             1.4619741127095517e-001, 0., 1.1717883799828538e-001,
             2.5410305206839214e-002, -2.4955815949392099e-001,
             -1.2902253538861676e-002, -4.8813228444488604e-001,
             2.9376335474894871e-001, 3.0278591736572824e-001,
             -1.3085202454284600e-001, 1.6695520478898490e-001,
             -4.1129499576008605e-001, -1.7592256512088869e-001, 0.,
             3.1058888961347908e-001, 2.4898043117717114e-001,
             -2.0040699827456867e-003, 0., -4.7470679812919231e-001,
             3.9580004924837103e-001, 3.2123973204835271e-001,
             -5.9323869537065976e-002, 1.0901152663569069e-001,
             -1.9822850325363023e-001, 2.3776898976497163e-001,
             -8.6421649819010488e-002, -2.0520500559710364e-001,
             3.2921672837080873e-001, 1.7898090495003488e-004, 0.,
             5.5411698791456895e-002, -2.9612729858816572e-001,
             -8.3369912535140894e-002, 0., 4.3679137019147873e-001,
             5.9707934359137282e-001, 1.7230073365837642e-001,
             2.0493694405746051e-002, 2.0462108629164741e-001,
             -2.4025257443775080e-001, 2.5949388388342998e-001,
             -4.9559547734471354e-001, 1.5837842028801330e-001,
             -1.7722216983719757e-001, 1.0478718790304013e-002, 0.,
             -2.8709497732539124e-001, -4.6117240031162426e-001,
             -5.9049346388738481e-002, 0., -2.4168590828482484e-001,
             1.4041549233842368e-001, -4.6400226856229199e-001,
             1.2708563525574629e-001, -1.7186252134905669e-001,
             -2.4496638951016786e-001, -8.4174083983094370e-003,
             2.9899775308607013e-001, 2.7603213758551831e-001,
             2.3461039075886375e-001, 4.6006558182560370e-001, 0.,
             1.5881313986102685e-001, -4.3860321940400113e-002,
             3.7640826091792517e-001, 0., -2.4041349852939270e-001,
             3.3826724766166572e-001, -1.2619721558829552e-001,
             1.1144075428539099e-001, 1.0578267270871090e-001,
             -1.0261681059869085e-001, -4.2022299294527016e-001,
             1.1752573287814237e-001, -1.2280598037170194e-001,
             -2.6758771357883082e-001, -1.8552117893207265e-001, 0.,
             -2.6083731107365504e-001, 3.4315070099188438e-001,
             5.8112994604349966e-001, 0., 2.4698092552188136e-001,
             2.1750038367413496e-001, -4.1000973725741169e-001,
             8.0742558984655738e-002, 7.7218331672972360e-002,
             2.5578058655535259e-002, 2.2811035180272826e-001,
             5.9050106124760204e-001, 7.4650513481376232e-002,
             -2.4924499325644045e-001, -4.1424997516350370e-001, 0.,
             -1.2894178530810277e-001, -5.2203255559049988e-001,
             -2.8199429236954249e-002, 0., -7.7203351164228357e-002,
             8.5401051033331107e-002, 1.3769129933785815e-001,
             2.5395983104744074e-001, 8.7343344817570473e-004,
             1.5377471707395310e-001, -4.1411289127932217e-002,
             -1.3353311789768380e-001, -1.1856195565570916e-002,
             8.4508876968306265e-002, 8.2193821293961869e-002, 0.,
             2.6540088945895081e-002, 2.1989119237141638e-001,
             -7.1304982593336438e-002, 0., 9.5788805811790178e-003,
             -5.2034191613611246e-002, 1.3658586271053125e-001,
             9.3612463275637636e-001, -8.7158678213325735e-002,
             2.2699931458890318e-002, 8.9964376770071283e-002,
             -4.5104078659144649e-031, 5.7061017385814028e-032,
             9.5873403913157702e-032, -7.1741632360016306e-031,
             -7.0710678118654746e-001, 1.1602860814490109e-031,
             -7.6262934930920902e-032, 5.8504565797006460e-031,
             7.0710678118654746e-001, 2.2592894473285316e-031,
             -2.0509282143922658e-031, 4.7500913756973594e-031,
             -8.7157639921052461e-033, -2.7890444774736788e-031,
             -5.1273205359806644e-031, -4.9353013605295956e-031,
             -1.8330341145896346e-031, 5.9999183137840141e-031,
             4.5226644090283632e-031, -3.9493305589226896e-032,
             -7.0710678118654746e-001, -4.3892042728992510e-031,
             1.7976263233717069e-032, 1.8575472008174306e-031,
             -7.0710678118654746e-001, -6.0499658648324302e-032,
             2.3151248104029561e-031, 1.6668898634901284e-031,
             -5.8831406946710410e-032, 4.3578819960526231e-033,
             5.3935598891770046e-031, 1.9610468982236805e-032 ]
      - !!opencv-matrix
         rows: 16
         cols: 16
         dt: d
         data: [ -7.3766798333051789e-002, -2.2130039499915530e-001,
             -2.1991741573682697e-001, 4.2624146232316351e-001,
             -3.6883399166525893e-001, 0., -1.5971483558229055e-001,
             3.1845557949358227e-001, -4.0571739083178471e-001, 0.,
             -3.0788135117223320e-001, 2.3364636971431174e-001,
             -7.3766798333051789e-002, -2.1991838969719724e-001,
             -2.1874098025452010e-001, 1.9218853674468209e-001,
             7.5046037856586673e-002, 2.2513811356975993e-001,
             -4.4758716615254956e-001, 2.3704051905204290e-001,
             3.7523018928293334e-001, 0., 1.5983319832799095e-001,
             4.6138721536001415e-001, 4.1275320821122663e-001, 0.,
             1.8259746349468706e-001, 7.2697821938446316e-002,
             7.5046037856586673e-002, -7.2828846102400063e-002,
             -2.9577693098278179e-001, 2.2890498170561546e-002,
             3.5797143146755868e-002, 1.0739142944026765e-001,
             1.8876286586987176e-001, -7.3471437166901174e-002,
             1.7898571573377919e-001, 0., 4.1720047525972220e-002,
             3.6195607858070182e-002, 1.9688428730715729e-001, 0.,
             -2.5665009249896731e-001, 6.2999827301773370e-001,
             3.5797143146755868e-002, 1.0842074216741122e-002,
             3.7022891980743644e-001, 5.2064445384344327e-001,
             -1.5025782919641160e-002, -4.5077348758923080e-002,
             -1.3271412974405777e-001, -5.5672568502142139e-001,
             -7.5128914598206684e-002, 0., -4.9401363976024243e-001,
             2.4068188622803194e-001, -8.2641806058024223e-002, 0.,
             3.8730353624944053e-001, -6.9308357746205126e-002,
             -1.5025782919641160e-002, -1.7363420783430498e-002,
             -1.2992945358680136e-001, 4.2838984377285255e-001,
             8.3861321550940619e-003, -1.4286678064610397e-001,
             -3.5988950539900905e-001, 2.4048162691775194e-002,
             7.6819340405654246e-002, 0., 2.2399876332744966e-002,
             3.1174761461765316e-001, -1.1444653129518989e-001, 0.,
             -5.1271202823934235e-002, -3.3449816783067499e-001,
             8.3861321550940619e-003, -2.2986511383679110e-002,
             7.8554736011104143e-001, -2.3050246594984308e-002,
             -1.4005020068289728e-002, 1.2639389614281299e-001,
             -5.1643362183381392e-001, 2.0309334414605146e-001,
             2.1852393488261734e-001, 0., -1.3025194629516826e-001,
             -6.2428148291380647e-001, -2.9454681818128731e-001, 0.,
             2.7090699776131372e-001, 2.0611810642356754e-001,
             -1.4005020068289728e-002, 1.9846530472762525e-002,
             7.6934781054866064e-002, 1.1086077515199201e-001,
             -4.8432837064491786e-002, 4.9919748267761005e-001,
             -3.9524071892674001e-001, -3.2143480351139642e-001,
             -5.2844214871530604e-001, 0., 1.1358261157381720e-001,
             1.1332886268902278e-002, 7.9073104556540652e-002, 0.,
             -2.2945220257456408e-001, 1.5932099220709134e-001,
             -4.8432837064491786e-002, 2.6991264554267458e-001,
             3.1230576232645281e-002, -1.9021580839656504e-001,
             4.9530256214236186e-002, 2.9195037086695441e-001,
             2.9187551068285639e-001, 1.5546217931274819e-001,
             -6.1999405250573986e-002, 0., 2.7705664334140950e-001,
             3.1346928915790623e-001, -4.8642031118150719e-001, 0.,
             5.1313660898089930e-001, 1.7708726439790584e-001,
             4.9530256214236186e-002, 2.8199828747392386e-001,
             1.0021850297148890e-001, -2.8121167219222049e-002,
             9.3199950982539220e-002, -3.8076118693683303e-001,
             -2.0246232679194009e-001, -2.5885755059226101e-001,
             -8.5480999335516533e-002, 0., 7.3134738312330994e-001,
             -1.0837040558645511e-001, -1.0699996285525167e-001, 0.,
             1.7340589206439466e-002, -8.9736170056755313e-002,
             9.3199950982539220e-002, 3.1928895911152028e-002,
             -1.6683154065967234e-001, 3.5647665423888619e-001,
             1.3179165764047301e-001, -1.8765913629280964e-001,
             -1.1922840470954358e-002, -9.9395026367176502e-003,
             -4.0415092164697558e-001, 0., 6.2420714203343254e-002,
             -6.0042764734824665e-002, 2.6981106913555969e-001, 0.,
             4.3606356596198842e-001, 3.1995885983556577e-001,
             1.3179165764047301e-001, -5.4220123377681462e-001,
             2.0046069122577725e-001, -2.4387658117092861e-001,
             -2.8875247590156063e-002, -2.9098719201640788e-001,
             -1.1071794529013622e-001, -4.0961206403753447e-001,
             3.8858429577722647e-001, 0., -2.4385902594788460e-003,
             1.5919377584364788e-001, -2.8975192615394341e-001, 0.,
             -1.2747780826266708e-001, 4.2887336065058035e-001,
             -2.8875247590156063e-002, 4.8441111397559114e-004,
             -7.4673852879433220e-002, -5.1725861922609317e-001,
             -3.6588857798889318e-001, 3.9823424649124772e-001,
             7.8493686063531798e-002, -1.7412404510027293e-001,
             1.4616305778653513e-001, 0., 2.3129673419976712e-001,
             5.8241222324210984e-004, -1.9605583700322618e-001, 0.,
             -4.5840249889080489e-002, -1.2533551317015781e-001,
             -3.6588857798889318e-001, -6.3405500120385205e-001,
             -1.2028995572108130e-003, 6.3581286961295877e-002,
             5.6708939767606592e-001, 3.0413073642760607e-001,
             2.9564296696950092e-002, -1.1075727386222191e-001,
             7.5685112992052675e-002, 0., -6.1288643243225749e-002,
             -2.1733348676756751e-002, -2.6472799353035814e-001, 0.,
             -2.3497459572039081e-001, -1.3129565780080579e-001,
             5.6708939767606592e-001, -3.0917159595496790e-001,
             -5.5674760751125936e-002, 2.5210415198535108e-003,
             -5.0000000000000011e-001, 1.9363529823317736e-017,
             3.5461913940893105e-018, -1.3735649979485583e-017,
             -1.0939393410724230e-019, -5.0000000000000000e-001,
             1.2790250137433308e-019, -6.0879394361432132e-018,
             -1.6564311133484395e-017, 5.0000000000000000e-001,
             -1.3208456598427740e-017, -7.8989126389527883e-018,
             5.0000000000000011e-001, -1.7549434158060623e-017,
             -1.1935129788984229e-018, -1.4516740385625853e-018,
             5.0000000000000000e-001, -5.5659985876090250e-018,
             -1.5796564226889219e-018, -7.6363976325720280e-018,
             8.8747311533146683e-019, -5.0000000000000011e-001,
             1.1531976369119049e-017, -7.6830960777002207e-018,
             2.4518270137423308e-018, 5.0000000000000011e-001,
             5.5124869254327303e-018, -1.0061881802693830e-017,
             -4.9999999999999994e-001, 2.9510426796350816e-018,
             -6.7760884307043690e-019, 4.0101660543198371e-019,
             1.3021681858719000e-018, -1.7404283120019709e-032,
             -1.3073098390702942e-031, -9.5882673442825988e-032,
             -2.0046346886619257e-031, -7.0710678118654746e-001,
             -1.7441390987759741e-032, -2.8326609870866717e-032,
             -1.2204199725598895e-031, -7.0710678118654746e-001,
             1.2200062187099226e-031, -4.0092555165102950e-031,
             -1.3021681858718652e-018, -2.2875004675651288e-035,
             -1.9610548305269901e-031, -3.1758267887748942e-031 ]
      - !!opencv-matrix
         rows: 16
         cols: 16
         dt: d
         data: [ 0., -5.1247869179495663e-002, -8.9611670848663241e-002,
             2.6579384382041815e-001, 0., 0., -2.3521869985208171e-001,
             6.3035726725463093e-001, 0., 0., -2.6356162093474611e-001,
             6.2858885260419484e-001, 0., -1.4872196900648090e-002,
             8.9581571208099536e-003, 3.3597787590070149e-002, 0.,
             2.8514333219419888e-002, -2.1298044797483262e-001,
             -3.2241462071563309e-002, 0., 0., -5.7425668170819122e-001,
             -3.4570552015770922e-001, 0., 0., -5.5932483100519481e-001,
             -1.0525479422533821e-001, 0., 3.3984817244097515e-001,
             -2.5311133470430669e-001, -4.3289949514693548e-003, 0.,
             -1.3198362738592789e-001, -5.9907898169815121e-001,
             6.3725811612849659e-001, 0., 0., -1.2539325020652453e-001,
             5.2726516540588554e-003, 0., 0., 3.3074851044486481e-001,
             -2.7388901538573029e-001, 0., -8.8801691316583321e-003,
             5.8444630139504010e-002, -1.1803016164813621e-001, 0.,
             -3.8234291157190337e-001, -2.7857702235106702e-001,
             -2.6994628440956620e-001, 0., 0., -1.0355059289103324e-001,
             -8.4793222621094899e-002, 0., 0., -3.0684774895368055e-001,
             -6.1825265105025305e-002, 0., -6.4144430334817260e-001,
             4.1849192711251809e-001, 2.9341718290317981e-002, 0.,
             5.6804007636139082e-002, 1.0763510063287161e-002,
             2.4192444223353347e-002, 0., 0., -1.1629721218480488e-001,
             -3.5852228187593838e-001, 0., 0., 1.6696262198885198e-001,
             3.7816578512574017e-001, 0., 3.8085853790607832e-001,
             7.3219692766506517e-001, 4.4243237758187622e-002, 0.,
             -2.1384642071792562e-001, 7.0496804208398578e-001,
             4.1761067873685365e-001, 0., 0., -4.1072373833167491e-001,
             -6.4138232834778475e-004, 0., 0., -9.6650274496831734e-004,
             -2.5425080843146536e-001, 0., -1.6786382459162486e-001,
             1.4431751053348965e-001, 2.3376766718026354e-002, 0.,
             2.5184281790804391e-001, -3.8970282701346753e-002,
             -5.4563734875026776e-002, 0., 0., 1.2046030817742166e-001,
             4.9009693390182812e-001, 0., 0., -3.1170476921765150e-001,
             -5.4338827030733905e-001, 0., 2.9488441825257505e-001,
             4.3449256830972188e-001, 9.5928791295729177e-002, 0.,
             -6.5084010300019224e-001, -3.3842493186058052e-002,
             -3.8982419967485971e-001, 0., 0., -2.2479103339018427e-001,
             2.6457651988577585e-001, 0., 0., 3.4570896114651983e-001,
             -9.7015012149860899e-002, 0., 3.7125298729332301e-001,
             -7.4661624391901632e-002, 1.7446334466446897e-001, 0.,
             5.1031834609725912e-001, -5.9576141889041326e-002,
             -3.3644286417567593e-001, 0., 0., -5.7955814765675695e-001,
             1.8079148683033572e-001, 0., 0., 4.0092086319584097e-001,
             -5.1123207845303914e-002, 0., -2.3727526061505450e-001,
             3.8277159429047899e-002, -1.8205232410984606e-001, 0.,
             -1.9119456810376245e-001, 8.2457177151563490e-002,
             -7.8913596100665076e-002, 0., 0., 7.2848214958852631e-002,
             6.7080386968474418e-002, 0., 0., -9.4081605041260424e-002,
             3.2839947925386356e-003, 0., 1.3577829812398853e-001,
             6.7379225869653531e-002, -9.5329618447078857e-001,
             -4.0824829046386302e-001, -6.5102129888518059e-032,
             -6.2743357066470302e-032, -3.5853346895125887e-032,
             -4.0824829046386302e-001, -4.0824829046386302e-001,
             -3.6796856023944986e-032, -1.1322109545829228e-032,
             4.0824829046386302e-001, 4.0824829046386302e-001,
             -8.2085294207261898e-032, 1.8575335973626076e-032,
             4.0824829046386302e-001, -7.8311257691985488e-032,
             6.4158620759698954e-032, 2.2644219091658456e-032,
             -2.8867513459481292e-001, 3.5581957498634620e-032,
             -3.9140153248498084e-032, 3.2023761748771162e-032,
             -2.8867513459481292e-001, -2.8867513459481292e-001,
             -1.0674587249590390e-032, -2.7576017061441832e-032,
             -5.7735026918962584e-001, 2.8867513459481292e-001,
             6.5826621372474056e-032, -6.4492297966275254e-032,
             -5.7735026918962584e-001, 1.4232782999453846e-032,
             -1.1564136187056251e-032, -5.6931131997815396e-032,
             2.2360679774997894e-001, 7.5794580849719574e-032,
             3.4452082204417982e-032, 1.1196926716435846e-031,
             2.2360679774997894e-001, -6.7082039324993681e-001,
             6.8904164408835975e-032, 4.6510310975964282e-032,
             -4.4721359549995798e-001, -2.2360679774997894e-001,
             1.2230489182568385e-031, 4.0911847617746350e-033,
             4.4721359549995804e-001, 1.3436312059723016e-031,
             -7.4071976739498666e-032, -5.5123331527068778e-032,
             -8.3666002653407567e-001, 1.1196570832128777e-031,
             -1.1785864033819743e-032, 1.1049247531706027e-031,
             3.5856858280031811e-001, 1.1952286093343947e-001,
             -2.3571728067639515e-032, 4.7143456135279064e-032,
             -1.1952286093343945e-001, -3.5856858280031811e-001,
             4.1250524118369179e-032, 4.0974292930076530e-032,
             1.1952286093343936e-001, 1.8857382454111621e-031,
             -1.2227833935088005e-031, -7.0715184202918568e-032,
             1.5851056836666178e-017, 3.2942491441488569e-032,
             -5.7649360022605021e-032, 1.2682859204973105e-031,
             2.6726124191242440e-001, 4.0089186286863659e-001,
             -5.9296484594679446e-032, 8.2356228603721461e-032,
             -4.0089186286863648e-001, 6.6815310478106094e-001,
             2.1412619436967570e-032, 2.7537863939369368e-032,
             4.0089186286863654e-001, 6.9179232027126001e-032,
             -2.6353993153190855e-032, -6.5884982882977160e-032,
             4.5275137265219766e-017, -5.2294583952631499e-032,
             1.0295496215674323e-031, -1.6342057485197508e-033,
             -7.0710678118654757e-001, 3.5355339059327379e-001,
             1.8956786682828910e-031, -1.4135879724695698e-031,
             -3.5355339059327379e-001, -3.5355339059327368e-001,
             4.5757760958552532e-032, -4.5604554169628814e-032,
             3.5355339059327368e-001, 1.1439440239638102e-032,
             -1.6342057485197311e-032, 6.5368229940789354e-032 ]
      - !!opencv-matrix
         rows: 16
         cols: 16
         dt: d
         data: [ 2.8111532739548845e-001, 2.7438326053979267e-001,
             2.3388717626503042e-001, 1.8459295937823889e-001,
             2.6813205560236081e-001, 2.6572774601104082e-001,
             2.8111532739548845e-001, 1.9527400744294157e-001,
             2.6620860792930490e-001, 2.7486412245805653e-001,
             2.7705111338280497e-001, 1.6392102416716581e-001,
             2.8063446547722443e-001, 2.5851941865675865e-001,
             2.1047285256126336e-001, 2.3940526853419178e-001,
             1.4001523995415921e-001, -7.1384556196004909e-002,
             -9.0055346645029483e-002, 3.2601002311574295e-001,
             -2.6768436690687131e-001, -3.4318429410335871e-001,
             1.4001523995415921e-001, 1.1589794632968836e-002,
             -3.2808430866406124e-001, -5.6284570756707501e-002,
             1.5473470760013236e-001, 5.2557543907361026e-001,
             1.2491525451486167e-001, -4.7613145706031104e-002,
             3.8109344653915350e-001, -2.7866793945734192e-001,
             -1.2958481712785479e-002, -3.5678358001859541e-002,
             1.7957104915400332e-001, -4.8737386312711350e-002,
             -5.6775385984570471e-002, -6.4889627516380902e-002,
             -1.2958481712785479e-002, 8.4132383355363971e-001,
             -6.3266779210019511e-002, -3.4055509695497359e-002,
             -1.1012635705412822e-001, 1.4079445570542132e-001,
             -1.4581330019148348e-002, -3.9520626419950416e-001,
             -1.9142173799121551e-001, 1.3547682475486431e-001,
             -1.0284999822110567e-001, 4.9738813581375087e-003,
             1.9481631836858923e-001, -2.0254284451747634e-001,
             1.0509605525315928e-001, 1.4360458367431242e-001,
             -1.0284999822110567e-001, 1.8601678213088430e-001,
             1.3590287799007644e-001, -2.7278243260870985e-003,
             -1.3454346693653735e-001, -2.6009143782848815e-001,
             -9.5148292536869086e-002, -9.5832092563338328e-002,
             7.1182155254649848e-001, -4.5212705066804310e-001,
             -2.5114976470945399e-001, 3.4491744837667782e-001,
             -2.2932308182155112e-002, -4.4295906199300669e-002,
             4.7747255418290119e-001, -1.1265406558544301e-001,
             -2.5114976470945399e-001, -1.6801649481871536e-001,
             -3.6620377302246965e-001, 4.3666787756495362e-001,
             -4.3864943527663451e-002, 1.5204645978184525e-001,
             1.1242383630441211e-001, -3.4379544606564516e-001,
             3.0228028007786290e-002, 4.3778383176025282e-002,
             5.0967359575455805e-002, -2.0674078017887551e-001,
             2.4218416554415340e-002, -5.2865015082928934e-001,
             -2.6201517100247673e-001, 3.8342481145044938e-001,
             5.0967359575455805e-002, -2.2953631802556784e-001,
             9.7632137112764833e-002, 1.5744470866727764e-001,
             1.3007845182335440e-001, 4.4885545244812164e-001,
             -9.9200412149242537e-002, -3.1588470811535119e-001,
             1.0554328930343521e-001, 1.7371294619635305e-001,
             -3.6107320886872729e-001, -5.5311383690435467e-001,
             -6.1232059019718843e-002, 1.9176225324353757e-001,
             8.3309960410233013e-003, -1.6413909404561874e-001,
             -3.6107320886872729e-001, 9.2967028643972244e-002,
             1.6786299594625040e-001, 2.3161199018881215e-001,
             2.5402769561573529e-001, -4.1830218482566142e-002,
             5.5816005480568608e-002, 1.2223195609656677e-001,
             2.3709666773239929e-001, 3.6710825656790774e-001,
             -2.3540595522396221e-001, 1.4843445737955699e-002,
             4.7548510021046225e-001, 9.5137309688369281e-002,
             -1.9813670641748321e-001, 2.2111352889203653e-001,
             -2.3540595522396221e-001, 3.8334721797293275e-002,
             -1.2026137392609758e-001, 2.4850053498616942e-001,
             2.4907860230829418e-001, 1.4337890378170287e-001,
             -1.5497551801955450e-001, 2.8879598261708900e-001,
             -3.3080714449459359e-001, -4.3419441114921936e-001,
             -1.4487873375681617e-001, 1.0512531683778803e-001,
             4.4393269774072153e-002, -2.7186227478301661e-001,
             -2.8356857563260451e-001, 2.6152604162427266e-002,
             -1.4487873375681617e-001, 7.4165775414402071e-002,
             -1.8952564449179843e-001, 3.0472368576366225e-002,
             -5.1536796261154993e-001, 1.2240076471436330e-001,
             4.6908990117215532e-001, 4.5522465722846539e-001,
             1.0169338818284344e-001, 1.7158807504735915e-001,
             2.0657386882192344e-001, -5.4823089150488546e-001,
             1.1042423177222252e-001, 2.7210837389345821e-001,
             2.1595280306905529e-001, 3.8146141353120194e-001,
             2.0657386882192344e-001, -5.8174934261127575e-002,
             -3.9389994706130715e-001, 1.7367796464651988e-001,
             -3.6682851447027404e-001, -9.4275334041900805e-002,
             2.2810198407765103e-002, -4.3211963167564774e-002,
             -2.6946521078957265e-002, -2.1029587371875585e-002,
             -1.0326856829497265e-001, 1.6392663482923259e-001,
             -2.3116363725718701e-002, 4.4702287861359286e-001,
             -4.2904136116120384e-001, 2.4854656214458698e-001,
             -1.0326856829497265e-001, -1.4002484973506302e-001,
             2.7659422553724206e-001, 1.1062447616550961e-001,
             -1.2674187247787405e-001, -1.7300673808610129e-001,
             3.8210058794092489e-001, -4.4871574063376102e-001,
             -3.0965119818708052e-002, -5.4167464455081075e-002,
             -1.1650240451451013e-001, -3.5543287992574946e-002,
             2.6058726691373246e-001, -5.6840791071847231e-002,
             1.2884130149945641e-001, 2.2035808757127662e-001,
             -1.1650240451451013e-001, -7.9081558337079166e-002,
             -3.2664847217863374e-001, -6.1905507228036527e-001,
             3.8843082726029221e-001, -1.0519600342889378e-001,
             3.8279808426108797e-001, -1.2040267879962104e-001,
             4.2295261195606802e-002, 1.1978987129572169e-001,
             3.0222602963492710e-002, -1.6815168510786813e-001,
             -5.6637217486553915e-001, -2.4663659411988856e-001,
             9.6612378950420477e-002, 1.4135330268889243e-001,
             3.0222602963492710e-002, 2.2977747168591850e-001,
             -4.4330324188402975e-003, 1.7101070813257613e-001,
             2.6696378394933373e-001, -9.0632299587597123e-002,
             4.2978182902318518e-001, 5.0763265334772448e-002,
             -1.8995526921508563e-001, -4.1720286571724813e-001,
             2.0602420096687243e-001, 2.7228473848118211e-002,
             2.0328617226947121e-001, -2.1732938094086482e-001,
             -3.5892575628190193e-001, -2.7101165858758780e-001,
             2.0602420096687243e-001, -2.1386518247235392e-002,
             -3.2944081845221235e-001, 3.6508632290506027e-001,
             2.6351580795716584e-001, -5.2977353101370772e-001,
             5.3122032356408902e-002, -7.1215787828544388e-002,
             6.1753626463263468e-002, 1.3946303679510397e-001,
             8.8887364590430618e-002, -2.8582382221525299e-001,
             4.3741596230414337e-001, -1.7295353780310851e-001,
             2.0084106737027235e-001, -4.4864694514297215e-001,
             8.8887364590430618e-002, -2.0068884651416213e-001,
             3.6043270107528491e-001, 1.2569712812356611e-002,
             -1.2584031926520189e-001, 9.3763405834607808e-002,
             3.8226527542103567e-001, -1.2891356900848253e-001,
             -1.8900671933650762e-001, -2.1492755847757936e-001,
             1.3991400254503114e-001, -2.1282693344877979e-001,
             -3.1529916066485891e-002, 3.9412395083107364e-002,
             -3.0741668164823749e-001, 0., 1.3991400254503114e-001,
             2.3647437049864418e-002, -3.0741668164823749e-001,
             9.3850765791649415e-002, -2.6800428656513009e-001,
             4.7294874099728845e-001, 4.7294874099728845e-001,
             2.7982800509006228e-001, 2.7982800509006228e-001,
             1.9706197541553683e-001 ]
      - !!opencv-matrix
         rows: 16
         cols: 16
         dt: d
         data: [ 0., -1.9580545602894847e-001, -3.2581045163121958e-001,
             4.4586870035156390e-001, 0., 0., -4.6899472243845164e-002,
             2.7005434022506856e-002, 0., 0., 4.1737685632342314e-002,
             5.1899225805360805e-001, 0., 2.0791556610274289e-001,
             4.1136821848635585e-001, -4.1259220660414664e-001, 0.,
             -1.8933056187594174e-001, 5.8028821935938568e-001,
             -3.0221512310196741e-001, 0., 0., 3.7654588823962568e-002,
             5.6412150853562149e-001, 0., 0., -3.0753990041921989e-002,
             6.9326185299279072e-002, 0., 7.2958372528312984e-002,
             4.4176376540064760e-001, -1.0101742084572507e-001, 0.,
             1.7124681121687096e-001, 6.8776051445369746e-002,
             -2.9752700167794360e-001, 0., 0., -3.5376612759600815e-002,
             -4.5515772283648281e-001, 0., 0., -5.3629921105298317e-001,
             3.9995464462293523e-001, 0., 7.6630779422695389e-002,
             3.2647609163584868e-001, 3.3009473486239593e-001, 0.,
             1.1345931516504863e-001, -2.1998380045615290e-001,
             4.0156059290186302e-001, 0., 0., 3.9225061834098282e-002,
             4.9459535311315300e-001, 0., 0., -2.7164956437470444e-001,
             -1.2089896160699454e-001, 0., 2.6254409469245360e-001,
             7.2916651588120315e-002, 6.0717686738801013e-001, 0.,
             -1.3416056085724185e-001, 6.3901622813841741e-001,
             5.7186193700451282e-001, 0., 0., 6.0993546842772785e-002,
             -4.0060803861067440e-001, 0., 0., 5.4309990504956794e-002,
             -1.3919290305299462e-001, 0., 2.2391678635063841e-001,
             1.1995899947140978e-002, 9.9092116647117187e-002, 0.,
             3.9794479656394416e-001, 1.6212660090621378e-001,
             1.1036382934244163e-001, 0., 0., -6.9920889064367789e-002,
             1.6726993349075400e-001, 0., 0., -5.7515003979955859e-001,
             -1.4463752902573592e-002, 0., 1.9233088547965094e-001,
             -3.6302169616614566e-001, -5.2011909995250638e-001, 0.,
             -2.9324768126279915e-001, 1.7786458024667942e-001,
             7.1578584754679875e-002, 0., 0., 1.1681997609297480e-001,
             1.7453726352473123e-001, 0., 0., -3.1402997690333584e-002,
             6.4727058538859861e-001, 0., -2.3720613880864533e-001,
             -5.6046623267627649e-001, 2.0688601288398936e-001, 0.,
             2.4489595219834662e-001, 2.8801192420775598e-002,
             -2.6235716814328436e-001, 0., 0., -6.1035606910124954e-002,
             -3.7662064107175973e-003, 0., 0., 4.3714302644023512e-001,
             2.3002848656601918e-001, 0., 7.5489388659001488e-001,
             -2.1307594163818139e-001, 8.5746040731164624e-002, 0.,
             -6.9243562577153628e-001, -1.9073838722645603e-001,
             -2.1623454516670032e-001, 0., 0., 2.6850525519493057e-001,
             -1.0056516120128992e-001, 0., 0., -3.2376914335983198e-001,
             -2.3863236007387781e-001, 0., 4.0250557771940526e-001,
             -1.5836185259751004e-001, -7.9529187363568662e-002, 0.,
             2.8604410878526415e-001, -2.2735212038546219e-002,
             1.3247229873795575e-002, 0., 0., 9.4631706819699546e-001,
             -1.3700021736146116e-002, 0., 0., 7.2443444991445588e-002,
             5.3470145083310598e-002, 0., -3.7072174520605947e-002,
             8.4773835429470215e-002, -7.1516755186329092e-002,
             -4.0824829046386296e-001, 8.6331085286947833e-032,
             -2.3847193230902800e-031, 3.9533032497520367e-031,
             -4.0824829046386296e-001, -4.0824829046386296e-001,
             2.2644219091658445e-032, 3.7875994590031818e-031,
             4.0824829046386296e-001, 4.0824829046386296e-001,
             -2.2019144293815789e-031, -4.2104094873552424e-032,
             4.0824829046386296e-001, 2.5088497428505429e-031,
             8.3854373823797683e-032, 4.3908556082418950e-031,
             -2.8867513459481292e-001, -1.5656061299399233e-031,
             1.0096380440237575e-031, -1.4343976616637084e-031,
             -2.8867513459481292e-001, -2.8867513459481292e-001,
             -5.6931131997815396e-032, -1.9659031517995634e-031,
             -5.7735026918962584e-001, 2.8867513459481292e-001,
             5.3372936247951933e-031, 2.5796919186510106e-032,
             -5.7735026918962584e-001, -2.5441099611523757e-031,
             -9.2513089496450022e-032, -5.8710229872747130e-031,
             2.2360679774997896e-001, -6.3736352078173273e-032,
             -7.7517184959940580e-033, 3.9296906264414287e-032,
             2.2360679774997896e-001, -6.7082039324993692e-001,
             -6.8904164408835945e-033, 1.4534472179988857e-032,
             -4.4721359549995798e-001, -2.2360679774997896e-001,
             1.1972098566035247e-031, 5.4262029471958324e-032,
             4.4721359549995787e-001, -5.8137888719955196e-033,
             5.5123331527068778e-032, -1.7613627027008689e-031,
             -8.3666002653407556e-001, 1.2375157235510753e-031,
             -1.7126333674144340e-031, 9.4194835207793863e-032,
             3.5856858280031806e-001, 1.1952286093343936e-001,
             -5.8929320169098597e-033, -3.7014979231215158e-032,
             -1.1952286093343939e-001, -3.5856858280031806e-001,
             -4.5301914879994725e-031, 2.7917765430110555e-031,
             1.1952286093343939e-001, 2.8396566156484496e-031,
             3.3074080944906706e-031, 5.9297628420155691e-031,
             4.4148240258420968e-017, -8.3179790889758636e-032,
             -1.2600502976369387e-031, 2.7308810678565267e-031,
             2.6726124191242434e-001, 4.0089186286863659e-001,
             1.1265025348026739e-047, 3.3380008905945863e-031,
             -4.0089186286863659e-001, 6.6815310478106094e-001,
             -3.7266193443184050e-032, 1.4875593791547188e-031,
             4.0089186286863659e-001, 1.6193293449206739e-031,
             2.2647962866023400e-031, -2.5942212010172131e-032,
             4.0035575562419129e-017, 1.3073645988157946e-032,
             -6.8228090000698966e-032, 1.3952031577987240e-031,
             -7.0710678118654757e-001, 3.5355339059327373e-001,
             -1.3073645988157839e-032, 1.0050365353396378e-031,
             -3.5355339059327373e-001, -3.5355339059327384e-001,
             1.9773889557088750e-031, -1.7404291221735163e-031,
             3.5355339059327373e-001, -2.4513086227795854e-032,
             -1.8793366107976933e-031, -1.4707851736677290e-032 ]
   c: !!opencv-matrix
      rows: 1
      cols: 10
      dt: d
      data: [ -1.7227424338362550e+002, -1.6942683910178118e+002,
          -1.6862452102696724e+002, -1.6849250714543811e+002,
          -1.7243564409352751e+002, -1.7054410444476662e+002,
          -1.7132242520313392e+002, -1.7157303064072900e+002,
          -1.6817506559858191e+002, -1.7046607501331437e+002 ]
