%YAML:1.0
my_svm: !!opencv-ml-svm
   svm_type: C_SVC
   kernel: { type:POLY, degree:5.0000000000000000e-001, gamma:1.,
       coef0:1. }
   C: 1.
   term_criteria: { epsilon:2.2204460492503131e-016, iterations:1000 }
   var_all: 16
   var_count: 16
   class_count: 10
   class_labels: !!opencv-matrix
      rows: 1
      cols: 10
      dt: i
      data: [ 0, 1, 2, 3, 4, 5, 6, 7, 8, 9 ]
   sv_total: 50
   support_vectors:
      - [ 0., 0., 27., 8., 0., 0., 8., 26., 0., 0., 21., 16., 0., 22.,
          18., 0. ]
      - [ 0., 0., 22., 12., 0., 0., 16., 16., 0., 0., 20., 15., 0., 11.,
          25., 0. ]
      - [ 0., 14., 20., 0., 0., 0., 32., 0., 0., 26., 10., 0., 6., 25.,
          0., 0. ]
      - [ 0., 4., 25., 0., 0., 0., 0., 0., 0., 1., 24., 0., 0., 31., 6.,
          0. ]
      - [ 0., 0., 28., 0., 0., 0., 24., 0., 0., 0., 24., 0., 0., 14.,
          20., 0. ]
      - [ 0., 10., 20., 4., 0., 0., 3., 23., 0., 0., 0., 24., 0., 0.,
          21., 11. ]
      - [ 0., 0., 21., 11., 0., 0., 0., 31., 0., 0., 3., 31., 0., 5.,
          30., 0. ]
      - [ 0., 0., 8., 32., 0., 0., 0., 8., 0., 0., 0., 0., 0., 0., 0.,
          18. ]
      - [ 0., 5., 30., 0., 0., 0., 32., 0., 0., 0., 29., 0., 0., 5., 30.,
          0. ]
      - [ 0., 5., 22., 0., 0., 0., 19., 0., 0., 2., 19., 0., 0., 31., 4.,
          0. ]
      - [ 0., 0., 32., 0., 0., 0., 32., 0., 0., 6., 27., 0., 0., 31., 4.,
          0. ]
      - [ 0., 10., 27., 0., 0., 0., 12., 25., 0., 0., 3., 31., 0., 0.,
          27., 8. ]
      - [ 0., 0., 18., 0., 0., 0., 0., 0., 0., 0., 6., 0., 0., 10., 25.,
          0. ]
      - [ 0., 11., 16., 12., 0., 0., 0., 31., 0., 0., 0., 24., 0., 0.,
          0., 25. ]
      - [ 0., 0., 3., 28., 0., 0., 0., 27., 0., 0., 14., 21., 0., 0., 7.,
          0. ]
      - [ 0., 2., 33., 0., 0., 0., 32., 0., 0., 0., 33., 0., 0., 10.,
          25., 0. ]
      - [ 0., 0., 0., 19., 0., 0., 0., 0., 0., 0., 3., 22., 0., 10., 25.,
          3. ]
      - [ 0., 16., 5., 34., 23., 9., 0., 24., 8., 13., 1., 30., 0., 0.,
          12., 4. ]
      - [ 0., 0., 0., 24., 0., 0., 1., 32., 0., 2., 26., 6., 0., 0., 0.,
          0. ]
      - [ 0., 14., 20., 0., 0., 1., 5., 0., 0., 1., 5., 0., 0., 14., 20.,
          0. ]
      - [ 0., 5., 30., 0., 0., 0., 29., 0., 0., 0., 26., 0., 0., 14.,
          20., 0. ]
      - [ 0., 0., 5., 24., 0., 0., 0., 0., 0., 0., 0., 15., 0., 2., 25.,
          12. ]
      - [ 0., 0., 16., 21., 0., 0., 0., 28., 0., 0., 0., 14., 0., 0., 5.,
          30. ]
      - [ 0., 14., 21., 0., 0., 0., 31., 0., 0., 0., 29., 0., 0., 14.,
          21., 0. ]
      - [ 0., 31., 4., 0., 0., 6., 27., 0., 0., 0., 17., 0., 0., 10.,
          25., 0. ]
      - [ 0., 10., 25., 3., 0., 0., 3., 30., 0., 0., 0., 24., 0., 0., 0.,
          21. ]
      - [ 0., 33., 0., 0., 0., 22., 11., 0., 0., 31., 3., 0., 6., 28.,
          0., 0. ]
      - [ 0., 0., 17., 5., 0., 0., 16., 0., 0., 0., 28., 7., 0., 0., 31.,
          4. ]
      - [ 12., 0., 8., 30., 0., 0., 0., 19., 0., 0., 0., 19., 0., 0., 0.,
          35. ]
      - [ 0., 5., 19., 11., 0., 0., 0., 31., 0., 0., 0., 26., 0., 0., 3.,
          23. ]
      - [ 0., 0., 0., 28., 0., 0., 2., 29., 0., 0., 13., 4., 0., 0., 0.,
          0. ]
      - [ 0., 0., 11., 24., 0., 0., 0., 27., 0., 0., 0., 28., 0., 0.,
          16., 21. ]
      - [ 0., 0., 28., 0., 0., 0., 0., 0., 0., 0., 15., 0., 0., 11., 24.,
          0. ]
      - [ 6., 18., 16., 0., 30., 0., 14., 12., 33., 0., 28., 4., 6., 14.,
          21., 0. ]
      - [ 0., 0., 27., 8., 0., 0., 3., 3., 0., 0., 8., 8., 0., 9., 25.,
          3. ]
      - [ 0., 2., 31., 0., 0., 0., 25., 10., 0., 0., 32., 1., 0., 2.,
          31., 0. ]
      - [ 0., 7., 28., 0., 0., 0., 6., 0., 0., 0., 14., 0., 0., 20., 18.,
          0. ]
      - [ 0., 2., 30., 3., 0., 0., 3., 31., 0., 0., 3., 31., 0., 9., 25.,
          3. ]
      - [ 0., 0., 16., 20., 0., 0., 0., 32., 0., 0., 12., 25., 0., 11.,
          25., 0. ]
      - [ 0., 0., 19., 0., 0., 0., 0., 0., 0., 0., 7., 0., 0., 11., 24.,
          0. ]
      - [ 0., 0., 11., 23., 0., 0., 0., 28., 0., 0., 0., 31., 0., 0.,
          12., 11. ]
      - [ 0., 0., 12., 23., 0., 0., 0., 28., 0., 0., 0., 31., 0., 0.,
          20., 6. ]
      - [ 0., 14., 23., 8., 27., 32., 0., 24., 31., 13., 0., 0., 1., 16.,
          0., 33. ]
      - [ 64., 64., 64., 64., 64., 64., 64., 64., 64., 64., 64., 64.,
          64., 64., 64., 64. ]
      - [ 0., 0., 5., 25., 0., 0., 0., 2., 0., 0., 3., 28., 0., 11., 22.,
          3. ]
      - [ 0., 0., 23., 8., 0., 0., 1., 25., 0., 0., 1., 25., 0., 5., 25.,
          4. ]
      - [ 0., 12., 0., 17., 0., 0., 0., 0., 0., 0., 0., 15., 0., 0., 0.,
          17. ]
      - [ 0., 9., 25., 3., 0., 0., 3., 28., 0., 0., 0., 2., 0., 0., 5.,
          25. ]
      - [ 0., 0., 0., 32., 0., 0., 0., 24., 0., 0., 3., 30., 0., 11.,
          23., 3. ]
      - [ 0., 0., 9., 24., 0., 0., 2., 31., 0., 0., 20., 4., 0., 0., 0.,
          0. ]
   decision_functions:
      -
         sv_count: 8
         rho: 8.7828206945997831e+000
         alpha: [ 9.8583331985523104e-001, 1., 1.2343325745676369e-001,
             1., -1., -1.0926657731199484e-001, -1., -1. ]
         index: [ 0, 1, 2, 4, 6, 7, 8, 9 ]
      -
         sv_count: 9
         rho: 1.3221646315110283e+001
         alpha: [ 1., 1., 2.7613055240165829e-001,
             2.4741042261222961e-002, 2.1515353501264473e-001, -1.,
             -4.8784516279999085e-001, -3.7990220692488158e-001,
             -6.4827775995065617e-001 ]
         index: [ 0, 1, 2, 3, 4, 10, 11, 12, 14 ]
      -
         sv_count: 6
         rho: 2.1870437261135409e+000
         alpha: [ 2.3439007987725646e-001, 1., 3.5314324616797471e-001,
             -1., -5.5772863616257151e-001, -2.9804689882659736e-002 ]
         index: [ 0, 1, 2, 15, 17, 19 ]
      -
         sv_count: 6
         rho: 2.0929934679574487e+000
         alpha: [ 1., 3.5093510223498442e-001, 1., -1.,
             -4.4590970008964798e-001, -9.0502540214533622e-001 ]
         index: [ 1, 2, 4, 20, 22, 23 ]
      -
         sv_count: 6
         rho: 6.6421249517287686e+000
         alpha: [ 9.0875824969581365e-001, 1.3532736977222473e-001,
             4.1190077363364941e-002, -1.5960491220671388e-001,
             -6.7396311778506801e-001, -2.5170766683962154e-001 ]
         index: [ 1, 2, 3, 26, 27, 29 ]
      -
         sv_count: 5
         rho: 1.0108204888895372e+001
         alpha: [ 1., 4.1803265295221187e-001, -3.8683603573391367e-001,
             -9.3304811859227976e-001, -9.8148498626041095e-002 ]
         index: [ 1, 3, 30, 32, 33 ]
      -
         sv_count: 7
         rho: 4.9422735670129452e+000
         alpha: [ 1., 1., 8.8523190387019821e-002,
             -5.9537767924307949e-001, -4.8580576733404474e-001,
             -7.3397438099072733e-003, -1. ]
         index: [ 0, 1, 4, 35, 36, 37, 38 ]
      -
         sv_count: 6
         rho: -1.7054244019948139e-001
         alpha: [ 1.3797016847515307e-002, 1.6372647324932910e-001,
             -6.4847259934702042e-002, -1.4330830705878959e-002,
             -1.4828811713645810e-002, -8.3516587742617665e-002 ]
         index: [ 0, 1, 41, 42, 43, 44 ]
      -
         sv_count: 4
         rho: 1.5040587621829460e+000
         alpha: [ 1.9986113561134314e-001, 1.5429036191983270e-001,
             -2.4378962790728761e-001, -1.1036186962388383e-001 ]
         index: [ 0, 1, 45, 49 ]
      -
         sv_count: 9
         rho: 2.5188451359392303e+000
         alpha: [ 1., 1., 8.3073980614998588e-001, 1.,
             -6.3890125785415863e-001, -1.9183854829582742e-001, -1.,
             -1., -1. ]
         index: [ 5, 6, 7, 9, 10, 11, 12, 13, 14 ]
      -
         sv_count: 8
         rho: 5.0208625561529061e+000
         alpha: [ 9.7251482108367349e-001, 7.2907600793798899e-001, 1.,
             8.9936634996141462e-001, -1., -6.0095717898307699e-001, -1.,
             -1. ]
         index: [ 6, 7, 8, 9, 15, 16, 18, 19 ]
      -
         sv_count: 9
         rho: -3.2174457292771637e+000
         alpha: [ 8.4397286424437423e-001, 2.0011786475018292e-001, 1.,
             1., 2.5835945739036392e-001, -1., -8.9420428126837970e-001,
             -1., -4.0824590511654091e-001 ]
         index: [ 5, 6, 7, 8, 9, 20, 21, 22, 23 ]
      -
         sv_count: 8
         rho: 1.0499938374423310e+000
         alpha: [ 1., 4.1100723994563271e-002, 2.4603534680163100e-001,
             3.2260909195796827e-001, 6.1250180573050916e-001,
             -9.2907312552911536e-001, -2.9317384295555637e-001, -1. ]
         index: [ 5, 6, 7, 8, 9, 25, 26, 27 ]
      -
         sv_count: 9
         rho: 3.3104114165540039e+000
         alpha: [ 6.8414812935038449e-001, 1., 1.,
             4.6272960485527936e-001, 2.7803747955632530e-001,
             -7.7655512780203395e-001, -1., -6.4836008595995576e-001,
             -1. ]
         index: [ 5, 6, 7, 8, 9, 30, 31, 32, 34 ]
      -
         sv_count: 9
         rho: -8.2806432603598754e+000
         alpha: [ 7.8763280854328765e-001, 1., 9.0151899807461000e-001,
             8.7523030167740767e-001, -1., -1., -1.,
             -5.3305428501502172e-001, -3.1327823280283953e-002 ]
         index: [ 5, 6, 8, 9, 35, 36, 37, 38, 39 ]
      -
         sv_count: 7
         rho: -6.9000138740074188e+000
         alpha: [ 4.9189975666498148e-001, 1., 8.1908086015347736e-001,
             -4.7627679479625445e-001, -1., -3.5228674630626505e-001,
             -4.8241707571594056e-001 ]
         index: [ 5, 6, 7, 40, 41, 42, 44 ]
      -
         sv_count: 9
         rho: -2.1268449699269034e+000
         alpha: [ 1., 1., 1., 1.1755341543109307e-001,
             -7.4437327736906744e-001, -3.0113376670350489e-001, -1.,
             -1., -7.2046371358520378e-002 ]
         index: [ 5, 6, 7, 9, 45, 46, 47, 48, 49 ]
      -
         sv_count: 8
         rho: 2.6745733577756186e+000
         alpha: [ 6.0967685620947232e-001, 8.8753276236072098e-001,
             2.4512530421041429e-001, 1., -2.7724234834682060e-001,
             -4.6509257443378704e-001, -1., -1. ]
         index: [ 10, 12, 13, 14, 15, 16, 18, 19 ]
      -
         sv_count: 7
         rho: -2.7790508037329675e+000
         alpha: [ 2.6368952410878116e-001, 4.6019668458978946e-001,
             8.3648661170842542e-001, 1.2422893817715609e-001,
             -2.1621270809724732e-001, -1., -4.6838905048690549e-001 ]
         index: [ 10, 12, 13, 14, 20, 22, 24 ]
      -
         sv_count: 9
         rho: 5.5679649125439816e+000
         alpha: [ 6.4354652170145143e-001, 9.3379136740611013e-001,
             3.2491280743979689e-001, 1., 3.9520315581590898e-001, -1.,
             -3.4412936494317603e-001, -1., -9.5332448742009057e-001 ]
         index: [ 10, 11, 12, 13, 14, 25, 26, 27, 29 ]
      -
         sv_count: 9
         rho: -6.3512666252972423e+000
         alpha: [ 7.0603279153470949e-002, 1., 6.8223742903122409e-001,
             1., -5.6044862099006054e-001, -1., -6.0793162326575823e-001,
             -1.5549727962331328e-001, -4.2896318430556463e-001 ]
         index: [ 10, 12, 13, 14, 30, 31, 32, 33, 34 ]
      -
         sv_count: 8
         rho: -7.5158250423759139e+000
         alpha: [ 7.5737518468342735e-001, 1., 1.,
             1.0658808141440022e-001, -6.5159834911644132e-001, -1.,
             -9.3084324846082489e-001, -2.8152166852053828e-001 ]
         index: [ 10, 11, 12, 14, 35, 36, 37, 39 ]
      -
         sv_count: 7
         rho: -6.5463239515984704e+000
         alpha: [ 9.6266329186525376e-002, 1.6440768235423758e-001,
             7.6489990177942402e-001, 5.3964343157223216e-001, -1.,
             -3.3785494849007192e-001, -2.2736239640233771e-001 ]
         index: [ 11, 12, 13, 14, 40, 41, 42 ]
      -
         sv_count: 8
         rho: -1.1949799790267015e+001
         alpha: [ 4.0393356068419339e-001, 8.7194160876512128e-001, 1.,
             1., -1., -1., -1., -2.7587516944931484e-001 ]
         index: [ 11, 12, 13, 14, 45, 47, 48, 49 ]
      -
         sv_count: 9
         rho: -2.8707962417713362e+000
         alpha: [ 1., 3.0842811036733531e-001, 6.9049810023402736e-001,
             1., -3.0685813676845025e-001, -3.1557348161807997e-002, -1.,
             -1., -6.6051072567110591e-001 ]
         index: [ 15, 17, 18, 19, 20, 21, 22, 23, 24 ]
      -
         sv_count: 8
         rho: 6.7964139261040160e+000
         alpha: [ 6.1502723661568193e-001, 1., 3.1745441446240985e-001,
             1., -8.9477116118499789e-001, -1., -1.6180946042840211e-001,
             -8.7590102946469162e-001 ]
         index: [ 15, 17, 18, 19, 26, 27, 28, 29 ]
      -
         sv_count: 8
         rho: 3.4177192067443634e+000
         alpha: [ 1., 1., 5.9130784806204628e-001,
             3.9733025674830341e-001, -8.5650401034313328e-001,
             -2.2771426608445633e-001, -9.0441982838276058e-001, -1. ]
         index: [ 15, 17, 18, 19, 30, 31, 33, 34 ]
      -
         sv_count: 7
         rho: -9.4881808283243068e+000
         alpha: [ 9.9588570125195097e-001, 3.5016366498122053e-001,
             9.7863141538102227e-001, -1., -1., -2.7600353582676457e-001,
             -4.8677245787431614e-002 ]
         index: [ 15, 18, 19, 35, 36, 38, 39 ]
      -
         sv_count: 8
         rho: -2.1507670838488888e+000
         alpha: [ 2.5226326522125092e-001, 2.7569355605608797e-001, 1.,
             2.2510384503405398e-001, -2.4640744320795946e-001,
             -4.4725368593350640e-001, -5.9399537169926783e-002, -1. ]
         index: [ 15, 16, 17, 19, 41, 42, 43, 44 ]
      -
         sv_count: 7
         rho: -1.8070967528564084e+000
         alpha: [ 2.7542883912928390e-001, 1., 3.4397636129496412e-001,
             -2.2095003821945458e-001, -2.3105769693804776e-001,
             -1.6739746526674545e-001, -1. ]
         index: [ 17, 18, 19, 45, 46, 48, 49 ]
      -
         sv_count: 6
         rho: -6.0184633604634086e-001
         alpha: [ 5.2584071120966847e-001, 8.7708016721159132e-001,
             6.5260766553271765e-001, -8.0525288330085487e-001,
             -2.5027566065312268e-001, -1. ]
         index: [ 20, 22, 24, 25, 26, 27 ]
      -
         sv_count: 7
         rho: -5.0468096154637643e-001
         alpha: [ 5.5184940561099660e-001, 6.7955197192604766e-001,
             6.8282251131224325e-001, -3.4929626219990584e-001,
             -5.0257474686648451e-001, -6.2352879782896914e-002, -1. ]
         index: [ 20, 21, 22, 30, 31, 32, 34 ]
      -
         sv_count: 6
         rho: -2.0876968953449158e+000
         alpha: [ 1., 7.6855752386405657e-002, 1.2592112567206887e-001,
             1.6293425636585618e-001, -8.0686994216903551e-001,
             -5.5884119225527429e-001 ]
         index: [ 20, 21, 22, 23, 35, 36 ]
      -
         sv_count: 5
         rho: -3.4835334899939854e+000
         alpha: [ 6.8193908178540619e-001, 2.3561867553920893e-001,
             -3.8709151424587085e-001, -3.2139864954441699e-001,
             -2.0906759353432738e-001 ]
         index: [ 22, 24, 41, 42, 44 ]
      -
         sv_count: 6
         rho: 1.7564142789222799e+000
         alpha: [ 4.1196073171444032e-002, 1., 4.5005006296505251e-001,
             -3.2072281527025687e-001, -7.6510067101826829e-001,
             -4.0542264984797133e-001 ]
         index: [ 21, 22, 24, 46, 47, 48 ]
      -
         sv_count: 7
         rho: 1.2310641495984123e+000
         alpha: [ 8.6175991773174165e-001, 1.1895768347524337e-002, 1.,
             -9.3999541047718960e-002, -1., -6.0115158494581133e-001,
             -1.7850456008573487e-001 ]
         index: [ 27, 28, 29, 30, 31, 32, 33 ]
      -
         sv_count: 6
         rho: -4.7123174261941205e+000
         alpha: [ 2.4368262789784076e-001, 2.7598172866133631e-002,
             9.8303991468708329e-001, -7.3019295093887793e-001,
             -2.9785688902682422e-001, -2.2627087548535518e-001 ]
         index: [ 25, 26, 27, 35, 38, 39 ]
      -
         sv_count: 6
         rho: -1.4471276956182125e+001
         alpha: [ 7.6118400402208231e-001, 1.0319239915480376e-001, 1.,
             1.3562359682311412e-001, -1., -1. ]
         index: [ 26, 27, 28, 29, 42, 44 ]
      -
         sv_count: 8
         rho: -4.6296240798921995e-001
         alpha: [ 5.9853066120655452e-001, 2.6267698388099603e-001, 1.,
             1., -1., -1., -7.9798175109930447e-001,
             -6.3225893988245921e-002 ]
         index: [ 26, 27, 28, 29, 46, 47, 48, 49 ]
      -
         sv_count: 9
         rho: 1.6599657937166141e+000
         alpha: [ 5.0979068769992988e-002, 1., 2.1374308744696754e-001,
             1., -3.3308595896745025e-001, -6.0102063591004395e-001,
             -3.6317130730882489e-002, -2.9429843060858379e-001, -1. ]
         index: [ 30, 32, 33, 34, 35, 36, 37, 38, 39 ]
      -
         sv_count: 7
         rho: -1.6673211011905145e-001
         alpha: [ 1.0025624721733099e-001, 1., 3.0260179436472701e-001,
             1.9458144727716450e-001, -7.5497222217755233e-001,
             -4.0983072472741855e-001, -4.3263654195425150e-001 ]
         index: [ 30, 31, 33, 34, 41, 42, 44 ]
      -
         sv_count: 8
         rho: -5.6188842958567582e+000
         alpha: [ 1., 1., 5.5939785028969735e-001,
             1.9726134050737355e-002, -8.9837569563837413e-002,
             -7.2660585616051443e-001, -1., -7.6268055861608286e-001 ]
         index: [ 30, 31, 32, 33, 45, 47, 48, 49 ]
      -
         sv_count: 5
         rho: -2.1586911903174574e-001
         alpha: [ 7.0636011953516209e-002, 5.6636503627659696e-001,
             -5.7230265587509332e-001, -3.6278712831269919e-002,
             -2.8419679523750484e-002 ]
         index: [ 37, 38, 41, 43, 44 ]
      -
         sv_count: 6
         rho: 5.4989539952048583e+000
         alpha: [ 4.1095027356384572e-001, 1., 7.8187539394473940e-002,
             -1., -2.7356212880418668e-001, -2.1557568415413270e-001 ]
         index: [ 37, 38, 39, 45, 48, 49 ]
      -
         sv_count: 8
         rho: 6.8638684760108415e+000
         alpha: [ 9.8720030712762397e-001, 5.6685797387623515e-001,
             2.4775411110665996e-001, 1., -1., -7.7072666424793956e-001,
             -1., -3.1085727862579862e-002 ]
         index: [ 40, 41, 42, 44, 45, 46, 48, 49 ]
