%YAML:1.0
my_svm: !!opencv-ml-svm
   svm_type: C_SVC
   kernel: { type:POLY, degree:5.0000000000000000e-001, gamma:1.,
       coef0:1. }
   C: 1.
   term_criteria: { epsilon:2.2204460492503131e-016, iterations:1000 }
   var_all: 16
   var_count: 16
   class_count: 26
   class_labels: !!opencv-matrix
      rows: 1
      cols: 26
      dt: i
      data: [ 0, 1, 2, 3, 4, 5, 6, 7, 8, 9, 10, 11, 12, 13, 14, 15, 16,
          17, 18, 19, 20, 21, 22, 23, 24, 25 ]
   sv_total: 130
   support_vectors:
      - [ 0., 18., 0., 0., 0., 17., 0., 0., 7., 6., 11., 0., 17., 0.,
          11., 0. ]
      - [ 0., 17., 0., 0., 0., 13., 5., 0., 8., 0., 20., 0., 15., 0.,
          17., 0. ]
      - [ 0., 18., 0., 0., 0., 17., 0., 0., 0., 17., 0., 0., 18., 14.,
          0., 0. ]
      - [ 0., 18., 0., 0., 0., 12., 5., 0., 13., 0., 17., 0., 20., 0.,
          14., 0. ]
      - [ 0., 17., 0., 0., 0., 14., 3., 0., 8., 2., 17., 0., 18., 0.,
          13., 0. ]
      - [ 2., 22., 0., 0., 0., 11., 14., 0., 15., 4., 22., 0., 20., 0.,
          17., 2. ]
      - [ 0., 3., 13., 0., 0., 0., 17., 0., 0., 0., 17., 0., 14., 3.,
          11., 5. ]
      - [ 0., 17., 0., 0., 0., 7., 12., 0., 11., 12., 9., 0., 18., 0.,
          14., 0. ]
      - [ 0., 18., 0., 0., 0., 11., 5., 0., 6., 1., 16., 0., 21., 0.,
          15., 0. ]
      - [ 0., 12., 9., 0., 0., 0., 17., 0., 3., 11., 8., 9., 12., 0., 0.,
          17. ]
      - [ 0., 17., 0., 0., 0., 3., 13., 0., 0., 5., 19., 0., 9., 2., 3.,
          9. ]
      - [ 0., 18., 0., 0., 0., 4., 15., 0., 10., 2., 21., 0., 21., 0.,
          3., 14. ]
      - [ 0., 18., 0., 0., 0., 17., 0., 0., 5., 13., 3., 0., 17., 0., 9.,
          0. ]
      - [ 0., 19., 0., 0., 0., 14., 7., 0., 12., 0., 18., 0., 17., 0.,
          14., 0. ]
      - [ 3., 13., 0., 0., 0., 14., 5., 0., 5., 7., 19., 0., 17., 0.,
          14., 0. ]
      - [ 5., 16., 0., 0., 0., 5., 16., 0., 6., 12., 17., 0., 11., 6.,
          2., 0. ]
      - [ 0., 17., 0., 0., 0., 2., 16., 0., 5., 4., 17., 0., 19., 0., 4.,
          0. ]
      - [ 0., 19., 0., 0., 0., 3., 16., 0., 10., 3., 17., 0., 17., 0.,
          6., 0. ]
      - [ 0., 16., 3., 0., 0., 0., 18., 0., 3., 6., 10., 12., 18., 0.,
          3., 6. ]
      - [ 0., 7., 12., 0., 0., 0., 18., 0., 7., 0., 12., 7., 18., 0., 0.,
          14. ]
      - [ 0., 0., 16., 0., 0., 0., 17., 0., 5., 4., 17., 0., 15., 1.,
          15., 0. ]
      - [ 0., 0., 19., 0., 0., 0., 14., 2., 0., 9., 10., 7., 0., 11.,
          11., 5. ]
      - [ 0., 1., 15., 0., 0., 0., 16., 0., 2., 3., 14., 6., 7., 10.,
          16., 0. ]
      - [ 0., 6., 10., 0., 0., 0., 18., 0., 3., 5., 14., 6., 15., 1.,
          14., 0. ]
      - [ 0., 0., 14., 0., 2., 0., 16., 0., 1., 10., 16., 0., 6., 3.,
          16., 0. ]
      - [ 0., 0., 14., 0., 0., 0., 8., 0., 6., 3., 9., 0., 18., 0., 14.,
          0. ]
      - [ 0., 1., 9., 0., 0., 0., 14., 2., 9., 2., 12., 4., 17., 0., 10.,
          0. ]
      - [ 0., 0., 16., 0., 0., 0., 16., 0., 6., 3., 15., 2., 18., 0.,
          10., 0. ]
      - [ 0., 0., 16., 0., 0., 0., 16., 0., 1., 9., 11., 7., 11., 1.,
          13., 3. ]
      - [ 0., 0., 14., 0., 3., 0., 12., 5., 3., 10., 14., 2., 15., 0.,
          12., 1. ]
      - [ 0., 0., 8., 0., 0., 0., 5., 3., 1., 5., 7., 1., 8., 0., 5., 2. ]
      - [ 0., 0., 9., 0., 2., 0., 8., 1., 5., 2., 8., 6., 12., 0., 8.,
          0. ]
      - [ 0., 0., 16., 0., 0., 0., 16., 0., 6., 0., 10., 8., 18., 0.,
          14., 3. ]
      - [ 0., 3., 9., 0., 3., 4., 8., 4., 12., 0., 8., 0., 0., 0., 3.,
          0. ]
      - [ 0., 3., 8., 0., 0., 0., 10., 3., 2., 7., 14., 1., 12., 0., 16.,
          0. ]
      - [ 0., 6., 10., 0., 0., 0., 14., 5., 9., 2., 18., 1., 5., 0., 8.,
          0. ]
      - [ 0., 1., 15., 0., 0., 0., 16., 3., 7., 6., 15., 3., 6., 0., 3.,
          7. ]
      - [ 0., 3., 6., 0., 0., 0., 8., 6., 13., 3., 15., 0., 9., 0., 14.,
          0. ]
      - [ 0., 0., 13., 3., 0., 3., 8., 8., 4., 4., 3., 12., 9., 7., 0.,
          10. ]
      - [ 0., 0., 15., 0., 2., 0., 14., 2., 7., 2., 12., 3., 9., 0., 12.,
          0. ]
      - [ 0., 10., 1., 0., 0., 14., 9., 0., 4., 9., 15., 0., 15., 0.,
          12., 0. ]
      - [ 0., 16., 0., 0., 0., 11., 6., 0., 0., 4., 13., 0., 6., 4., 14.,
          0. ]
      - [ 0., 16., 0., 0., 0., 5., 11., 0., 2., 1., 16., 0., 11., 0., 9.,
          0. ]
      - [ 0., 14., 0., 0., 0., 8., 8., 0., 4., 2., 12., 0., 13., 0., 9.,
          0. ]
      - [ 0., 3., 14., 0., 0., 0., 16., 0., 7., 5., 11., 10., 18., 0.,
          0., 4. ]
      - [ 0., 3., 16., 0., 0., 0., 20., 0., 4., 6., 11., 10., 20., 0.,
          0., 10. ]
      - [ 0., 1., 17., 0., 0., 0., 17., 0., 3., 0., 24., 0., 18., 0., 9.,
          7. ]
      - [ 0., 9., 7., 0., 0., 0., 17., 0., 5., 5., 18., 0., 19., 0., 11.,
          0. ]
      - [ 1., 22., 0., 0., 15., 13., 7., 0., 15., 4., 15., 0., 13., 0.,
          12., 0. ]
      - [ 0., 16., 0., 0., 0., 12., 5., 0., 3., 5., 16., 0., 8., 0., 16.,
          0. ]
      - [ 0., 22., 0., 0., 13., 16., 4., 0., 10., 8., 16., 0., 6., 0.,
          12., 0. ]
      - [ 0., 9., 0., 0., 0., 2., 8., 0., 8., 0., 10., 0., 13., 0., 16.,
          0. ]
      - [ 0., 9., 7., 0., 0., 0., 18., 0., 10., 3., 20., 0., 11., 0., 7.,
          9. ]
      - [ 0., 1., 7., 0., 0., 0., 8., 0., 4., 0., 8., 0., 8., 0., 1., 5. ]
      - [ 0., 3., 14., 0., 0., 16., 16., 0., 9., 11., 19., 0., 17., 0.,
          7., 13. ]
      - [ 0., 1., 17., 0., 0., 0., 14., 0., 5., 1., 15., 3., 19., 0., 3.,
          3. ]
      - [ 0., 0., 22., 8., 0., 5., 6., 30., 0., 0., 0., 11., 0., 0., 0.,
          0. ]
      - [ 0., 10., 9., 0., 0., 0., 18., 0., 1., 4., 23., 0., 16., 0.,
          11., 7. ]
      - [ 0., 4., 17., 0., 0., 16., 16., 0., 5., 13., 18., 1., 18., 0.,
          3., 6. ]
      - [ 0., 12., 14., 0., 0., 18., 17., 0., 14., 6., 16., 0., 19., 0.,
          7., 4. ]
      - [ 0., 0., 16., 0., 0., 0., 16., 0., 9., 4., 14., 0., 18., 0.,
          15., 0. ]
      - [ 0., 10., 8., 0., 0., 0., 16., 0., 5., 3., 22., 0., 17., 0.,
          22., 0. ]
      - [ 0., 0., 20., 0., 0., 0., 16., 0., 5., 6., 14., 0., 19., 0., 5.,
          0. ]
      - [ 0., 8., 8., 0., 0., 8., 8., 0., 5., 6., 9., 0., 18., 0., 14.,
          0. ]
      - [ 0., 16., 0., 0., 0., 16., 0., 0., 6., 15., 1., 0., 9., 7., 5.,
          0. ]
      - [ 0., 5., 11., 0., 0., 10., 5., 0., 15., 20., 2., 0., 5., 9., 7.,
          0. ]
      - [ 0., 16., 0., 0., 0., 13., 3., 0., 0., 3., 17., 0., 18., 0.,
          17., 0. ]
      - [ 0., 11., 0., 0., 0., 9., 0., 0., 8., 11., 0., 0., 15., 3., 4.,
          0. ]
      - [ 0., 16., 0., 0., 3., 27., 0., 0., 15., 14., 5., 0., 17., 10.,
          0., 0. ]
      - [ 0., 0., 12., 0., 0., 0., 16., 0., 8., 3., 14., 0., 11., 0., 8.,
          0. ]
      - [ 0., 9., 7., 0., 0., 15., 1., 0., 5., 15., 5., 0., 8., 6., 6.,
          0. ]
      - [ 0., 0., 23., 0., 0., 0., 23., 0., 11., 3., 18., 0., 18., 0.,
          17., 0. ]
      - [ 0., 16., 0., 0., 0., 17., 1., 0., 11., 15., 1., 0., 8., 8.,
          16., 0. ]
      - [ 0., 16., 0., 0., 0., 16., 3., 0., 8., 13., 8., 0., 15., 5.,
          13., 0. ]
      - [ 0., 0., 18., 0., 0., 0., 17., 0., 7., 6., 17., 0., 17., 0.,
          11., 0. ]
      - [ 0., 0., 19., 0., 0., 2., 21., 0., 18., 2., 24., 0., 9., 0.,
          21., 0. ]
      - [ 0., 0., 18., 0., 0., 0., 18., 0., 7., 7., 23., 0., 22., 0.,
          14., 0. ]
      - [ 0., 0., 19., 0., 0., 0., 17., 1., 9., 6., 15., 3., 22., 0., 7.,
          3. ]
      - [ 0., 13., 7., 0., 1., 22., 0., 0., 11., 13., 4., 0., 20., 2.,
          7., 0. ]
      - [ 0., 0., 24., 0., 0., 6., 14., 0., 15., 11., 12., 0., 15., 0.,
          24., 0. ]
      - [ 8., 17., 2., 0., 20., 0., 17., 0., 16., 15., 16., 0., 13., 0.,
          8., 0. ]
      - [ 0., 0., 0., 0., 0., 0., 0., 0., 0., 0., 0., 0., 0., 0., 0., 0. ]
      - [ 11., 18., 0., 0., 22., 4., 15., 0., 20., 4., 17., 0., 17., 0.,
          14., 0. ]
      - [ 2., 20., 3., 0., 0., 0., 25., 0., 4., 8., 21., 4., 23., 0., 1.,
          16. ]
      - [ 0., 0., 0., 0., 0., 0., 0., 0., 0., 0., 0., 0., 0., 0., 0., 0. ]
      - [ 9., 21., 1., 0., 23., 3., 16., 0., 23., 6., 17., 0., 17., 0.,
          14., 0. ]
      - [ 8., 19., 0., 0., 20., 6., 11., 0., 19., 3., 24., 0., 16., 0.,
          20., 0. ]
      - [ 0., 0., 0., 0., 0., 0., 0., 0., 0., 0., 0., 0., 0., 0., 0., 0. ]
      - [ 64., 64., 64., 64., 64., 64., 64., 64., 64., 64., 64., 64.,
          64., 64., 64., 64. ]
      - [ 9., 22., 5., 0., 20., 3., 18., 0., 25., 6., 24., 0., 22., 0.,
          9., 0. ]
      - [ 7., 20., 2., 0., 17., 4., 18., 0., 21., 2., 17., 0., 6., 0.,
          17., 0. ]
      - [ 13., 18., 0., 0., 17., 17., 1., 0., 21., 3., 16., 0., 16., 0.,
          11., 0. ]
      - [ 11., 15., 0., 0., 15., 19., 0., 0., 12., 18., 4., 0., 9., 5.,
          3., 0. ]
      - [ 64., 64., 64., 64., 64., 64., 64., 64., 64., 64., 64., 64.,
          64., 64., 64., 64. ]
      - [ 13., 12., 0., 0., 17., 17., 0., 0., 21., 19., 0., 0., 18., 3.,
          8., 0. ]
      - [ 14., 19., 8., 0., 24., 0., 23., 0., 19., 0., 16., 0., 26., 0.,
          16., 0. ]
      - [ 11., 17., 2., 0., 23., 3., 14., 0., 24., 0., 21., 0., 24., 0.,
          14., 0. ]
      - [ 14., 17., 0., 0., 16., 4., 14., 0., 25., 2., 16., 0., 12., 0.,
          16., 0. ]
      - [ 9., 17., 3., 0., 22., 4., 13., 0., 21., 4., 13., 0., 16., 0.,
          16., 0. ]
      - [ 0., 0., 0., 0., 0., 0., 0., 0., 0., 0., 0., 0., 0., 0., 0., 0. ]
      - [ 0., 13., 7., 0., 0., 2., 14., 0., 0., 0., 10., 0., 2., 5., 9.,
          0. ]
      - [ 0., 5., 14., 0., 0., 0., 17., 0., 0., 0., 16., 0., 0., 5., 14.,
          0. ]
      - [ 0., 10., 9., 0., 0., 0., 16., 0., 0., 0., 17., 0., 0., 3., 18.,
          0. ]
      - [ 0., 0., 20., 0., 0., 0., 16., 0., 0., 0., 13., 10., 0., 0.,
          14., 10. ]
      - [ 0., 15., 1., 0., 0., 14., 3., 0., 0., 3., 16., 0., 0., 5., 15.,
          0. ]
      - [ 3., 15., 0., 0., 0., 9., 10., 0., 0., 0., 17., 0., 0., 3., 16.,
          0. ]
      - [ 0., 3., 14., 0., 0., 0., 18., 0., 0., 0., 10., 9., 0., 3., 14.,
          3. ]
      - [ 3., 13., 0., 0., 0., 12., 0., 0., 0., 16., 0., 0., 2., 15., 0.,
          0. ]
      - [ 0., 17., 3., 0., 0., 9., 9., 0., 0., 10., 9., 0., 0., 16., 3.,
          0. ]
      - [ 0., 4., 19., 0., 0., 0., 22., 0., 0., 0., 18., 0., 0., 3., 16.,
          0. ]
      - [ 0., 13., 5., 0., 0., 7., 15., 0., 0., 0., 17., 0., 9., 4., 8.,
          0. ]
      - [ 7., 16., 0., 0., 16., 16., 0., 0., 2., 5., 14., 0., 1., 8.,
          15., 0. ]
      - [ 10., 21., 0., 0., 16., 20., 1., 0., 21., 1., 19., 0., 9., 12.,
          8., 0. ]
      - [ 0., 22., 0., 0., 0., 18., 0., 0., 0., 10., 0., 0., 3., 16., 0.,
          0. ]
      - [ 0., 5., 14., 0., 0., 9., 12., 0., 0., 3., 19., 0., 0., 12., 7.,
          0. ]
      - [ 0., 18., 0., 0., 0., 17., 0., 0., 0., 13., 0., 0., 5., 15., 0.,
          0. ]
      - [ 3., 16., 0., 0., 0., 19., 0., 0., 0., 17., 0., 0., 7., 11., 0.,
          0. ]
      - [ 0., 10., 0., 0., 0., 17., 0., 0., 0., 24., 0., 0., 5., 17., 0.,
          0. ]
      - [ 0., 17., 0., 0., 0., 14., 0., 0., 0., 12., 0., 0., 7., 13., 0.,
          0. ]
      - [ 0., 18., 0., 0., 0., 17., 0., 0., 0., 16., 0., 0., 10., 10.,
          0., 0. ]
      - [ 0., 16., 0., 0., 0., 18., 2., 0., 0., 2., 15., 0., 0., 12., 4.,
          0. ]
      - [ 0., 18., 0., 0., 0., 17., 2., 0., 0., 0., 17., 0., 3., 6., 12.,
          0. ]
      - [ 0., 17., 0., 0., 0., 18., 0., 0., 0., 4., 14., 0., 1., 11., 7.,
          0. ]
      - [ 0., 17., 1., 0., 0., 8., 9., 0., 0., 0., 17., 0., 3., 10., 8.,
          0. ]
      - [ 0., 8., 0., 0., 0., 4., 4., 0., 0., 0., 8., 0., 2., 0., 7., 0. ]
      - [ 0., 16., 0., 0., 0., 14., 1., 0., 0., 0., 16., 0., 3., 5., 6.,
          0. ]
      - [ 3., 8., 8., 0., 0., 3., 17., 0., 0., 0., 18., 0., 0., 7., 9.,
          0. ]
      - [ 1., 6., 10., 0., 0., 3., 18., 0., 13., 4., 16., 0., 3., 7., 9.,
          0. ]
      - [ 2., 16., 0., 0., 0., 17., 0., 0., 0., 13., 7., 0., 0., 7., 9.,
          0. ]
      - [ 0., 8., 0., 0., 0., 7., 1., 0., 0., 0., 8., 0., 1., 3., 4., 0. ]
   decision_functions:
      -
         sv_count: 6
         rho: -4.2708107226696441e+000
         alpha: [ 9.9372369828485174e-001, 8.4265773720212794e-002, 1.,
             -1., -7.7989472005064828e-002, -1. ]
         index: [ 1, 2, 3, 5, 7, 8 ]
      -
         sv_count: 10
         rho: 5.4349647778892111e-002
         alpha: [ 1.1129552309371497e-001, 1., 6.6111442639823548e-001,
             6.1828437974322503e-001, 9.9139091739102092e-001,
             -1.4036428540037826e-001, -2.4172096122581624e-001, -1.,
             -1., -1. ]
         index: [ 0, 1, 2, 3, 4, 10, 11, 12, 13, 14 ]
      -
         sv_count: 3
         rho: 4.4210708898672629e-001
         alpha: [ 2.5126115320368590e-002, 4.9045762879120619e-001,
             -5.1558374411157437e-001 ]
         index: [ 2, 3, 17 ]
      -
         sv_count: 4
         rho: 3.4957923014928199e-001
         alpha: [ 1.8329412774256187e-001, 8.3540632013281522e-003,
             5.8632864352538682e-003, -1.9751147737914382e-001 ]
         index: [ 1, 2, 3, 23 ]
      -
         sv_count: 3
         rho: 9.1177217285887968e-001
         alpha: [ 2.0078831991577945e-001, -1.8162172299087498e-003,
             -1.9897210268587071e-001 ]
         index: [ 3, 25, 26 ]
      -
         sv_count: 4
         rho: 1.4356342477001665e+000
         alpha: [ 2.3211461833792860e-001, 5.4946686145638671e-003,
             -4.2017988859093879e-002, -1.9559129809338557e-001 ]
         index: [ 1, 2, 33, 34 ]
      -
         sv_count: 3
         rho: 1.2281787827071078e+000
         alpha: [ 1.5946949855187706e-001, 9.3847607615723472e-002,
             -2.5331710616760050e-001 ]
         index: [ 1, 3, 37 ]
      -
         sv_count: 6
         rho: 5.3068881597014688e+000
         alpha: [ 1., 3.7388311679269265e-001, 3.8576683731926203e-001,
             -6.3915132062031510e-001, -3.8013990327553132e-001,
             -7.4035873021610854e-001 ]
         index: [ 1, 2, 4, 40, 41, 43 ]
      -
         sv_count: 7
         rho: 2.5768936876002480e+000
         alpha: [ 1., 1.5777778450599839e-001, 4.2159686417847470e-001,
             -6.4225767051749273e-003, -1.8237272103410987e-001,
             -3.9057935094518770e-001, -1. ]
         index: [ 1, 2, 4, 45, 47, 48, 49 ]
      -
         sv_count: 6
         rho: 3.9984179507286264e+000
         alpha: [ 1., 1.3724451848722610e-001, 1.6008657942772742e-001,
             -5.5622722952908943e-001, -6.1307419190359069e-001,
             -1.2802967648227345e-001 ]
         index: [ 1, 2, 3, 50, 51, 54 ]
      -
         sv_count: 5
         rho: -5.8302169783848523e-001
         alpha: [ 7.4870760963608202e-002, 3.4597377722422308e-002,
             2.4290637485074104e-001, -8.9859933032348696e-002,
             -2.6251458050442300e-001 ]
         index: [ 1, 2, 3, 57, 59 ]
      -
         sv_count: 4
         rho: 3.4743057688136587e+000
         alpha: [ 8.4665728163609111e-001, 6.7476331709747539e-001,
             -5.2142059873356661e-001, -1. ]
         index: [ 1, 2, 61, 64 ]
      -
         sv_count: 6
         rho: 3.1063507335653622e+000
         alpha: [ 1., 1., 8.4595206374094944e-001, -1.,
             -8.7038051944398798e-001, -9.7557154429696125e-001 ]
         index: [ 0, 2, 3, 66, 67, 68 ]
      -
         sv_count: 4
         rho: -9.4140556981749210e-002
         alpha: [ 6.2995984453828080e-001, 7.1361057727701394e-001,
             -3.4357042181529446e-001, -1. ]
         index: [ 1, 2, 70, 73 ]
      -
         sv_count: 4
         rho: -1.8107202773341020e+000
         alpha: [ 5.7825678714650541e-001, 2.9053083024894050e-001,
             -5.2613977203273413e-003, -8.6352621967511833e-001 ]
         index: [ 0, 2, 76, 78 ]
      -
         sv_count: 5
         rho: 1.0000000000000002e+000
         alpha: [ 2.4956860204745787e-002, 2.8918620415710145e-001,
             -5.1604832443711453e-002, -1.6555093437106405e-001,
             -9.6987297547065532e-002 ]
         index: [ 2, 3, 81, 82, 83 ]
      -
         sv_count: 5
         rho: 1.
         alpha: [ 1.9567447471944485e-001, 1.9283882335240166e-001,
             -3.0654820206563321e-001, -7.8459261185595319e-002,
             -3.5058348206177601e-003 ]
         index: [ 1, 3, 86, 87, 88 ]
      -
         sv_count: 3
         rho: -8.7487269195206629e-001
         alpha: [ 3.1037619393839588e-001, -8.3308752038747644e-002,
             -2.2706744189964831e-001 ]
         index: [ 3, 90, 91 ]
      -
         sv_count: 4
         rho: 9.9999999999999978e-001
         alpha: [ 2.9183233002183900e-001, -2.0938889891736859e-001,
             -1.6517965982618503e-002, -6.5925465121855251e-002 ]
         index: [ 3, 96, 97, 99 ]
      -
         sv_count: 4
         rho: 1.4363402509299874e+000
         alpha: [ 3.9121783115250530e-001, 7.1514262143344512e-002,
             -5.2597981703908732e-002, -4.1013411159196039e-001 ]
         index: [ 1, 2, 100, 104 ]
      -
         sv_count: 3
         rho: 2.2059448247086273e+000
         alpha: [ 4.6772063314219520e-001, -3.3595033825721625e-003,
             -4.6436112975963872e-001 ]
         index: [ 2, 105, 107 ]
      -
         sv_count: 5
         rho: 1.3960150118036470e+000
         alpha: [ 4.9873067286205947e-001, 3.1212486607870721e-001,
             -3.7844987897436327e-001, -1.9926551133732504e-001,
             -2.3314014862907800e-001 ]
         index: [ 1, 2, 110, 112, 113 ]
      -
         sv_count: 4
         rho: 2.5809300702085753e+000
         alpha: [ 1.6078850424408592e-001, 1., -1.6078850424408592e-001,
             -1. ]
         index: [ 0, 2, 118, 119 ]
      -
         sv_count: 5
         rho: 1.9012171881098172e+000
         alpha: [ 4.9666735596564648e-001, 1.1636497956686159e-001,
             -4.9702929099644366e-001, -6.1678126917352003e-003,
             -1.0983523184432500e-001 ]
         index: [ 1, 2, 121, 123, 124 ]
      -
         sv_count: 5
         rho: 2.4497931626895166e+000
         alpha: [ 4.3392624296633298e-001, 1.8309907608210932e-001,
             -3.6646513697006189e-001, -1.0896577264292381e-001,
             -1.4159440943547405e-001 ]
         index: [ 1, 2, 125, 127, 128 ]
      -
         sv_count: 9
         rho: 2.2270695247437122e+000
         alpha: [ 1., 7.8557211654126449e-002, 1.,
             6.1435754905067119e-001, -2.1751762104348221e-001, -1.,
             -4.0022725881585886e-001, -7.0405465873346595e-001,
             -3.7111522211201226e-001 ]
         index: [ 5, 7, 8, 9, 10, 11, 12, 13, 14 ]
      -
         sv_count: 7
         rho: 1.4641111850057511e+000
         alpha: [ 6.6825051481568021e-001, 5.0365606551271969e-001, 1.,
             -6.4152511898424713e-001, -2.3226033061465409e-001,
             -2.9812113072949825e-001, -1. ]
         index: [ 5, 6, 9, 15, 17, 18, 19 ]
      -
         sv_count: 4
         rho: -1.5858675615266180e+000
         alpha: [ 1., 4.2158953613755695e-001, -4.2158953613755695e-001,
             -1. ]
         index: [ 6, 7, 20, 23 ]
      -
         sv_count: 7
         rho: -2.9988046001613783e-002
         alpha: [ 1., 2.3856121859489163e-001, 7.2290226353126038e-004,
             -3.7914507561343957e-001, -5.3909079685207406e-001,
             -2.6011559406695123e-001, -6.0932654325957909e-002 ]
         index: [ 6, 7, 9, 26, 27, 28, 29 ]
      -
         sv_count: 5
         rho: 2.1804762032714571e+000
         alpha: [ 1., 3.9727884483155324e-001, -4.4321051836710151e-001,
             -9.6758734180908468e-002, -8.5730959228354320e-001 ]
         index: [ 6, 7, 32, 33, 34 ]
      -
         sv_count: 6
         rho: 1.4869964078326543e+000
         alpha: [ 6.7591175813488324e-001, 1.8490341601073249e-001,
             -5.4054098236309245e-002, -4.1292959303446525e-001,
             -3.9994185941531708e-002, -3.5383729693330951e-001 ]
         index: [ 6, 9, 35, 36, 38, 39 ]
      -
         sv_count: 9
         rho: 6.3395161278587606e+000
         alpha: [ 1., 7.3481829969490486e-001, 1.,
             5.2387029044284439e-001, -6.8968646122273158e-001,
             -4.5275872475722795e-001, -9.7689600775696739e-001,
             -1.3934739640082228e-001, -1. ]
         index: [ 6, 7, 8, 9, 40, 41, 42, 43, 44 ]
      -
         sv_count: 10
         rho: 2.1605664387107151e+000
         alpha: [ 4.6081903823514420e-001, 1., 6.0679497184273978e-001,
             8.9504365267465980e-001, 7.0297617916522859e-001, -1.,
             -7.6351112428256526e-002, -1., -5.8928272948951621e-001,
             -1. ]
         index: [ 5, 6, 7, 8, 9, 45, 46, 47, 48, 49 ]
      -
         sv_count: 8
         rho: 5.7106906980269372e+000
         alpha: [ 1., 1., 3.9923588650412573e-001,
             3.7186696943871150e-001, -1.1653674791338137e-001, -1., -1.,
             -6.5456610802945603e-001 ]
         index: [ 5, 6, 7, 9, 50, 51, 52, 54 ]
      -
         sv_count: 6
         rho: -3.0962349962286222e+000
         alpha: [ 6.2244307836502810e-001, 1., 3.2864062563561669e-001,
             -3.4491321031212163e-001, -1., -6.0617049368852338e-001 ]
         index: [ 5, 6, 9, 55, 57, 59 ]
      -
         sv_count: 7
         rho: 1.6089601939455607e+000
         alpha: [ 1., 1., 4.8039636650595813e-001,
             -7.6480359850928004e-001, -1., -3.5324930102257471e-002,
             -6.8026783789441958e-001 ]
         index: [ 6, 7, 8, 60, 61, 62, 64 ]
      -
         sv_count: 6
         rho: 4.0821680724694733e+000
         alpha: [ 9.1773694903628522e-001, 5.5136006529318982e-001,
             6.9782902701197147e-001, -1., -1.6692604134147193e-001, -1. ]
         index: [ 6, 7, 8, 66, 67, 69 ]
      -
         sv_count: 6
         rho: -1.0343368030101727e+000
         alpha: [ 8.8645249248847946e-001, 1., 6.2805284101344699e-002,
             -4.4109854372545826e-001, -8.7006911467756720e-001,
             -6.3809011818680494e-001 ]
         index: [ 6, 7, 8, 71, 73, 74 ]
      -
         sv_count: 6
         rho: -3.0168956999801844e+000
         alpha: [ 6.0406084368699701e-002, 5.7632783337923477e-001,
             3.2749454670955142e-001, -1.5216500777192210e-001,
             -5.6646019323690178e-001, -2.4560326344866262e-001 ]
         index: [ 5, 6, 7, 75, 76, 78 ]
      -
         sv_count: 8
         rho: 9.9999999999999900e-001
         alpha: [ 3.1891178337767412e-001, 1.2614817109088630e-001,
             2.1932938495570584e-001, 8.0372064877930760e-001,
             -4.2949426703187916e-002, -2.6139090956859024e-001,
             -1.6376965193181639e-001, -1. ]
         index: [ 5, 6, 8, 9, 80, 81, 82, 83 ]
      -
         sv_count: 7
         rho: 9.9999999999999911e-001
         alpha: [ 1.6735194698526457e-001, 7.3488735684380233e-002,
             1.3635071752100852e-001, 1.1233587715508306e-001,
             -1.7557840872628289e-001, -5.2819248863451906e-002,
             -2.6112961975600163e-001 ]
         index: [ 5, 6, 7, 9, 87, 88, 89 ]
      -
         sv_count: 5
         rho: 2.0166473053851885e-001
         alpha: [ 3.0809456936981489e-001, 2.4761250879806403e-002,
             -1.9525202186191806e-001, -1.3638209102531551e-001,
             -1.2217073623877236e-003 ]
         index: [ 5, 7, 90, 91, 93 ]
      -
         sv_count: 5
         rho: 1.0000000000000009e+000
         alpha: [ 1.6392178633319129e-001, 2.0193274168228792e-001,
             4.8823355953818365e-003, -2.5022530080401523e-001,
             -1.2051156280682107e-001 ]
         index: [ 6, 7, 8, 95, 99 ]
      -
         sv_count: 4
         rho: 1.3803116055514237e+000
         alpha: [ 4.8703865260914592e-001, 1.1813196159394439e-001,
             -3.0726829606873612e-001, -2.9790231813435430e-001 ]
         index: [ 6, 9, 100, 103 ]
      -
         sv_count: 5
         rho: 4.1792643721211381e-001
         alpha: [ 5.2740819461427524e-001, 1.5370706358255010e-002,
             -3.4241114284890461e-002, -6.4436353160739784e-002,
             -4.4410143352690018e-001 ]
         index: [ 6, 7, 106, 107, 109 ]
      -
         sv_count: 6
         rho: 1.4759020065946169e+000
         alpha: [ 1.4787319829240961e-001, 4.9848419212162037e-001,
             2.9710547869957410e-001, 4.3392483185665680e-002,
             -9.8013962102814678e-001, -6.7157312711369757e-003 ]
         index: [ 5, 6, 8, 9, 110, 112 ]
      -
         sv_count: 4
         rho: 1.4260498659650106e-001
         alpha: [ 1.1589098839106431e-001, 1.8668636833697502e-002,
             2.3533831338504594e-002, -1.5809345656326640e-001 ]
         index: [ 7, 8, 9, 119 ]
      -
         sv_count: 5
         rho: 2.0849900655698499e+000
         alpha: [ 1.0565715899054241e-001, 2.3145471476289425e-001,
             3.3357635137379077e-002, -1.9262385430160775e-001,
             -1.7784565458920792e-001 ]
         index: [ 6, 8, 9, 123, 124 ]
      -
         sv_count: 5
         rho: 1.8164433144699355e+000
         alpha: [ 1.7362840853391948e-001, 2.8218782152511562e-001,
             7.7550130784201199e-002, -1.4487197708800825e-001,
             -3.8849438375522816e-001 ]
         index: [ 5, 6, 7, 125, 127 ]
      -
         sv_count: 8
         rho: 1.2126789169037628e+000
         alpha: [ 4.4844897615876589e-001, 6.5116729538187113e-001,
             1.8932644968362718e-002, 3.6989688655557124e-001,
             -1.6772739473207807e-001, -6.1113788011324735e-002, -1.,
             -2.5960462032116854e-001 ]
         index: [ 10, 11, 12, 13, 15, 16, 17, 19 ]
      -
         sv_count: 4
         rho: -1.1587518446224966e-001
         alpha: [ 1.1466533016031751e-001, 2.8953425846554789e-002,
             1.3689004715949696e-001, -2.8050880316636928e-001 ]
         index: [ 10, 11, 14, 23 ]
      -
         sv_count: 3
         rho: 8.3828993567382026e-001
         alpha: [ 1.2215835323025680e-001, 1.2583677375061453e-001,
             -2.4799512698087145e-001 ]
         index: [ 11, 14, 26 ]
      -
         sv_count: 4
         rho: 1.0448104293570544e+000
         alpha: [ 1.0204413238445854e-001, 2.1426981382269775e-001,
             -3.7567709013768949e-002, -2.7874623719337854e-001 ]
         index: [ 10, 14, 33, 34 ]
      -
         sv_count: 5
         rho: 5.7804136296898512e-001
         alpha: [ 1.6109962765399832e-001, 1.0366658386221586e-001,
             1.5706808556072621e-002, -2.3348827892963719e-001,
             -4.6984741142651130e-002 ]
         index: [ 10, 13, 14, 35, 37 ]
      -
         sv_count: 8
         rho: 6.3278142334018925e+000
         alpha: [ 1., 4.0270205755613808e-001, 7.9210502840121944e-001,
             1., -1., -2.9801709070002869e-001, -8.9678999525730452e-001,
             -1. ]
         index: [ 10, 12, 13, 14, 40, 41, 42, 43 ]
      -
         sv_count: 8
         rho: 1.9613635095229256e+000
         alpha: [ 6.1675248444167940e-001, 1.0824708639799123e-001,
             8.4565010585611899e-001, 6.7965673238628388e-001,
             -2.0610779084124151e-001, -4.2598684900162564e-001,
             -6.1821176923920584e-001, -1. ]
         index: [ 10, 12, 13, 14, 45, 47, 48, 49 ]
      -
         sv_count: 7
         rho: 3.2272669992947765e+000
         alpha: [ 3.6755814562895706e-001, 1.7383459993069661e-001,
             7.7283239039634011e-001, 4.6674377314718735e-001,
             -7.1132021396096534e-001, -7.1241025007960412e-001,
             -3.5723844506261943e-001 ]
         index: [ 10, 12, 13, 14, 50, 51, 54 ]
      -
         sv_count: 5
         rho: -9.8561583749136139e-001
         alpha: [ 1.4588849648012123e-001, 3.3190762504913379e-001,
             2.7424449155305786e-001, -4.6750692822428286e-001,
             -2.8453368485803004e-001 ]
         index: [ 10, 11, 14, 57, 59 ]
      -
         sv_count: 6
         rho: 2.3915915402875347e+000
         alpha: [ 4.0300981083026255e-001, 7.0442272449192134e-001,
             3.5389422448401028e-002, 7.0321227982431356e-001,
             -8.4603423759489871e-001, -1. ]
         index: [ 10, 12, 13, 14, 61, 64 ]
      -
         sv_count: 8
         rho: 3.5337258715400321e+000
         alpha: [ 1.3356562317034126e-001, 1., 2.7872189988330437e-001,
             8.3224479272945273e-001, -1., -4.6187078238678581e-001,
             -5.9070113263317248e-001, -1.9196040076314042e-001 ]
         index: [ 11, 12, 13, 14, 66, 67, 68, 69 ]
      -
         sv_count: 6
         rho: -7.3010191545395510e-003
         alpha: [ 4.0238792958432835e-002, 8.6813745048132629e-001,
             3.7974145113311814e-001, -2.5334515034729782e-001, -1.,
             -3.4772544225579259e-002 ]
         index: [ 10, 12, 14, 70, 73, 74 ]
      -
         sv_count: 3
         rho: -1.9285952685873202e+000
         alpha: [ 9.3137721275727270e-001, 5.6908470278680234e-002,
             -9.8828568303595299e-001 ]
         index: [ 12, 13, 78 ]
      -
         sv_count: 6
         rho: 9.9999999999999933e-001
         alpha: [ 5.5956423289571244e-001, 8.0446224354717388e-001,
             1.1845020985719240e-002, -1.8216184087572146e-001,
             -1.9370965655290801e-001, -1. ]
         index: [ 10, 11, 12, 81, 82, 83 ]
      -
         sv_count: 7
         rho: 1.
         alpha: [ 1.1293967343265462e-001, 2.2381169405127818e-001,
             8.9334580396840751e-002, -2.5700816718090064e-001,
             -1.1919183118920172e-001, -1.9872183230944741e-002,
             -3.0013766279726690e-002 ]
         index: [ 10, 13, 14, 86, 87, 88, 89 ]
      -
         sv_count: 3
         rho: -8.4367068580270344e-001
         alpha: [ 3.2053190007471460e-001, -1.1017099580383195e-001,
             -2.1036090427088250e-001 ]
         index: [ 13, 90, 91 ]
      -
         sv_count: 6
         rho: 1.0000000000000002e+000
         alpha: [ 1.0228709628459548e-001, 1.7229785760272953e-001,
             2.6103667967600094e-002, -2.2288220192151287e-001,
             -6.3655905688356365e-003, -7.1440829364566680e-002 ]
         index: [ 11, 13, 14, 96, 97, 99 ]
      -
         sv_count: 6
         rho: 1.3983041211529386e+000
         alpha: [ 2.3932142401897849e-001, 1.1921512305444018e-002,
             1.0500412260296672e-001, 1.0348678365076824e-001,
             -2.0924643980890500e-001, -2.5048740276925252e-001 ]
         index: [ 10, 12, 13, 14, 100, 104 ]
      -
         sv_count: 6
         rho: 1.5028234879769971e+000
         alpha: [ 2.5718789304225242e-001, 2.6239419734412319e-002,
             2.1625017584481279e-001, -3.1662100617717470e-001,
             -1.2056002520825394e-001, -6.2496457236049151e-002 ]
         index: [ 10, 12, 14, 105, 107, 109 ]
      -
         sv_count: 6
         rho: 1.4229668187938043e+000
         alpha: [ 5.8223194083815155e-001, 5.7166346941241386e-001,
             8.2037629100910586e-002, -9.5556749847005562e-001,
             -2.7815113008318254e-001, -2.2144107982381362e-003 ]
         index: [ 10, 13, 14, 110, 112, 113 ]
      -
         sv_count: 3
         rho: 2.3915326295526892e-001
         alpha: [ 2.1540548401212278e-002, 4.6137454735212113e-001,
             -4.8291509575333341e-001 ]
         index: [ 10, 12, 119 ]
      -
         sv_count: 6
         rho: 2.2996386373267654e+000
         alpha: [ 3.8235433501109489e-001, 6.0137323568840136e-003,
             1.7499474955076744e-001, 4.5374308525778381e-002,
             -4.4388092009818680e-001, -1.6485620534633055e-001 ]
         index: [ 10, 12, 13, 14, 123, 124 ]
      -
         sv_count: 5
         rho: 2.6436954044891348e+000
         alpha: [ 3.3548073822682117e-001, 2.6783077365827057e-001,
             1.2114172923314814e-001, -4.6493080588435431e-001,
             -2.5952243523388874e-001 ]
         index: [ 10, 13, 14, 125, 127 ]
      -
         sv_count: 6
         rho: -1.9286907489781932e-001
         alpha: [ 6.0042483590135740e-002, 1.4196158891552602e-001,
             1.4862041441826302e-002, 8.2560780259928065e-002,
             1.8249932908393321e-001, -4.8192622329134921e-001 ]
         index: [ 15, 16, 17, 18, 19, 23 ]
      -
         sv_count: 3
         rho: 8.8229690286169271e-001
         alpha: [ 2.0199051118165418e-001, 2.8047299005005027e-001,
             -4.8246350123170473e-001 ]
         index: [ 17, 19, 26 ]
      -
         sv_count: 5
         rho: 1.2507567220239177e+000
         alpha: [ 8.5459764390553986e-002, 3.2044013847258151e-001,
             -3.1658229127173976e-002, -2.8851154054030115e-001,
             -8.5730133195651717e-002 ]
         index: [ 17, 19, 30, 32, 33 ]
      -
         sv_count: 5
         rho: 1.7699404564024577e+000
         alpha: [ 1.3431030825645734e-001, 4.1464216529589920e-001,
             -1.4665082940914415e-001, -2.6235002455725603e-001,
             -1.3995161958596436e-001 ]
         index: [ 15, 19, 35, 36, 38 ]
      -
         sv_count: 8
         rho: 5.1539923153758522e+000
         alpha: [ 2.9884901973229916e-001, 7.7704791118004457e-001,
             8.8810235035016824e-002, 1.7018483167837792e-001,
             7.4319335309147372e-001, -1., -7.8085350717192234e-002, -1. ]
         index: [ 15, 16, 17, 18, 19, 42, 43, 44 ]
      -
         sv_count: 9
         rho: -3.2921500750923816e-001
         alpha: [ 3.3262653074021392e-001, 3.5381481398169762e-001,
             8.5317650546945775e-002, 1.2585255928610034e-001, 1., -1.,
             -4.2660090522135030e-001, -4.0177031371705402e-001,
             -6.9240335616553642e-002 ]
         index: [ 15, 16, 17, 18, 19, 45, 47, 48, 49 ]
      -
         sv_count: 7
         rho: 1.6897103388873485e+000
         alpha: [ 3.4416404384836158e-001, 2.8381331052790432e-001,
             7.4502722358597984e-001, -5.4159272511632800e-002,
             -9.3588558557170054e-001, -2.6719014489390591e-001,
             -1.1576957498500691e-001 ]
         index: [ 15, 17, 19, 50, 52, 53, 54 ]
      -
         sv_count: 7
         rho: -2.0100335928618338e+000
         alpha: [ 1.5142188647516086e-001, 2.7283494903090660e-001,
             1.1486536552823577e-001, 5.5744155841643761e-001,
             -2.2063671893915476e-001, -5.7886481746965834e-001,
             -2.9706222304194640e-001 ]
         index: [ 15, 16, 17, 19, 55, 57, 59 ]
      -
         sv_count: 6
         rho: 1.3622287782254405e+000
         alpha: [ 2.8395819547793100e-001, 2.8199007164889456e-001,
             1.1108896491485246e-001, -3.0078815039415452e-001,
             -1.4865040812534017e-001, -2.2759867352218341e-001 ]
         index: [ 15, 17, 19, 61, 62, 64 ]
      -
         sv_count: 6
         rho: 2.0773792992975273e+000
         alpha: [ 2.7537379449297900e-001, 2.1496988364935407e-001,
             2.2290332888299111e-001, -1.0395886267414763e-001,
             -1.6740669644416536e-001, -4.4188144790701112e-001 ]
         index: [ 15, 17, 19, 66, 68, 69 ]
      -
         sv_count: 5
         rho: 3.3489446822667890e-001
         alpha: [ 1.9773260366391215e-001, 1.6238961717053360e-001,
             1.2917884261049511e-001, -2.2262277032127503e-001,
             -2.6667829312366570e-001 ]
         index: [ 15, 17, 19, 73, 74 ]
      -
         sv_count: 5
         rho: -8.2682670292684235e-001
         alpha: [ 6.8543651425522406e-002, 5.7762471605942507e-002,
             3.4474521920579998e-001, -4.0789568954831379e-001,
             -6.3155652688963435e-002 ]
         index: [ 15, 16, 19, 77, 78 ]
      -
         sv_count: 9
         rho: 1.0000000000000009e+000
         alpha: [ 5.4644468116324940e-001, 3.2349674510330156e-001,
             7.5129821047699399e-002, 1.2427741649469810e-001,
             5.6496230086917654e-001, -1.1962398810368167e-001,
             -2.9636230198859270e-001, -2.1832467458584970e-001, -1. ]
         index: [ 15, 16, 17, 18, 19, 80, 81, 82, 83 ]
      -
         sv_count: 6
         rho: 1.0000000000000007e+000
         alpha: [ 1.5693748490622489e-001, 2.7023387239193741e-001,
             9.6763853478460449e-002, -1.6183025485522146e-001,
             -2.1609177305651133e-002, -3.4049577861573999e-001 ]
         index: [ 15, 17, 19, 87, 88, 89 ]
      -
         sv_count: 4
         rho: -7.9414476219681740e-001
         alpha: [ 1.0289727803675910e-001, 1.5171435458589258e-001,
             -1.9130797758052842e-001, -6.3303655042123208e-002 ]
         index: [ 15, 17, 90, 92 ]
      -
         sv_count: 6
         rho: 9.9999999999999956e-001
         alpha: [ 1.1874881350033646e-002, 2.5375741065554636e-001,
             8.2986538939334692e-002, -1.8761347205488654e-001,
             -6.0410805000578244e-002, -1.0059455388945998e-001 ]
         index: [ 15, 17, 19, 95, 96, 99 ]
      -
         sv_count: 5
         rho: 1.2897903366581094e+000
         alpha: [ 1.7123035851506668e-001, 8.2223838411662101e-002,
             6.9388025081486157e-002, -3.1716074879114226e-001,
             -5.6814732170616502e-003 ]
         index: [ 15, 17, 19, 100, 104 ]
      -
         sv_count: 3
         rho: 3.2711837315347640e+000
         alpha: [ 4.9599449756951480e-001, -2.6157770760829785e-001,
             -2.3441678996122181e-001 ]
         index: [ 15, 107, 109 ]
      -
         sv_count: 5
         rho: 1.2439671322106785e+000
         alpha: [ 3.1137989275581479e-001, 3.5960587626060680e-001,
             6.0533200385904040e-002, -6.1694538638963625e-001,
             -1.1457358301267094e-001 ]
         index: [ 15, 17, 19, 110, 112 ]
      -
         sv_count: 3
         rho: 2.9588834391558272e-001
         alpha: [ 1.5581391375426620e-001, -7.8827433117161505e-002,
             -7.6986480637104698e-002 ]
         index: [ 15, 118, 119 ]
      -
         sv_count: 4
         rho: 1.2495157601383220e+000
         alpha: [ 2.3680406995976908e-001, 1.1438195595161474e-001,
             -3.0508465272500063e-001, -4.6101373186383195e-002 ]
         index: [ 15, 17, 123, 124 ]
      -
         sv_count: 6
         rho: 1.6348192233411571e+000
         alpha: [ 3.7111583871680237e-001, 7.1702353322025014e-002,
             4.5296949093283273e-002, -1.2929801221833082e-001,
             -3.0652496142149838e-001, -5.2292167492277608e-002 ]
         index: [ 15, 17, 19, 125, 127, 128 ]
      -
         sv_count: 8
         rho: 1.3078965368675977e+000
         alpha: [ 1., 3.9425503499918968e-001, 1.,
             1.8378173307756492e-002, -2.7075339016783845e-001,
             -8.8883676647233312e-001, -1., -2.5304305166677415e-001 ]
         index: [ 20, 21, 23, 24, 26, 27, 28, 29 ]
      -
         sv_count: 6
         rho: 4.3410888639867098e+000
         alpha: [ 1., 1.1489215593336283e-001, 1., -1.,
             -1.1489215593336298e-001, -1. ]
         index: [ 20, 21, 23, 32, 33, 34 ]
      -
         sv_count: 6
         rho: 3.3290396078005884e+000
         alpha: [ 9.8691187132525993e-001, 3.6532029084048440e-001,
             1.2443135602919338e-001, -4.1936757197226043e-001,
             -5.7295946222677398e-002, -1. ]
         index: [ 20, 21, 23, 36, 37, 39 ]
      -
         sv_count: 4
         rho: 3.6254771219077688e+000
         alpha: [ 9.2920174446154635e-002, 1., -3.9656185666399518e-001,
             -6.9635831778215906e-001 ]
         index: [ 21, 23, 41, 44 ]
      -
         sv_count: 6
         rho: -6.3303651512632092e-002
         alpha: [ 6.6165100787983466e-001, 1., -2.5430251640370344e-001,
             -4.2060069134658890e-001, -8.5036003042490449e-001,
             -1.3638776970463820e-001 ]
         index: [ 20, 23, 45, 46, 47, 49 ]
      -
         sv_count: 6
         rho: 2.1541538022293456e+000
         alpha: [ 1.3842475927358638e-001, 5.9486300910018075e-001,
             -2.9777043109171569e-001, -2.1438485263505430e-001,
             -8.0547790350111018e-002, -1.4058469429688583e-001 ]
         index: [ 20, 23, 51, 52, 53, 54 ]
      -
         sv_count: 7
         rho: 6.8386349686981884e-001
         alpha: [ 5.4514781380527322e-001, 1.3824071149973494e-002,
             7.5157710150045254e-001, -3.6613544566843687e-001,
             -1.0797882661621290e-001, -8.1710584830149702e-001,
             -1.9328865869552424e-002 ]
         index: [ 20, 21, 23, 55, 56, 57, 59 ]
      -
         sv_count: 7
         rho: -1.9169463240547444e+000
         alpha: [ 1., 1., 1.8298480249093019e-001,
             -5.1773898861217649e-001, -9.3291146378904366e-001,
             -7.2159745659715380e-001, -1.0736893492539878e-002 ]
         index: [ 20, 23, 24, 60, 61, 62, 64 ]
      -
         sv_count: 4
         rho: 3.8703867272585892e+000
         alpha: [ 7.0937044704435559e-001, 5.7205433482144419e-001,
             -2.8142478186579944e-001, -1. ]
         index: [ 20, 23, 66, 69 ]
      -
         sv_count: 7
         rho: -2.4649222122198386e+000
         alpha: [ 1., 7.7150278493913604e-001, 1.9542766980341128e-001,
             -7.1327883592361496e-001, -1.3759450935630321e-001,
             -1.1605710946263779e-001, -1. ]
         index: [ 20, 23, 24, 71, 72, 73, 74 ]
      -
         sv_count: 6
         rho: -4.4233052222776541e+000
         alpha: [ 1., 4.2543149212530940e-001, -3.1010759816930872e-001,
             -8.2195172141634232e-001, -2.3096325126144759e-001,
             -6.2408921278210946e-002 ]
         index: [ 20, 23, 75, 76, 77, 78 ]
      -
         sv_count: 4
         rho: 9.9999999999999978e-001
         alpha: [ 3.5474407287424337e-001, -7.6025446374957298e-002,
             -8.3468900084587683e-002, -1.9524972641472443e-001 ]
         index: [ 23, 81, 82, 83 ]
      -
         sv_count: 6
         rho: 9.9999999999999967e-001
         alpha: [ 3.6015517185424478e-002, 2.2852189306530174e-001,
             -1.8589274493665444e-003, -1.3074366843315802e-001,
             -4.1942538025478419e-002, -8.9992276342723013e-002 ]
         index: [ 21, 23, 86, 87, 88, 89 ]
      -
         sv_count: 3
         rho: -8.8060879802429159e-001
         alpha: [ 1.4576841472731955e-001, -1.4319125297559232e-001,
             -2.5771617517272023e-003 ]
         index: [ 23, 90, 94 ]
      -
         sv_count: 3
         rho: 1.0000000000000002e+000
         alpha: [ 2.6616689704211882e-001, -1.7881972540895802e-001,
             -8.7347171633147563e-002 ]
         index: [ 23, 95, 99 ]
      -
         sv_count: 6
         rho: 7.0098215455069812e-001
         alpha: [ 1.7634135830774070e-001, 6.2016924777265592e-001,
             3.7229846138204054e-001, -8.5719567690685938e-001,
             -3.0498470849510667e-001, -6.6286820604716488e-003 ]
         index: [ 21, 22, 24, 101, 103, 104 ]
      -
         sv_count: 7
         rho: 7.3126597370299589e+000
         alpha: [ 1., 6.2140306327334693e-001, 5.4329921674316672e-001,
             3.3637093401027829e-001, -1., -5.0107321402679195e-001, -1. ]
         index: [ 21, 22, 23, 24, 106, 107, 109 ]
      -
         sv_count: 5
         rho: 4.6800369171050205e-001
         alpha: [ 7.0086009491833690e-002, 2.7861403737742846e-001,
             1.0750593183307784e-001, -9.1246557224872710e-002,
             -3.6495942147746718e-001 ]
         index: [ 21, 22, 24, 110, 114 ]
      -
         sv_count: 4
         rho: 4.5900998192640881e-002
         alpha: [ 4.0447799562712730e-002, 3.2240219731949182e-002,
             -1.1384247508036195e-002, -6.1303771786625674e-002 ]
         index: [ 21, 23, 117, 118 ]
      -
         sv_count: 5
         rho: 1.3641824338898680e+000
         alpha: [ 4.2603094853601191e-002, 1.5184637441370877e-001,
             1.0768938604438222e-002, -8.4805597136252672e-002,
             -1.2041281073549914e-001 ]
         index: [ 22, 23, 24, 123, 124 ]
      -
         sv_count: 5
         rho: 7.2634448602777946e-001
         alpha: [ 3.0866156797347333e-001, 1.1475991368168002e-001,
             1.6690218384598640e-001, -2.7953509336408916e-001,
             -3.1078857213705074e-001 ]
         index: [ 22, 23, 24, 126, 127 ]
      -
         sv_count: 8
         rho: 6.0269591094539150e+000
         alpha: [ 1., 1., 1., 3.2606993013882107e-001,
             -3.2606993013882096e-001, -1., -1., -1. ]
         index: [ 25, 26, 28, 29, 30, 31, 32, 34 ]
      -
         sv_count: 7
         rho: 2.9531019685117914e+000
         alpha: [ 9.5648977587761386e-001, 5.3354359107294003e-001,
             2.5551649976391777e-001, -1.1636996261817423e-001,
             -3.9404449010610243e-001, -2.3513541399020299e-001, -1. ]
         index: [ 26, 28, 29, 36, 37, 38, 39 ]
      -
         sv_count: 5
         rho: 1.0439143245103459e+000
         alpha: [ 8.6498346486460298e-001, 3.7846377996403785e-001,
             -6.4398078157119953e-002, -2.5206265361686292e-001,
             -9.2698651305465751e-001 ]
         index: [ 26, 28, 40, 41, 44 ]
      -
         sv_count: 7
         rho: -2.4972218825421213e+000
         alpha: [ 4.5007288554630387e-001, 1., 7.4543734533294326e-002,
             9.0588897480406355e-002, -3.6411402057167497e-001,
             -5.3516614078567415e-001, -7.1592535620265529e-001 ]
         index: [ 26, 27, 28, 29, 45, 46, 47 ]
      -
         sv_count: 5
         rho: 3.4711060326578798e+000
         alpha: [ 1.4394679324442203e-001, 8.7035659055323755e-001,
             -4.4580281553887569e-001, -3.6722965689852277e-001,
             -2.0127091136026110e-001 ]
         index: [ 25, 26, 51, 53, 54 ]
      -
         sv_count: 8
         rho: 3.3860138514266264e-001
         alpha: [ 3.3998144431450406e-001, 1., 5.5742295276474937e-002,
             2.6967308487754293e-001, -1., -1.0950320219527132e-001,
             -4.8827540407691172e-001, -6.7618218196338911e-002 ]
         index: [ 26, 27, 28, 29, 55, 56, 57, 59 ]
      -
         sv_count: 8
         rho: -4.1109693872965796e+000
         alpha: [ 9.6521323196554032e-001, 5.2223405877205309e-001, 1.,
             5.8164054505022311e-001, -1., -3.2229845723718759e-001, -1.,
             -7.4678937855062899e-001 ]
         index: [ 25, 26, 27, 29, 60, 61, 62, 63 ]
      -
         sv_count: 7
         rho: 2.1778793603600390e+000
         alpha: [ 6.9926962523193609e-002, 9.3732934583376981e-001,
             1.2229861235473342e-002, 2.9583110709557892e-001,
             -1.5533067852560117e-001, -1.5998659816241440e-001, -1. ]
         index: [ 25, 26, 27, 29, 66, 67, 69 ]
      -
         sv_count: 8
         rho: -4.8601180392752772e+000
         alpha: [ 3.2506550067808254e-001, 7.7117420671108688e-002, 1.,
             3.2427358890486069e-001, 5.3796782255199305e-001,
             -3.4335571364889150e-001, -9.2106861915715343e-001, -1. ]
         index: [ 25, 26, 27, 28, 29, 70, 71, 74 ]
      -
         sv_count: 8
         rho: -8.2203412435927987e+000
         alpha: [ 8.5598901987873857e-002, 5.4108100364142053e-001, 1.,
             6.5245142330421779e-001, -2.2171655047458153e-001,
             -8.7102683552381011e-001, -1., -1.8638794293512079e-001 ]
         index: [ 25, 26, 27, 29, 75, 76, 77, 78 ]
      -
         sv_count: 4
         rho: 1.0000000000000002e+000
         alpha: [ 3.4602569812694239e-001, -9.2037131817997775e-002,
             -1.0495981493004908e-001, -1.4902875137888280e-001 ]
         index: [ 26, 81, 82, 83 ]
      -
         sv_count: 5
         rho: 1.0000000000000002e+000
         alpha: [ 2.7961307953551257e-001, 4.1700215140697348e-002,
             -1.4183214695157753e-001, -3.0662065959220348e-002,
             -1.4881908176541198e-001 ]
         index: [ 26, 29, 87, 88, 89 ]
      -
         sv_count: 3
         rho: -9.6211499757974517e-001
         alpha: [ 1.4134070975139854e-001, -1.1835457110013681e-001,
             -2.2986138651261787e-002 ]
         index: [ 26, 90, 94 ]
      -
         sv_count: 3
         rho: 9.9999999999999956e-001
         alpha: [ 3.2984829147518102e-001, -2.1194531213720053e-001,
             -1.1790297933800571e-001 ]
         index: [ 26, 95, 99 ]
      -
         sv_count: 4
         rho: 5.0739232277468305e-001
         alpha: [ 5.6334674485539060e-001, -1.0655341005208561e-001,
             -7.4215779084400649e-002, -3.8257755571890451e-001 ]
         index: [ 28, 100, 101, 103 ]
      -
         sv_count: 4
         rho: 2.0032185504449158e+000
         alpha: [ 6.8428736012279912e-001, -4.0937146187335621e-001,
             -9.3522096645362193e-002, -1.8139380160408089e-001 ]
         index: [ 28, 106, 107, 109 ]
      -
         sv_count: 5
         rho: 1.7992682424586337e-001
         alpha: [ 1.3736446314827522e-001, 5.3257614031937656e-002,
             9.0408802374266781e-002, -2.2449357462097810e-001,
             -5.6537304933501578e-002 ]
         index: [ 26, 27, 28, 110, 114 ]
      -
         sv_count: 3
         rho: -8.3933363087914121e-003
         alpha: [ 6.6881457983055503e-002, -1.8199021447781291e-003,
             -6.5061555838277371e-002 ]
         index: [ 29, 117, 119 ]
      -
         sv_count: 5
         rho: 1.1965476197840890e+000
         alpha: [ 1.2778334619382617e-001, 2.8331691228458435e-002,
             8.3316158392275370e-003, -1.4360229710599425e-002,
             -1.5008642355091276e-001 ]
         index: [ 26, 28, 29, 123, 124 ]
      -
         sv_count: 4
         rho: -2.0324478392329648e-001
         alpha: [ 2.5496936471351139e-001, 1.0737323504736158e-001,
             -3.4935845122718057e-001, -1.2984148533692392e-002 ]
         index: [ 26, 28, 127, 129 ]
      -
         sv_count: 8
         rho: -2.9574145337256872e+000
         alpha: [ 2.3882273760235218e-001, 9.7982393787499733e-001, 1.,
             9.8623125374566134e-001, -6.2825889220893716e-001, -1.,
             -5.7661903701407358e-001, -1. ]
         index: [ 30, 32, 33, 34, 35, 37, 38, 39 ]
      -
         sv_count: 7
         rho: -1.8027572665155986e+000
         alpha: [ 1.8516003298983116e-001, 2.3844258902929166e-001,
             4.1897232871278334e-001, 1.4590788698860008e-001,
             8.7674955634902005e-002, -2.9498813928425499e-001,
             -7.8116965407113603e-001 ]
         index: [ 30, 31, 32, 33, 34, 41, 44 ]
      -
         sv_count: 7
         rho: -2.5179607832449875e+000
         alpha: [ 3.3678403255341161e-001, 1.3588586634133543e-001,
             6.8128749811225042e-001, -2.6830219991608678e-001,
             -3.6708222575856569e-001, -1.6632773186165684e-001,
             -3.5224523947068170e-001 ]
         index: [ 32, 33, 34, 45, 46, 47, 49 ]
      -
         sv_count: 7
         rho: 1.4895673058505438e-001
         alpha: [ 6.6816454267331027e-001, 3.8209823198422710e-001,
             4.1061735285183609e-001, 6.0018318129261630e-002,
             -3.4652791322500515e-001, -1., -1.7437053241362982e-001 ]
         index: [ 30, 32, 33, 34, 51, 53, 54 ]
      -
         sv_count: 7
         rho: -4.9908362148976044e+000
         alpha: [ 5.6485868705265208e-001, 8.1827030319556782e-001,
             2.4437817873783274e-001, -7.2005656755117553e-001,
             -3.3245850347415323e-001, -5.3371171001656925e-001,
             -4.1280387944155249e-002 ]
         index: [ 30, 32, 33, 55, 56, 57, 59 ]
      -
         sv_count: 7
         rho: -5.1026257700441322e+000
         alpha: [ 1., 1.1109056693824526e-001, 1., -1.,
             -3.9531847909196516e-001, -2.7543126651037125e-001,
             -4.4034082133589658e-001 ]
         index: [ 32, 33, 34, 60, 61, 62, 63 ]
      -
         sv_count: 6
         rho: -2.3747328183499135e+000
         alpha: [ 1.9939903435823308e-001, 4.4445086721241228e-001,
             9.8266916836845641e-001, -2.2249976608953342e-001,
             -4.0401930384956874e-001, -1. ]
         index: [ 32, 33, 34, 65, 66, 69 ]
      -
         sv_count: 6
         rho: -6.4753370242541148e+000
         alpha: [ 5.9266170234576199e-001, 3.0535243541915080e-001,
             9.1451759132252053e-001, -4.2993324068940475e-001,
             -3.8259848839800370e-001, -1. ]
         index: [ 32, 33, 34, 71, 72, 74 ]
      -
         sv_count: 6
         rho: -6.2027548256065295e+000
         alpha: [ 8.0458091352083472e-001, 2.4084849832160915e-001,
             2.5508570360272514e-001, -4.2849719003744013e-001,
             -7.2833839633021447e-001, -1.4367952907750803e-001 ]
         index: [ 32, 33, 34, 75, 77, 78 ]
      -
         sv_count: 6
         rho: 1.
         alpha: [ 3.6870724361624507e-001, 1.7393044753939110e-001,
             -1.1855859896336073e-001, -2.6388389283129593e-001,
             -1.5337195907966861e-002, -1.4485800345301350e-001 ]
         index: [ 30, 33, 80, 81, 82, 83 ]
      -
         sv_count: 6
         rho: 9.9999999999999856e-001
         alpha: [ 3.4482309314582921e-001, 7.0325154164360998e-002,
             3.8010416072954895e-001, -4.9829490756998290e-001,
             -9.3731612662480243e-002, -2.0322588780727616e-001 ]
         index: [ 30, 31, 33, 87, 88, 89 ]
      -
         sv_count: 4
         rho: -2.0794628034600855e+000
         alpha: [ 1.2490957263940471e-001, 6.8841181328756190e-002,
             -1.5602360976510218e-001, -3.7727144203071876e-002 ]
         index: [ 33, 34, 90, 92 ]
      -
         sv_count: 5
         rho: 9.9999999999999967e-001
         alpha: [ 6.2690817617588879e-002, 2.6050192615101952e-001,
             2.1858555440750291e-001, -2.7102105480941446e-001,
             -2.7075724336669710e-001 ]
         index: [ 30, 31, 33, 95, 99 ]
      -
         sv_count: 6
         rho: -1.2552407620636357e+000
         alpha: [ 2.0609145894438244e-001, 3.7666051288526087e-001,
             -9.5332790653431823e-002, -1.8308815061585465e-001,
             -1.6457509620469279e-001, -1.3975593435566414e-001 ]
         index: [ 33, 34, 100, 101, 103, 104 ]
      -
         sv_count: 5
         rho: -1.0583323812568461e+000
         alpha: [ 2.7214658532859903e-001, 4.5543512151864596e-001,
             -6.5410781167694124e-002, -1.8866119033564283e-001,
             -4.7350973534390839e-001 ]
         index: [ 33, 34, 106, 107, 109 ]
      -
         sv_count: 6
         rho: -1.3340515307495640e+000
         alpha: [ 1.5109985783204921e-001, 2.7406368163193567e-001,
             -2.8340484487622564e-001, -9.7802990930302598e-003,
             -2.0497565269298761e-004, -1.3177341984203553e-001 ]
         index: [ 33, 34, 110, 111, 112, 114 ]
      -
         sv_count: 4
         rho: -6.0727149119959445e-001
         alpha: [ 7.3063183293105932e-002, 1.2016651879181106e-002,
             -5.4953205041736904e-002, -3.0126630130550103e-002 ]
         index: [ 30, 33, 118, 119 ]
      -
         sv_count: 5
         rho: 1.1857572709658777e+000
         alpha: [ 8.5545696798006825e-003, 1.3747695293252488e-001,
             1.8463557446084136e-001, -1.2555650440434642e-002,
             -3.1811144663273216e-001 ]
         index: [ 30, 33, 34, 123, 124 ]
      -
         sv_count: 4
         rho: -2.0241752719866355e+000
         alpha: [ 6.0072827763751457e-001, 4.0543618682347177e-001,
             -7.4229790608145341e-001, -2.6386655837953288e-001 ]
         index: [ 33, 34, 127, 129 ]
      -
         sv_count: 5
         rho: -1.2659924465042534e+000
         alpha: [ 4.3168675480008789e-001, 3.2186672117072612e-001,
             2.1784603232506494e-001, -2.5327727248412063e-001,
             -7.1812223581175816e-001 ]
         index: [ 35, 38, 39, 41, 44 ]
      -
         sv_count: 7
         rho: -2.5390360475985858e+000
         alpha: [ 1.2845309953705326e-002, 4.7717819538693557e-001,
             3.8199570254877545e-002, 3.4859512133261955e-001,
             -3.8249209233497716e-001, -3.5958253161886428e-001,
             -1.3474357297429337e-001 ]
         index: [ 35, 36, 38, 39, 45, 46, 49 ]
      -
         sv_count: 6
         rho: 1.0373665704652912e+000
         alpha: [ 9.1163870356151988e-001, 3.8769343751980995e-001,
             2.5497026932717836e-002, -5.5976076416908027e-001,
             -5.6381721195613954e-001, -2.0125119188882787e-001 ]
         index: [ 36, 37, 38, 52, 53, 54 ]
      -
         sv_count: 8
         rho: -5.5851338694311163e+000
         alpha: [ 1., 1.0575190022601599e-001, 1.,
             6.9515899996654862e-001, -6.5197328116988140e-001,
             -8.8508103644141134e-001, -1., -2.6385658258124745e-001 ]
         index: [ 35, 36, 38, 39, 55, 56, 57, 59 ]
      -
         sv_count: 6
         rho: -4.2701896039359033e+000
         alpha: [ 2.5492752092085291e-001, 1., -1.,
             -1.2460351243008208e-001, -7.7978540249695985e-002,
             -5.2345468241075013e-002 ]
         index: [ 37, 39, 60, 61, 62, 64 ]
      -
         sv_count: 6
         rho: -1.5794390890774235e-001
         alpha: [ 3.2742062379549841e-001, 3.6825892092018436e-001,
             5.6802150047711109e-001, -1.5981493522939902e-001,
             -1.0388610996339498e-001, -1. ]
         index: [ 36, 37, 39, 65, 66, 69 ]
      -
         sv_count: 6
         rho: -4.7758052560580229e+000
         alpha: [ 1.5190914467129182e-001, 2.1299518100969733e-001, 1.,
             -2.1260169352484520e-001, -1.5230263215614390e-001, -1. ]
         index: [ 36, 37, 39, 71, 72, 74 ]
      -
         sv_count: 6
         rho: -7.4984353361200240e+000
         alpha: [ 1.7615653041852222e-001, 2.3864659390648738e-001,
             8.6376276753163961e-001, -6.3347947999375698e-001,
             -5.5166541480528675e-001, -9.3420997057581973e-002 ]
         index: [ 36, 37, 39, 75, 77, 78 ]
      -
         sv_count: 7
         rho: 1.
         alpha: [ 2.2116502146029299e-001, 7.3312702002963359e-002,
             1.0119665025336719e-001, -1.2660202327742492e-003,
             -1.3236046512166827e-001, -8.9719116827596118e-002,
             -1.7232877153458503e-001 ]
         index: [ 35, 37, 38, 80, 81, 82, 83 ]
      -
         sv_count: 4
         rho: 9.9999999999999967e-001
         alpha: [ 2.7502482244907867e-001, 4.1748498797686667e-001,
             -4.9945455498275476e-001, -1.9305525544319016e-001 ]
         index: [ 37, 38, 87, 88 ]
      -
         sv_count: 3
         rho: -1.8181894297540715e+000
         alpha: [ 9.8635976522117433e-002, 1.0449330064650644e-001,
             -2.0312927716862386e-001 ]
         index: [ 35, 37, 90 ]
      -
         sv_count: 7
         rho: 9.9999999999999900e-001
         alpha: [ 3.4817110609478223e-002, 2.8304544168680590e-001,
             2.4006745262608292e-002, -3.0692545818320080e-002,
             -8.4496669664203147e-002, -1.0483384035949372e-001,
             -1.2184624171688396e-001 ]
         index: [ 35, 37, 38, 95, 96, 97, 99 ]
      -
         sv_count: 6
         rho: -4.2683641777589415e-001
         alpha: [ 2.1137922365896061e-001, 9.1569525732331805e-002,
             3.8762759655242962e-001, -1.2356269155007117e-001,
             -3.3218239946215333e-001, -2.3483125493149729e-001 ]
         index: [ 35, 36, 39, 100, 101, 103 ]
      -
         sv_count: 6
         rho: -6.8558212925140261e-001
         alpha: [ 2.5094653466351202e-001, 9.3617443968227673e-002,
             3.1840636849757137e-001, -1.5315843799211462e-001,
             -6.9901112347622751e-002, -4.3991079678957412e-001 ]
         index: [ 35, 36, 39, 106, 107, 109 ]
      -
         sv_count: 4
         rho: -3.3138602144795065e-001
         alpha: [ 4.6148431541394036e-001, 3.1277218649037909e-002,
             -3.1842556013856538e-001, -1.7433597392441294e-001 ]
         index: [ 35, 38, 110, 114 ]
      -
         sv_count: 3
         rho: -2.0081038041443655e-001
         alpha: [ 2.0832765358823595e-002, 6.3123755026621375e-002,
             -8.3956520385444947e-002 ]
         index: [ 37, 38, 118 ]
      -
         sv_count: 4
         rho: 1.2876563244787731e+000
         alpha: [ 2.2352093813537358e-001, 3.8009013912900604e-002,
             -9.2580218060907701e-002, -1.6894973398735730e-001 ]
         index: [ 35, 37, 123, 124 ]
      -
         sv_count: 6
         rho: -2.2381480765302300e-001
         alpha: [ 1., 2.6393239153604236e-002, 2.8961749984862225e-002,
             -1.4684765783295414e-001, -8.2484811378135625e-001,
             -8.3659217524155963e-002 ]
         index: [ 35, 38, 39, 126, 127, 129 ]
      -
         sv_count: 8
         rho: -5.0047016436967313e+000
         alpha: [ 1., 1., 4.2725715478664877e-001, 1., -1.,
             -9.2669671968603573e-001, -5.0056043510056025e-001, -1. ]
         index: [ 40, 42, 43, 44, 45, 47, 48, 49 ]
      -
         sv_count: 8
         rho: -9.7880951676928074e-001
         alpha: [ 9.6034488119887063e-001, 5.3922272756409706e-001,
             2.9061157755849476e-001, 7.1332460039511736e-001,
             -4.2801523038760264e-001, -1., -2.5570198700117636e-001,
             -8.1978656932780025e-001 ]
         index: [ 40, 41, 43, 44, 50, 51, 53, 54 ]
      -
         sv_count: 6
         rho: -6.1053704973334639e+000
         alpha: [ 6.3158973195176793e-001, 1., -4.0643391621532715e-002,
             -1.9874288735149739e-001, -8.7062160468725980e-001,
             -5.2158184829147947e-001 ]
         index: [ 41, 44, 55, 56, 57, 59 ]
      -
         sv_count: 7
         rho: -2.1629787869102000e+000
         alpha: [ 1., 8.4340135001589955e-001, 9.5290120042835691e-001,
             -5.4620237075566000e-002, -1., -7.4168231336868995e-001,
             -1. ]
         index: [ 40, 41, 44, 60, 61, 62, 64 ]
      -
         sv_count: 8
         rho: 2.3763170004793807e-001
         alpha: [ 1., 2.3418691197799557e-001, 9.9589191325794790e-001,
             5.1039833163366488e-001, -1., -3.3156461556719424e-001,
             -4.0891254130241472e-001, -1. ]
         index: [ 40, 41, 43, 44, 66, 67, 68, 69 ]
      -
         sv_count: 5
         rho: -2.8090848523284375e+000
         alpha: [ 1., 3.3083462387764684e-001, 6.2555614327905373e-001,
             -1., -9.5639076715670046e-001 ]
         index: [ 40, 41, 44, 73, 74 ]
      -
         sv_count: 5
         rho: -4.9434386554278671e+000
         alpha: [ 1., 5.7813003231033833e-001, -4.3382384487702180e-002,
             -8.2526785775166511e-001, -7.0947979007097062e-001 ]
         index: [ 40, 44, 75, 76, 78 ]
      -
         sv_count: 5
         rho: 9.9999999999999967e-001
         alpha: [ 8.4398669413962124e-001, 5.3752417663535312e-001,
             -3.3888097127234845e-001, -2.5892174411114732e-001,
             -7.8370815539147842e-001 ]
         index: [ 42, 44, 81, 82, 83 ]
      -
         sv_count: 5
         rho: 9.9999999999999845e-001
         alpha: [ 3.2487589801520017e-001, 3.1818696630081844e-001,
             -3.2495194185470511e-001, -8.7244275437442162e-002,
             -2.3086664702387130e-001 ]
         index: [ 41, 44, 87, 88, 89 ]
      -
         sv_count: 6
         rho: -1.3619334386430284e+000
         alpha: [ 7.3897632831661425e-002, 2.8503285923155614e-002,
             1.3550106730443950e-001, -1.2441079645771846e-001,
             -3.1983349360587505e-002, -8.1507840240950771e-002 ]
         index: [ 40, 41, 43, 90, 91, 92 ]
      -
         sv_count: 5
         rho: 1.0000000000000004e+000
         alpha: [ 2.9731718020110420e-001, 1.3726172942387724e-001,
             -2.0296553245495189e-001, -6.3748471288309433e-002,
             -1.6786490588172004e-001 ]
         index: [ 43, 44, 95, 96, 99 ]
      -
         sv_count: 4
         rho: 1.1497050165190179e+000
         alpha: [ 1., 2.6308847136434604e-001, -3.8855679232453294e-001,
             -8.7453167903981288e-001 ]
         index: [ 41, 42, 100, 104 ]
      -
         sv_count: 5
         rho: 1.5290887913654696e+000
         alpha: [ 1., 2.7941293497902692e-001, -9.8737315853315555e-001,
             -2.5013321082459394e-001, -4.1906565621277432e-002 ]
         index: [ 41, 42, 105, 107, 109 ]
      -
         sv_count: 6
         rho: -1.0932017141423163e+000
         alpha: [ 1., 2.5448810359824642e-001, 1.8842565625950275e-001,
             -1., -2.7105979782386258e-001, -1.7185396203388600e-001 ]
         index: [ 41, 42, 44, 110, 111, 113 ]
      -
         sv_count: 3
         rho: -2.2980906819589406e-002
         alpha: [ 1.8775636243406346e-001, 2.4918305008403145e-003,
             -1.9024819293490378e-001 ]
         index: [ 41, 44, 118 ]
      -
         sv_count: 5
         rho: 3.6285952028585653e+000
         alpha: [ 1., 5.0616019723632244e-001, -4.8882857900597598e-001,
             -4.8219807565429340e-001, -5.3513354257605317e-001 ]
         index: [ 41, 42, 121, 123, 124 ]
      -
         sv_count: 7
         rho: 1.5673411181486256e+000
         alpha: [ 1., 7.4945140835325164e-002, 8.7777757488964298e-002,
             -5.0825222417139693e-001, -1.7705212362722408e-001,
             -2.0415722096515729e-001, -2.7326132956051097e-001 ]
         index: [ 41, 42, 44, 125, 126, 127, 128 ]
      -
         sv_count: 9
         rho: 2.3008305367777409e+000
         alpha: [ 7.2113688578029145e-001, 8.5056921604813507e-001, 1.,
             1., -6.7252799476113889e-001, -1., -8.5109115947802916e-001,
             -1.1915311728591330e-001, -9.2893383030334487e-001 ]
         index: [ 45, 46, 48, 49, 50, 51, 52, 53, 54 ]
      -
         sv_count: 10
         rho: -3.7757900725239875e+000
         alpha: [ 1., 1., 2.0861847811178083e-001,
             2.8114328236783059e-001, 4.3747842121497826e-001, -1.,
             -2.8966127195392023e-002, -1., -1.6813524864501359e-001,
             -7.3013880585418933e-001 ]
         index: [ 45, 46, 47, 48, 49, 55, 56, 57, 58, 59 ]
      -
         sv_count: 8
         rho: 3.3240797942816275e-001
         alpha: [ 5.5087075065784774e-001, 7.9117054269310449e-001,
             1.0901530717421339e-001, 1., -3.5219121485181032e-001, -1.,
             -3.6867247579715412e-001, -7.3019290987620222e-001 ]
         index: [ 45, 47, 48, 49, 60, 61, 62, 64 ]
      -
         sv_count: 9
         rho: 2.2310961349447580e+000
         alpha: [ 3.4626680791158349e-001, 1.6583623146211729e-001,
             5.8272784034787195e-001, 1.0898139521062412e-001, 1., -1.,
             -8.9646728637834280e-002, -1.1416554629436369e-001, -1. ]
         index: [ 45, 46, 47, 48, 49, 66, 67, 68, 69 ]
      -
         sv_count: 6
         rho: -1.1525914264666892e+000
         alpha: [ 4.9752437545190464e-001, 5.2653923118279922e-001,
             4.2211125266552060e-002, 6.6669255332026889e-001,
             -7.3296728522152488e-001, -1. ]
         index: [ 45, 47, 48, 49, 73, 74 ]
      -
         sv_count: 5
         rho: -3.4504360211321612e+000
         alpha: [ 3.8982041687496544e-001, 8.2800201294553688e-001,
             4.5960848321708192e-001, -7.0620159162647422e-001,
             -9.7122932141110974e-001 ]
         index: [ 45, 46, 47, 76, 77 ]
      -
         sv_count: 6
         rho: 1.0000000000000009e+000
         alpha: [ 5.7283778422039966e-001, 2.6592582151937261e-001,
             9.7605353365070546e-001, -2.6600598171147433e-001,
             -8.3691929125338005e-001, -7.1189186642558389e-001 ]
         index: [ 45, 47, 48, 81, 82, 83 ]
      -
         sv_count: 5
         rho: 1.0000000000000009e+000
         alpha: [ 5.3707619566665454e-001, 1., -4.8982132348122592e-001,
             -1.4331135620857230e-001, -9.0394351597681222e-001 ]
         index: [ 45, 48, 87, 88, 89 ]
      -
         sv_count: 5
         rho: -5.4080346051839234e-001
         alpha: [ 2.3865407051824387e-002, 1., -4.6857399224276636e-001,
             -3.8357854055459678e-001, -1.7171287425446108e-001 ]
         index: [ 45, 48, 90, 91, 92 ]
      -
         sv_count: 6
         rho: 9.9999999999999944e-001
         alpha: [ 1.1396310772085201e-001, 7.5439406989134858e-002,
             6.6094641770315543e-001, -3.4198952835964824e-001,
             -3.5715764021748936e-001, -1.5120176383602124e-001 ]
         index: [ 45, 46, 48, 96, 98, 99 ]
      -
         sv_count: 4
         rho: 1.3885039695462071e+000
         alpha: [ 1., -6.5729021952709896e-002, -5.2011505131115514e-002,
             -8.8225947291620144e-001 ]
         index: [ 49, 100, 102, 104 ]
      -
         sv_count: 3
         rho: 1.9550467868141153e+000
         alpha: [ 9.8361366148494966e-001, -8.4930705173339205e-001,
             -1.3430660975155759e-001 ]
         index: [ 49, 105, 107 ]
      -
         sv_count: 7
         rho: 5.1208133602698769e-001
         alpha: [ 8.0201769976498624e-002, 2.7414592642380142e-001,
             3.7845459321265823e-001, 6.3901060221064665e-001, -1.,
             -7.6795167364849301e-002, -2.9501772445875563e-001 ]
         index: [ 45, 46, 48, 49, 110, 111, 112 ]
      -
         sv_count: 5
         rho: -3.4025115282542581e-002
         alpha: [ 1.2030332962399639e-002, 2.8219959430807098e-002,
             1.0972208247856365e-001, -1.8254965554714567e-002,
             -1.3171740931705578e-001 ]
         index: [ 45, 48, 49, 118, 119 ]
      -
         sv_count: 3
         rho: 3.2535139480361153e+000
         alpha: [ 1., -6.7574304205205937e-001, -3.2425695794799558e-001 ]
         index: [ 49, 121, 124 ]
      -
         sv_count: 6
         rho: 2.3968596786636200e+000
         alpha: [ 7.0363431222317877e-002, 2.6314964736810692e-002,
             8.0802233784326905e-001, -4.7247468542392435e-001,
             -2.7543526574254745e-001, -1.5679078263592575e-001 ]
         index: [ 45, 48, 49, 125, 127, 128 ]
      -
         sv_count: 7
         rho: -4.7703079553240766e+000
         alpha: [ 1.3184031728867307e-001, 2.9110715546733129e-001,
             7.7188353094498141e-001, 1., -1., -1.9483100370098547e-001,
             -1. ]
         index: [ 50, 51, 52, 54, 57, 58, 59 ]
      -
         sv_count: 6
         rho: 1.1178488768809456e+000
         alpha: [ 3.9312585042495651e-001, 1., 8.0553354583525849e-001,
             -4.7270377676406600e-001, -9.5356946138436549e-001,
             -7.7238615811178291e-001 ]
         index: [ 50, 51, 54, 60, 61, 64 ]
      -
         sv_count: 8
         rho: 1.2792964557500763e+000
         alpha: [ 4.5324996332769008e-001, 1., 1.6762241613190093e-001,
             8.7124439256335517e-001, -1.3288860332028438e-001, -1.,
             -3.5922816870266200e-001, -1. ]
         index: [ 50, 51, 53, 54, 65, 66, 68, 69 ]
      -
         sv_count: 7
         rho: -2.2232853689235066e+000
         alpha: [ 6.1948474044318629e-002, 1., 1.,
             -6.6623241638871855e-001, -1.9639304823783166e-003, -1.,
             -3.9375212717323260e-001 ]
         index: [ 50, 51, 54, 71, 72, 73, 74 ]
      -
         sv_count: 6
         rho: -3.3239541835964546e+000
         alpha: [ 8.4672916317516791e-002, 7.6100801352343594e-001, 1.,
             -6.7145720749386273e-001, -3.6322396916619054e-001,
             -8.1099975318088935e-001 ]
         index: [ 50, 51, 54, 75, 76, 78 ]
      -
         sv_count: 6
         rho: 1.0000000000000011e+000
         alpha: [ 5.7679228276195238e-001, 2.2615922826673021e-001, 1.,
             -6.3279377721457997e-001, -5.9638795371810671e-001,
             -5.7376978009599622e-001 ]
         index: [ 50, 51, 53, 81, 82, 83 ]
      -
         sv_count: 7
         rho: 9.9999999999999900e-001
         alpha: [ 9.5844694177218814e-001, 1.6323691260763951e-001, 1.,
             -4.5575762288141786e-001, -9.3076472779701158e-001,
             -1.4107782106766262e-001, -5.9408368263373590e-001 ]
         index: [ 50, 51, 53, 86, 87, 88, 89 ]
      -
         sv_count: 6
         rho: -1.7412322802359930e+000
         alpha: [ 6.5300255711477972e-001, 1.4993183193893828e-002,
             7.1047079795160659e-002, -3.7588748433409602e-001,
             -6.7470985133836175e-002, -2.9568435063589477e-001 ]
         index: [ 50, 52, 53, 90, 91, 92 ]
      -
         sv_count: 6
         rho: 9.9999999999999944e-001
         alpha: [ 2.9680252627582770e-001, 1.9900036495180126e-001,
             4.7750983050972085e-001, -1.7211477490529872e-001,
             -3.8772168221100284e-001, -4.1347626462104797e-001 ]
         index: [ 50, 51, 53, 95, 96, 99 ]
      -
         sv_count: 6
         rho: 7.1229061238495289e-002
         alpha: [ 2.4552394200036759e-001, 1.3406679984106581e-001,
             2.6345907208595382e-002, 1.1113291189382517e-001,
             -2.6010298871434290e-001, -2.5696657222951136e-001 ]
         index: [ 50, 51, 52, 53, 100, 104 ]
      -
         sv_count: 7
         rho: 4.4407024904059694e-001
         alpha: [ 2.4016908395310432e-001, 1.2695099959131345e-001,
             6.0964889200453322e-002, 5.5627158774438579e-002,
             -3.2900985246392445e-001, -8.4244383822646596e-002,
             -7.0457895232738377e-002 ]
         index: [ 50, 51, 52, 53, 105, 107, 109 ]
      -
         sv_count: 7
         rho: -1.9695305284771993e+000
         alpha: [ 7.9810009053970254e-001, 6.0359440543085292e-002,
             2.4800037651301132e-001, 2.1586827849638279e-001,
             -7.8944075179360329e-001, -8.8616857902012042e-002,
             -4.4427057639656603e-001 ]
         index: [ 50, 51, 52, 53, 110, 111, 112 ]
      -
         sv_count: 3
         rho: 3.4863345873206492e-001
         alpha: [ 1.2743449070435894e-001, 3.1537432465672921e-002,
             -1.5897192317003186e-001 ]
         index: [ 50, 54, 119 ]
      -
         sv_count: 5
         rho: 1.8316280999345911e+000
         alpha: [ 2.5546764228305496e-001, 1.6778873378998360e-001,
             2.1832253760847181e-001, -1.6679958623176383e-001,
             -4.7477932744974666e-001 ]
         index: [ 50, 51, 53, 123, 124 ]
      -
         sv_count: 7
         rho: 2.3238183646042684e-001
         alpha: [ 4.2945914318136513e-001, 3.8976595483096413e-002,
             1.2302006182758815e-001, 4.0470455918370740e-001,
             -2.2605330913665367e-001, -5.2625468992391988e-001,
             -2.4385236061518398e-001 ]
         index: [ 50, 51, 52, 53, 125, 127, 129 ]
      -
         sv_count: 7
         rho: 2.9438035876258467e-001
         alpha: [ 7.7877978445759599e-001, 1.4595151265418781e-002,
             6.8451758863964907e-001, 2.8876124020952532e-001,
             -6.5842620299069521e-001, -1., -1.0822756158149391e-001 ]
         index: [ 55, 56, 57, 59, 61, 62, 64 ]
      -
         sv_count: 7
         rho: 6.1041475738136581e+000
         alpha: [ 3.1443402163064632e-001, 4.6866304428362392e-002,
             5.0006629741017727e-001, 5.7563784852895405e-001,
             -2.7509879960139699e-001, -1.6190567239674364e-001, -1. ]
         index: [ 55, 56, 57, 59, 66, 68, 69 ]
      -
         sv_count: 8
         rho: 8.7130032691622439e-001
         alpha: [ 5.0604437022265358e-001, 2.0184415763351386e-002,
             4.3765685780409258e-001, 8.7875027961257984e-002,
             4.2066562793686807e-001, -1.4869760018699313e-001,
             -3.2372869950123073e-001, -1. ]
         index: [ 55, 56, 57, 58, 59, 71, 73, 74 ]
      -
         sv_count: 8
         rho: 3.6353961546185759e-001
         alpha: [ 1., 2.4233042970436512e-003, 1.9046835170415349e-001,
             9.1128168523591790e-001, -2.6867192734087636e-001,
             -2.7956123828327423e-001, -1., -5.5594017561296405e-001 ]
         index: [ 55, 56, 58, 59, 75, 76, 77, 78 ]
      -
         sv_count: 5
         rho: 9.9999999999999944e-001
         alpha: [ 5.0105035573437229e-001, 1.4875260772704527e-001,
             -8.3430576502877357e-002, -1.1828649920961186e-001,
             -4.4808588774895353e-001 ]
         index: [ 57, 59, 81, 82, 83 ]
      -
         sv_count: 5
         rho: 9.9999999999999978e-001
         alpha: [ 1.6636541687513814e-001, 1.3720388146986140e-001,
             1.2966987280383471e-001, -2.9899217498333669e-001,
             -1.3424699616549754e-001 ]
         index: [ 56, 57, 59, 87, 88 ]
      -
         sv_count: 6
         rho: -2.1783868966663625e-001
         alpha: [ 1.2043966392449378e-002, 1.8059214221804601e-001,
             -1.0068197000313288e-001, -4.0067925643378653e-002,
             -4.5077683854474804e-002, -6.8085291095091463e-003 ]
         index: [ 57, 59, 90, 91, 92, 93 ]
      -
         sv_count: 6
         rho: 1.
         alpha: [ 6.7097282165676855e-002, 2.4197465382689316e-003,
             1.0510870151959280e-001, 8.1159572749904110e-002,
             -1.7843533750427659e-001, -7.7349965469166101e-002 ]
         index: [ 55, 56, 57, 59, 95, 99 ]
      -
         sv_count: 4
         rho: 1.0609522273292902e+000
         alpha: [ 1.7823550779601038e-001, 5.0050139809504035e-001,
             -3.4772454996053959e-001, -3.3101235593051098e-001 ]
         index: [ 56, 57, 100, 103 ]
      -
         sv_count: 5
         rho: 9.5578516177906425e-001
         alpha: [ 1.6584821166169245e-001, 4.7733328733513031e-001,
             -1.2178333987753520e-001, -1.2128549234718188e-001,
             -4.0011266677210550e-001 ]
         index: [ 56, 57, 106, 107, 109 ]
      -
         sv_count: 5
         rho: 2.1887891033112807e+000
         alpha: [ 3.8676388672323488e-002, 5.3010840337107845e-001,
             1.6271682440809820e-001, -7.1899831046056728e-001,
             -1.2503305990949310e-002 ]
         index: [ 56, 57, 59, 110, 114 ]
      -
         sv_count: 4
         rho: 4.7147135055795641e-001
         alpha: [ 1.1636244036982765e-003, 3.6231156462289672e-002,
             6.9594829877649811e-002, -1.0698961074363778e-001 ]
         index: [ 56, 58, 59, 119 ]
      -
         sv_count: 5
         rho: 1.5476586736154183e+000
         alpha: [ 1.4858535126926137e-002, 1.7961344939736040e-001,
             4.5212266814243292e-002, -1.4692434766541471e-001,
             -9.2759903673114985e-002 ]
         index: [ 56, 57, 59, 123, 124 ]
      -
         sv_count: 5
         rho: 1.6969647103475718e+000
         alpha: [ 4.7028054241632471e-002, 2.4862847909169566e-001,
             2.0131424562979994e-001, -1.1796600057846665e-001,
             -3.7900477838466134e-001 ]
         index: [ 56, 57, 59, 125, 127 ]
      -
         sv_count: 9
         rho: 3.3105637457260024e+000
         alpha: [ 1., 4.8910070268440742e-001, 3.2289632657554290e-001,
             1.6896716768405562e-001, 1., -8.3456471762170559e-001, -1.,
             -1.4639947932230091e-001, -1. ]
         index: [ 60, 61, 62, 63, 64, 65, 66, 67, 69 ]
      -
         sv_count: 8
         rho: -4.6389869920962665e+000
         alpha: [ 1., 8.2631984395210223e-001, 1., 1.,
             -8.7467907754822294e-001, -9.5164076640387918e-001, -1.,
             -1. ]
         index: [ 60, 61, 63, 64, 71, 72, 73, 74 ]
      -
         sv_count: 10
         rho: -7.3752234451243366e+000
         alpha: [ 1., 2.4873191493858214e-002, 1., 1.,
             1.0397527598294506e-002, -3.0830604630673286e-001, -1., -1.,
             -6.0032000398386354e-001, -1.2664466880155612e-001 ]
         index: [ 60, 61, 62, 63, 64, 75, 76, 77, 78, 79 ]
      -
         sv_count: 7
         rho: 1.0000000000000002e+000
         alpha: [ 1.9807272173034965e-001, 1.4388516160497050e-001,
             1.8499413416607088e-001, -4.8622645724513629e-002,
             -1.3315387483181867e-001, -1.3103190324292519e-001,
             -2.1414359370213329e-001 ]
         index: [ 61, 62, 64, 80, 81, 82, 83 ]
      -
         sv_count: 7
         rho: 9.9999999999999978e-001
         alpha: [ 2.6404103700298781e-001, 5.9896374708670874e-003,
             3.2316202793456164e-002, 2.7027056765017399e-001,
             -2.9605638423889075e-001, -8.6538602663682296e-002,
             -1.9002245801491269e-001 ]
         index: [ 60, 61, 62, 64, 87, 88, 89 ]
      -
         sv_count: 3
         rho: -1.6050134877907600e+000
         alpha: [ 7.0756072283504048e-003, 3.4460420692058896e-001,
             -3.5167981414894595e-001 ]
         index: [ 62, 64, 92 ]
      -
         sv_count: 6
         rho: 1.0000000000000002e+000
         alpha: [ 1.7222126477950120e-001, 5.4466841781488168e-002,
             1.3071374921527232e-001, -1.3237276896478165e-001,
             -1.0073961677665912e-001, -1.2428947003481221e-001 ]
         index: [ 60, 61, 64, 95, 98, 99 ]
      -
         sv_count: 4
         rho: 1.1005232063362291e+000
         alpha: [ 3.1371756242186749e-001, 2.2792080157047784e-001,
             -2.5219677991005801e-001, -2.8944158408228732e-001 ]
         index: [ 61, 64, 100, 104 ]
      -
         sv_count: 3
         rho: 1.7823989333381212e+000
         alpha: [ 7.1620017313620887e-001, -1.4145638912227204e-001,
             -5.7474378401393689e-001 ]
         index: [ 64, 105, 107 ]
      -
         sv_count: 5
         rho: 5.8491235917789997e-001
         alpha: [ 5.0503366550095463e-001, 2.7618331778865124e-001,
             -6.2283547852252708e-001, -9.8207370269898939e-002,
             -6.0174134497179642e-002 ]
         index: [ 61, 64, 110, 111, 112 ]
      -
         sv_count: 3
         rho: -7.0847037754032938e-001
         alpha: [ 1., -2.5949796472184532e-002, -9.7405020352781546e-001 ]
         index: [ 64, 116, 119 ]
      -
         sv_count: 5
         rho: 1.6866775933887481e+000
         alpha: [ 2.4933007517360151e-001, 2.3272217724984112e-001,
             -1.2097142501053056e-001, -1.4830115804147925e-001,
             -2.1277966937143272e-001 ]
         index: [ 61, 64, 121, 123, 124 ]
      -
         sv_count: 4
         rho: 8.5399016580072007e-001
         alpha: [ 2.8427233298589089e-001, 6.7159257460553368e-001,
             -2.8432214884664636e-001, -6.7154275874477798e-001 ]
         index: [ 61, 64, 127, 128 ]
      -
         sv_count: 10
         rho: -4.9914202630645192e+000
         alpha: [ 1., 1., 4.9102577962692540e-001,
             3.4808943565467593e-001, 8.7423794304248004e-001,
             -8.3108789058809818e-001, -2.2092696492474198e-001,
             -6.6133830281124040e-001, -1., -1. ]
         index: [ 65, 66, 67, 68, 69, 70, 71, 72, 73, 74 ]
      -
         sv_count: 6
         rho: -9.5641379104053534e+000
         alpha: [ 6.5309125342605856e-001, 7.3336799048747248e-001,
             7.0325132883004804e-001, -7.4705064220798634e-001,
             -3.4265993053559296e-001, -1. ]
         index: [ 65, 66, 69, 75, 76, 78 ]
      -
         sv_count: 6
         rho: 9.9999999999999944e-001
         alpha: [ 7.0288344970026520e-002, 2.7016799200861075e-001,
             3.7905616953838744e-001, -2.3763752313327630e-001,
             -2.2507382325563510e-001, -2.5680116012813697e-001 ]
         index: [ 66, 67, 69, 81, 82, 83 ]
      -
         sv_count: 6
         rho: 9.9999999999999989e-001
         alpha: [ 2.4130123320130475e-001, 1.1525957280733545e-001,
             4.3126143389884597e-001, -3.8281405901530613e-001,
             -7.8933072690145836e-002, -3.2607510820203450e-001 ]
         index: [ 67, 68, 69, 87, 88, 89 ]
      -
         sv_count: 6
         rho: -7.9740269719717005e-001
         alpha: [ 8.9555137753116493e-002, 2.4278470535982030e-003,
             5.5691429389496699e-002, 2.6618658718308158e-001,
             -3.6017418015120301e-001, -5.3686821228089911e-002 ]
         index: [ 65, 66, 67, 68, 92, 94 ]
      -
         sv_count: 6
         rho: 1.0000000000000004e+000
         alpha: [ 3.5990320387317789e-003, 2.0953644922019793e-001,
             2.9370037176904140e-001, -2.3175189732340878e-001,
             -5.5426501932872130e-002, -2.1965745377168994e-001 ]
         index: [ 66, 67, 69, 95, 96, 99 ]
      -
         sv_count: 5
         rho: 7.1983527797450964e-001
         alpha: [ 1.0772161151978185e-001, 3.7606067718120673e-001,
             -7.4335995687647316e-002, -6.8852057695228935e-003,
             -4.0256108724381690e-001 ]
         index: [ 65, 66, 100, 103, 104 ]
      -
         sv_count: 4
         rho: 4.4391896231432675e+000
         alpha: [ 7.4367913474863134e-001, 4.2899334551906593e-001,
             -7.0263474005010407e-001, -4.7003774021759359e-001 ]
         index: [ 65, 66, 107, 109 ]
      -
         sv_count: 7
         rho: 5.9782090827011758e-001
         alpha: [ 1.5542155487448248e-001, 4.2027772880419700e-001,
             6.4396505033321602e-002, -3.2777325285444009e-001,
             -6.9274206318932469e-002, -1.0907513900416660e-001,
             -1.3397319053446219e-001 ]
         index: [ 65, 66, 68, 110, 111, 112, 113 ]
      -
         sv_count: 4
         rho: -1.3187271516607268e-001
         alpha: [ 5.6975830536159892e-004, 2.9752643087083674e-001,
             2.7147409471983408e-001, -5.6957028389603248e-001 ]
         index: [ 65, 67, 68, 119 ]
      -
         sv_count: 4
         rho: 1.8764604654027868e+000
         alpha: [ 7.3755181354974289e-002, 4.5101019247918378e-001,
             -3.6041031485459563e-001, -1.6435505897956246e-001 ]
         index: [ 65, 66, 121, 124 ]
      -
         sv_count: 4
         rho: 1.6345284699561096e+000
         alpha: [ 6.7091698159804569e-001, 5.8068871094400021e-001,
             -5.2967738323101954e-001, -7.2192830931102636e-001 ]
         index: [ 65, 66, 127, 128 ]
      -
         sv_count: 8
         rho: -6.7040038508542805e+000
         alpha: [ 1., 1., 2.0686464940741243e-002, 1.,
             -9.9766667097794548e-001, -4.6296655046831170e-001, -1.,
             -5.6005324349446239e-001 ]
         index: [ 71, 72, 73, 74, 75, 76, 78, 79 ]
      -
         sv_count: 6
         rho: 1.0000000000000002e+000
         alpha: [ 1.9165921976805317e-001, 2.0156580835542837e-001,
             -1.6463198596552157e-002, -9.1547808949903470e-002,
             -1.3059905808527117e-001, -1.5461496249174242e-001 ]
         index: [ 73, 74, 80, 81, 82, 83 ]
      -
         sv_count: 6
         rho: 9.9999999999999956e-001
         alpha: [ 2.4270003436271179e-001, 2.4521583056893817e-001,
             -1.2238472556921798e-001, -2.3326006031887606e-001,
             -7.8453891094557984e-002, -5.3817187948997994e-002 ]
         index: [ 72, 74, 86, 87, 88, 89 ]
      -
         sv_count: 5
         rho: -9.8903919439858379e-001
         alpha: [ 1.0770235024531231e-001, 9.3203102348721534e-002,
             1.2459455896512171e-001, -5.2629366556507011e-002,
             -2.7287064500264874e-001 ]
         index: [ 70, 72, 73, 90, 92 ]
      -
         sv_count: 5
         rho: 1.
         alpha: [ 1.5127404226810648e-001, 1.5821402080363198e-001,
             -1.6905091546482558e-002, -1.9703248125913647e-001,
             -9.5550490266119670e-002 ]
         index: [ 72, 74, 95, 98, 99 ]
      -
         sv_count: 6
         rho: 1.1412103620537719e+000
         alpha: [ 1.3211240500478302e-001, 4.9821190305013627e-002,
             1.5548005540225951e-001, -5.4641019035601535e-002,
             -2.2184732476648741e-001, -6.0925306909967329e-002 ]
         index: [ 71, 72, 74, 100, 101, 103 ]
      -
         sv_count: 3
         rho: 3.1260849468177634e+000
         alpha: [ 1., -7.2069991150438140e-001, -2.7930008849561855e-001 ]
         index: [ 70, 107, 109 ]
      -
         sv_count: 6
         rho: 3.9650382421808145e-001
         alpha: [ 1.1155915776050698e-001, 2.8088612525209355e-001,
             8.0842300227476696e-002, -3.7248457072660474e-001,
             -9.8596627605742268e-002, -2.2063849077303085e-003 ]
         index: [ 71, 73, 74, 110, 112, 114 ]
      -
         sv_count: 5
         rho: -1.1794664116548121e+000
         alpha: [ 4.5674010259511971e-001, 1.0323293649133577e-001,
             -1.3874516585505850e-001, -9.5242339903946788e-002,
             -3.2598553332745012e-001 ]
         index: [ 70, 72, 116, 117, 119 ]
      -
         sv_count: 4
         rho: 9.6811014139523777e-001
         alpha: [ 1.3596034348632849e-001, 1.9608547807562787e-001,
             -2.4279775872178250e-001, -8.9248062840173878e-002 ]
         index: [ 70, 73, 122, 124 ]
      -
         sv_count: 5
         rho: 1.2043733331153419e+000
         alpha: [ 5.3193675232313375e-001, 2.2769234085329215e-001,
             1.1907039489112817e-001, -1.8085701574226801e-001,
             -6.9784247232532037e-001 ]
         index: [ 70, 72, 73, 127, 128 ]
      -
         sv_count: 6
         rho: 1.
         alpha: [ 5.8851863189588086e-002, 1.2506209511543737e-001,
             1.0915103482088347e-001, -6.2143531798142401e-002,
             -1.0868670529728748e-001, -1.2223475603047905e-001 ]
         index: [ 75, 77, 78, 81, 82, 83 ]
      -
         sv_count: 7
         rho: 1.0000000000000073e+000
         alpha: [ 1.5662202680789211e-001, 3.9855550907329056e-002,
             1.8984111974464329e-001, -2.2727964284076606e-002,
             -1.5752728162610763e-001, -5.5260630774273962e-002,
             -1.5080282077540635e-001 ]
         index: [ 75, 77, 78, 86, 87, 88, 89 ]
      -
         sv_count: 4
         rho: -4.1140838959793824e-001
         alpha: [ 2.9278777812109752e-001, -5.3975615315712870e-002,
             -1.5036330861451680e-001, -8.8448854190867690e-002 ]
         index: [ 78, 91, 92, 94 ]
      -
         sv_count: 7
         rho: 1.
         alpha: [ 1.3423355725956199e-001, 1.2950135866219994e-001,
             -1.6919709639272459e-002, -4.7334242086447709e-002,
             -2.0452045419396651e-002, -1.1399602276124164e-001,
             -6.5032896015403532e-002 ]
         index: [ 75, 78, 95, 96, 97, 98, 99 ]
      -
         sv_count: 5
         rho: 2.1221408125133054e+000
         alpha: [ 2.5474360603425922e-001, 2.9712503297615908e-003,
             7.1284567249791875e-002, -2.4759201657531238e-001,
             -8.1407407038507934e-002 ]
         index: [ 75, 76, 77, 101, 103 ]
      -
         sv_count: 4
         rho: 1.5185892166097423e+000
         alpha: [ 2.9923538687982143e-001, 7.2138392227685130e-002,
             -5.4582673225064852e-003, -3.6591551178499993e-001 ]
         index: [ 75, 76, 105, 109 ]
      -
         sv_count: 5
         rho: 7.9507767543145946e-001
         alpha: [ 1.8924396813345459e-001, 1.7871127045363883e-001,
             -1.8480237403055635e-001, -1.0938188082554301e-001,
             -7.3770983730994041e-002 ]
         index: [ 75, 78, 110, 112, 114 ]
      -
         sv_count: 2
         rho: 8.4489272404345539e-001
         alpha: [ 3.0510739234577844e-001, -3.0510739234577844e-001 ]
         index: [ 78, 119 ]
      -
         sv_count: 4
         rho: 1.1960414714083227e+000
         alpha: [ 7.4321046819815204e-002, 1.2335076638245553e-001,
             -1.0357317307754420e-001, -9.4098640124726532e-002 ]
         index: [ 75, 78, 121, 124 ]
      -
         sv_count: 3
         rho: 2.6167600460802518e+000
         alpha: [ 4.8982846642625277e-001, 1.2233537522772642e-001,
             -6.1216384165397919e-001 ]
         index: [ 75, 78, 127 ]
      -
         sv_count: 9
         rho: -1.0000000000000038e+000
         alpha: [ 9.6602274617655415e-001, 8.3128990866084818e-001, 1.,
             1.4774751254762550e-001, -1., -3.6396684175726612e-002, -1.,
             -3.2289106429672587e-002, -8.7637437677962859e-001 ]
         index: [ 80, 81, 82, 83, 85, 86, 87, 88, 89 ]
      -
         sv_count: 6
         rho: -1.0000000000000007e+000
         alpha: [ 3.1322851418448089e-001, 9.1692451813411610e-002, 1.,
             -1., -6.0602883099297532e-002, -3.4431808289862065e-001 ]
         index: [ 80, 81, 82, 90, 91, 94 ]
      -
         sv_count: 9
         rho: -9.9999999999999989e-001
         alpha: [ 4.7078004155982267e-001, 9.9662716123736317e-001, 1.,
             1.9024018099250594e-002, -1.2064528080939495e-001,
             -1.3035996426794724e-001, -2.3542597581909375e-001, -1.,
             -1. ]
         index: [ 80, 81, 82, 84, 95, 96, 97, 98, 99 ]
      -
         sv_count: 5
         rho: -1.
         alpha: [ 1.2183241353684922e-001, 6.8342883603415922e-002,
             1.5092427028730476e-001, -3.3894040320724417e-001,
             -2.1591642203383568e-003 ]
         index: [ 81, 82, 83, 100, 103 ]
      -
         sv_count: 6
         rho: -1.
         alpha: [ 1.1774737465318548e-001, 1.6924188728502806e-001,
             1.1999696136050132e-001, -1.3037254923083058e-001,
             -1.8423913480192788e-001, -9.2374539265956401e-002 ]
         index: [ 80, 81, 83, 106, 107, 109 ]
      -
         sv_count: 5
         rho: -9.9999999999999978e-001
         alpha: [ 1.0916269995892991e-001, 2.1867558274117208e-001,
             1.7775387868806208e-001, -3.7106152742363901e-001,
             -1.3453063396451356e-001 ]
         index: [ 81, 82, 83, 110, 112 ]
      -
         sv_count: 4
         rho: -1.
         alpha: [ 3.7196294743866973e-002, 5.8522345991753565e-002,
             3.2608427428001713e-002, -1.2832706816362222e-001 ]
         index: [ 80, 81, 83, 118 ]
      -
         sv_count: 4
         rho: -1.0000000000000002e+000
         alpha: [ 2.9888565464473016e-001, 1.4563320168267332e-001,
             1.3424235988110408e-001, -5.7876121620850796e-001 ]
         index: [ 81, 82, 83, 124 ]
      -
         sv_count: 5
         rho: -9.9999999999999978e-001
         alpha: [ 2.3203740392439695e-001, 1.5584075963082333e-001,
             1.3040997880660560e-001, -2.0122040334733748e-001,
             -3.1706773901448837e-001 ]
         index: [ 81, 82, 83, 127, 129 ]
      -
         sv_count: 8
         rho: -1.0000000000000051e+000
         alpha: [ 8.1043119076661319e-001, 7.5046801535016272e-001,
             1.5353520562742606e-001, 1., -1., -6.3839244284133567e-001,
             -9.8039913945007751e-001, -9.5642829452794509e-002 ]
         index: [ 85, 86, 87, 88, 90, 91, 93, 94 ]
      -
         sv_count: 9
         rho: 9.9999999999999878e-001
         alpha: [ 1., 1., 1., 8.2547699579451317e-001,
             -7.9253369499520679e-002, -1., -8.0673654344375823e-001,
             -1., -9.3948708285123406e-001 ]
         index: [ 85, 86, 87, 89, 95, 96, 97, 98, 99 ]
      -
         sv_count: 6
         rho: -9.9999999999999967e-001
         alpha: [ 1.2310689643943573e-001, 1.7429851997526777e-001,
             4.0873599376176309e-002, -1.4252529973091665e-001,
             -5.3985942687262096e-002, -1.4176777337270102e-001 ]
         index: [ 86, 87, 88, 100, 103, 104 ]
      -
         sv_count: 4
         rho: -9.9999999999999378e-001
         alpha: [ 7.7890529309409473e-001, 2.6511495866472640e-001,
             -5.3789453353403927e-001, -5.0612571822478203e-001 ]
         index: [ 87, 88, 106, 107 ]
      -
         sv_count: 6
         rho: -1.0000000000000007e+000
         alpha: [ 4.3730591684937531e-001, 2.3071190215117598e-001,
             6.8235928275112698e-002, -3.1777182979585683e-001,
             -1.2958724006772060e-001, -2.8889467741208663e-001 ]
         index: [ 86, 87, 88, 110, 111, 112 ]
      -
         sv_count: 3
         rho: -1.0000000000000002e+000
         alpha: [ 1.1795900295783079e-001, 3.8302782463575290e-002,
             -1.5626178542140604e-001 ]
         index: [ 87, 88, 118 ]
      -
         sv_count: 4
         rho: -9.9999999999999978e-001
         alpha: [ 3.1892625403835118e-001, 3.8090521908741365e-001,
             4.5614395554169030e-003, -7.0439291268114457e-001 ]
         index: [ 86, 87, 88, 124 ]
      -
         sv_count: 5
         rho: -9.9999999999999933e-001
         alpha: [ 2.4356564683388074e-001, 3.8246330522224659e-001,
             5.5215610701828996e-002, -2.3587151351894295e-001,
             -4.4537304923901372e-001 ]
         index: [ 86, 87, 88, 127, 129 ]
      -
         sv_count: 6
         rho: 1.0000000000000029e+000
         alpha: [ 1., 4.9490431732462664e-001, 2.3895198554477959e-001,
             -8.8519787974547848e-001, -7.7348425694991574e-001,
             -7.5174166173994902e-002 ]
         index: [ 90, 91, 94, 97, 98, 99 ]
      -
         sv_count: 4
         rho: 1.3688788227964093e+000
         alpha: [ 1.3524305042269014e-001, 4.4934868089410045e-002,
             -9.0647226049310789e-002, -8.9530692462789288e-002 ]
         index: [ 90, 92, 100, 104 ]
      -
         sv_count: 3
         rho: 1.5379736133317452e+000
         alpha: [ 2.2620275197224160e-001, -4.4157705669788112e-002,
             -1.8204504630244714e-001 ]
         index: [ 92, 105, 107 ]
      -
         sv_count: 7
         rho: -6.5664582746905190e-002
         alpha: [ 1.5776496993664260e-001, 5.5930759532312180e-001,
             1.5688437761148860e-001, 6.5348759890358592e-003,
             -7.2716698666831794e-002, -7.4556070029108593e-002,
             -7.3321905016434807e-001 ]
         index: [ 90, 91, 92, 93, 110, 111, 112 ]
      -
         sv_count: 2
         rho: 8.8239871151690608e-001
         alpha: [ 2.8527712180735870e-001, -2.8527712180735870e-001 ]
         index: [ 92, 116 ]
      -
         sv_count: 5
         rho: 1.3297741704978505e+000
         alpha: [ 1.1176706927156105e-001, 6.0311364615051738e-002,
             -4.2342735063774714e-002, -7.4058137790319153e-002,
             -5.5677561032518884e-002 ]
         index: [ 90, 92, 121, 123, 124 ]
      -
         sv_count: 4
         rho: 1.6954372457424585e+000
         alpha: [ 1.3437432065344279e-001, 1.4125517730170367e-001,
             -1.2773517004857596e-001, -1.4789432790657051e-001 ]
         index: [ 90, 92, 127, 128 ]
      -
         sv_count: 3
         rho: -9.9999999999999967e-001
         alpha: [ 1.3985353443977669e-001, 1.1939700560026173e-001,
             -2.5925054004001263e-001 ]
         index: [ 95, 99, 100 ]
      -
         sv_count: 7
         rho: -1.
         alpha: [ 3.1993103946285989e-002, 5.6482427863803364e-002,
             4.7026411536745805e-002, 1.3028473185182265e-001,
             -5.1345290602259203e-002, -1.2128337089059731e-001,
             -9.3158013705801582e-002 ]
         index: [ 95, 97, 98, 99, 105, 106, 107 ]
      -
         sv_count: 5
         rho: -9.9999999999999944e-001
         alpha: [ 1.4473474538956485e-001, 1.7625929345762970e-001,
             8.7284242314161070e-002, -1.7779396850201598e-001,
             -2.3048431265932748e-001 ]
         index: [ 96, 97, 99, 110, 112 ]
      -
         sv_count: 3
         rho: -1.
         alpha: [ 5.2112082781993550e-002, 5.8843517192298488e-002,
             -1.1095559997429202e-001 ]
         index: [ 98, 99, 118 ]
      -
         sv_count: 4
         rho: -9.9999999999999911e-001
         alpha: [ 1.3315270094807962e-002, 1.9270197559625110e-001,
             2.5576666890131561e-001, -4.6178391459237406e-001 ]
         index: [ 95, 97, 99, 124 ]
      -
         sv_count: 4
         rho: -1.0000000000000004e+000
         alpha: [ 2.2773390648156380e-001, 2.1118081471648792e-001,
             -1.6716657481442987e-001, -2.7174814638362160e-001 ]
         index: [ 97, 99, 127, 129 ]
      -
         sv_count: 8
         rho: 2.5176000180093392e+000
         alpha: [ 1., 1., 1.8772266606886323e-001, 1., -1.,
             -5.8023374132220684e-001, -6.0748892474665639e-001, -1. ]
         index: [ 100, 101, 102, 104, 105, 106, 107, 109 ]
      -
         sv_count: 6
         rho: -1.9852625621958992e+000
         alpha: [ 9.4657846014264779e-001, 9.0952567828249631e-001, -1.,
             -3.7114595924502680e-001, -1.8237545338623112e-001,
             -3.0258272579388668e-001 ]
         index: [ 100, 104, 110, 111, 113, 114 ]
      -
         sv_count: 3
         rho: -5.5258982777973142e-003
         alpha: [ 2.2981082706468613e-002, 1.3438260640679717e-001,
             -1.5736368911326579e-001 ]
         index: [ 100, 104, 118 ]
      -
         sv_count: 5
         rho: 3.0303169437185118e+000
         alpha: [ 9.8218151099103401e-001, 1., -2.3474227047577087e-001,
             -1., -7.4743924051526323e-001 ]
         index: [ 100, 104, 121, 123, 124 ]
      -
         sv_count: 8
         rho: 1.5743520662852433e+000
         alpha: [ 1., 1.2164320159696229e-001, 1.,
             -4.2802848437856333e-001, -1., -1.1898677549430382e-001,
             -4.5317733590852688e-001, -1.2145060581556862e-001 ]
         index: [ 100, 101, 104, 125, 126, 127, 128, 129 ]
      -
         sv_count: 7
         rho: -6.5154670344604595e+000
         alpha: [ 7.7356485616889725e-001, 1.7425614320358166e-002,
             8.2360237131745295e-001, 1., -1., -6.1459284180670803e-001,
             -1. ]
         index: [ 105, 106, 107, 109, 110, 111, 114 ]
      -
         sv_count: 5
         rho: -1.7165151838647446e+000
         alpha: [ 1., 2.6940195506787745e-001, -3.4055851935619386e-001,
